encog,BasicNetwork,java,3.3.0,1,63587475537469
[BASIC]
[BASIC:PARAMS]
[BASIC:NETWORK]
beginTraining=0
connectionLimit=0
contextTargetOffset=0,0,0,0
contextTargetSize=0,0,0,0
endTraining=3
hasContext=f
inputCount=304
layerCounts=3,51,126,305
layerFeedCounts=3,50,125,304
layerContextCount=0,0,0,0
layerIndex=0,3,54,180
output=0,0,0,0,0,0,0,0,0,0,0,0,0,0,0,0,0,0,0,0,0,0,0,0,0,0,0,0,0,0,0,0,0,0,0,0,0,0,0,0,0,0,0,0,0,0,0,0,0,0,0,0,0,1,0,0,0,0,0,0,0,0,0,0,0,0,0,0,0,0,0,0,0,0,0,0,0,0,0,0,0,0,0,0,0,0,0,0,0,0,0,0,0,0,0,0,0,0,0,0,0,0,0,0,0,0,0,0,0,0,0,0,0,0,0,0,0,0,0,0,0,0,0,0,0,0,0,0,0,0,0,0,0,0,0,0,0,0,0,0,0,0,0,0,0,0,0,0,0,0,0,0,0,0,0,0,0,0,0,0,0,0,0,0,0,0,0,0,0,0,0,0,0,0,0,0,0,0,0,1,0,0,0,0,0,0,0,0,0,0,0,0,0,0,0,0,0,0,0,0,0,0,0,0,0,0,0,0,0,0,0,0,0,0,0,0,0,0,0,0,0,0,0,0,0,0,0,0,0,0,0,0,0,0,0,0,0,0,0,0,0,0,0,0,0,0,0,0,0,0,0,0,0,0,0,0,0,0,0,0,0,0,0,0,0,0,0,0,0,0,0,0,0,0,0,0,0,0,0,0,0,0,0,0,0,0,0,0,0,0,0,0,0,0,0,0,0,0,0,0,0,0,0,0,0,0,0,0,0,0,0,0,0,0,0,0,0,0,0,0,0,0,0,0,0,0,0,0,0,0,0,0,0,0,0,0,0,0,0,0,0,0,0,0,0,0,0,0,0,0,0,0,0,0,0,0,0,0,0,0,0,0,0,0,0,0,0,0,0,0,0,0,0,0,0,0,0,0,0,0,0,0,0,0,0,0,0,0,0,0,0,0,0,0,0,0,0,0,0,0,0,0,0,0,0,0,0,0,0,0,0,0,0,0,0,0,0,0,0,0,0,0,0,0,0,0,0,0,0,0,0,0,0,0,0,0,0,0,0,0,0,0,0,0,0,0,0,0,0,0,0,0,0,0,0,0,0,0,0,0,0,0,0,0,0,0,0,0,0,0,0,0,0,0,0,0,0,0,0,0,0,0,0,0,1
outputCount=3
weightIndex=0,153,6453,44578
weights=##0
##double#44578
   0.0851492589,0.888371608,-0.3154508157,-0.8698109358,-0.7682160836,-0.1177739651,0.0166046769,-0.0461076139,0.4506287454,-0.1953699212,0.5977828388,0.5950396832,-0.2150128945,-0.419307631,-0.470957016,0.4797096991,-0.2224519501,0.7701607378,0.5232488458,0.005378793,-0.6619380451,0.6832318254,0.1096204201,-0.8117050384,0.4572056959,0.556747737,-0.0890046177,-0.0791346601,-0.1429379659,-0.3531146428,-0.1760241231,0.2878887388,-0.1671725517,0.0575315881,-0.2678166233,0.0945537713,0.6315454147,-0.2417744463,0.5594946198,0.3841305127,-0.2095513983,0.2684057326,0.3796039471,-0.4857162835,-0.5489406734,0.4595615338,0.5756798256,0.3224530266,0.3930861153,0.3951572409,0.8967504053,0.6186639485,-0.1454712149,-0.2146999016,-0.4860696198,-0.6324569095,0.3286577277,0.321188094,-0.1611336466,0.2690646121,-0.1238121892,-0.4431613954,0.3173105429,0.2883685464,0.5128317535,-0.3323450796,-0.5177548734,-0.3660419087,-0.0475695012,-0.4566100788,-0.4716696109,0.5613757699,-0.3693607301,-0.5392698682,-0.3831660738,-0.2712353097,-0.4405876659,0.6642439215,-0.8729668601,-0.8165406227,-0.7686922202,0.4249013669,0.531001646,-0.5976216849,-0.4299325091,-0.0760946036,-0.5309504556,0.5198205194,-0.1152829212,0.6672770138,0.0090922821,-0.3020547158,-0.0023813633,0.6486482959,0.5900440551,0.613108897,-0.5623470303,0.6299816142,0.023873885,-0.5571066677,0.8476348,-0.1537892314,0.467111027,0.8295318049,-0.3730400021,0.4084016101,0.8583581198,-0.7242393748,0.2676740597,-0.9833114458,0.3894459051,-0.2994888415,-0.5717637829,0.8713962724,0.0381728363,0.414411355,0.2217925008,-0.0118914828,0.5250786551,0.4891431394,-0.0091030624,0.3875729734,0.3676373471,-0.8410655187,0.218072759,-0.6819630078,0.4428366022,-0.6029303724,0.4484996283,-0.7851275301,0.3851914573,0.1345673896,-0.2677753809,0.5214504054,-0.8325289082,0.708151122,-0.5439176965,-0.6323968278,0.7759585392,0.0095278251,0.8729202294,-0.7098741992,-0.2293538533,-0.4702011022,0.120292592,-0.7207959049,0.3223618147,0.1300527061,0.7705533235,-0.7028822576,0.0707369724,0.9669927006,1.4216325997,0.3160379251,0.3437141648,-0.6923158619,0.1497907661,-0.5231991251,-0.3377615292,0.5882385148,-0.8360081533,-0.0610882219,-0.1779716741,0.8417797973,-3.3836510274,0.4121268549,-0.9933184268,0.179264429,-8.1978630371,0.1888390909,0.3058851888,1.1237589029,1.2138208433,0.813908687,-0.8524455721,0.4586031403,-0.0606968607,-1.2371727221,-0.0362318235,0.4495827774,-1.5929825261,0.8887074587,-0.8450169461,-0.4023381964,-0.8289954389,0.3437034194,-0.1382341725,-0.6469088627,0.0764485602,0.4411485419,0.021623341,0.3193633269,-0.3720079284,0.7901276628,0.7893376925,-0.7431556575,1.0091728878,1.3075662192,-1.0147105781,-1.3001031372,0.4531647032,0.7956651838,-0.4883755571,0.7881199859,0.7486337109,0.7185121536,0.5575354828,-0.749478202,0.4773458892,-1.0794713941,-1.3617563085,-0.2076948702,-0.608812761,-0.2355564725,0.708956881,1.1105569903,-0.827201793,0.463477988,0.0052877997,-1.137948574,-0.2107630049,2.5879572823,-1.0203950557,0.1690844955,0.1305260249,0.4565967871,0.4039391948,-0.0271273213,-0.4827201649,-0.8301155553,0.6504184593,-0.0019059793,0.4150224225,-1.1290657468,-0.7721924548,0.4561849691,-0.7730944136,0.9818347024,0.9407611754,-0.0482919613,0.9004957028,1.0852933672,-0.4225783014,0.4507681011,-0.4955230861,-0.7596460867,-0.5267927407,0.95803395,-0.9286343976,-1.3607055572,0.7296361214,0.5577595126,1.3621498972,-0.2063915055,-0.2055567772,-0.2722390928,-0.4384470591,0.1169691931,0.0101505966,-0.0138423248,0.0739136481,-0.2347354394,0.3753282048,0.2941754203,-0.1582716437,0.2538652133,0.3484996578,-0.4662093414,-0.6139441835,-0.5129978904,0.6353845375,-1.085411158,0.8731754222,-1.1154652969,-0.2941617087,0.461411536,-0.5602577128,0.7013142877,-0.1478450513,0.0879911128,-0.4839741446,0.1132820901,-0.4357140056,0.9907242989,0.0193287323,-0.5294759577,-1.2613659311,0.191909675,-1.2046844938,0.2761173221,0.6815016187,-0.2133506623,-0.6501711942,1.0444585571,-0.3202228441,-2.4004776881,-0.7986608041,0.2498595612,0.4176940527,0.124030403,0.6401420743,-0.3201191591,1.0252187839,1.3610570309,-0.2789934178,-0.2611212551,-0.1928282436,-1.0674821254,1.1696367036,-0.8796431807,-0.3580686021,-0.5932211544,-0.6084403084,5.4707326919,0.4419002644,-0.9133555866,1.0103546242,0.0057905292,1.4992064883,0.3040672686,0.4312613953,0.4344481102,-0.108729774,0.9454684825,-0.6029846557,-0.6551986442,-0.2929978632,0.280241457,0.7501548669,-0.7398490515,0.3031545048,-0.8875535964,-0.3305169843,0.0379407426,-0.8957457349,1.2159199722,-0.9315825058,0.400937277,-0.5005982017,-0.603243209,-0.2136956416,0.0987158246,1.5678273158,0.5161572254,0.9366987363,-0.2524765593,-0.3449965234,0.0247356745,0.4505030598,-0.0248645148,0.0840856333,1.1319095245,0.2006036215,-0.9198829704,0.2360890397,-0.0540947257,0.6179887549,0.7618725475,0.6112443366,1.1455166071,-0.03193646,0.4629747289,0.6305131105,-1.1457108873,1.0734839999,-0.6127906386,-0.8134323522,0.3305838185,1.921635168,1.1619648607,0.6977141806,-0.2771008511,1.0336829477,0.0579093575,-0.2876623441,-0.0744170883,-0.0111196604,-0.9124309737,-1.4087479073,-0.048362358,0.8011267338,0.9077146217,-0.4709843561,-0.0350726209,1.7724014711,0.2864663509,-0.5699453494,0.3699934185,-0.0639352246,-0.7204954598,-0.2826120155,0.2224483886,-0.8570184739,-1.2826919913,-0.1117608281,-0.5329873693,0.5396998089,0.0956774241,-0.3038984307,1.4467830276,-0.0886922135,-0.1721577228,-0.1885079792,0.7332466977,0.2492938587,1.0543244239,-1.3699980589,0.6379428478,1.0036553781,0.7645312132,0.8024728888,0.3111114557,0.8830695531,0.533219359,-1.1578575611,0.519741043,-1.7478465948,-0.5202326773,0.1593924758,0.6079662856,-0.8403303771,-1.8219315107,-0.5040583864,-1.0538806815,0.8574504881,1.1000267608,0.5725092209,0.2939017381,-0.4081728533,-0.4152617862,-1.3552185404,-0.438280825,1.2705412645,0.7461456241,-0.8278705357,0.7295724487,0.0582953565,-0.1777860112,1.1107912725,-0.3510182953,-1.3538321217,-0.1784794593,-1.2976652237,-0.7151507328,0.4908092243,-0.2042379183,0.7219149116,-1.5608233653,1.1618229634,-0.2729097105,-1.1401785928,1.5039197538,0.4617824659,0.5870764039,-1.050277835,1.4113102341,-0.7143539717,0.6857202933,0.9566582794,0.4065592223,-0.8358699454,-1.1587184083,-0.6685293275,0.4774774922,0.5804591668,0.1323076611,0.2585564473,0.7871591303,-0.1788474093,-0.4994915537,0.4797098438,-0.0129490333,-0.7199012612,-0.4018371411,-1.0757748295,-0.0071634261,1.1561038997,-0.6309018659,-1.0557384548,-1.835848311,-0.5886855413,0.189356973,0.9607468191,1.0176446193,-0.5218653027,-0.9544143593,-1.1886270046,-0.9496656953,-0.6941804197,0.8255696339,0.9285961323,-1.1929165669,-0.0876128228,-1.5428646228,-0.7268621648,-0.8930634934,-1.1973180527,-0.7399685977,0.3740145429,0.3155939125,0.3968253495,-1.3177316144,0.5072709021,-0.9112973149,-0.8507468781,-0.4568494113,1.3794150928,1.0610289848,-0.4850555889,-0.4459472039,0.7771786798,0.4599925464,-0.1975630165,-0.8580804263,0.464428636,-0.4429786054,-0.5167932852,0.1198506273,2.7589585303,0.1393345479,0.937558759,0.6249673563,-0.781280213,0.0667500032,-0.2975467758,0.1591272927,-0.6878115587,-0.1716164045,-1.7810032887,1.1884186052,-0.553842038,0.6498878606,-0.5212509124,1.1703968481,1.9691040223,-1.182036646,0.8942265887,-0.7991981814,1.4243667915,-0.220248936,0.6767988733,-0.7278664825,0.3330921291,0.1916695464,-1.1270519376,-0.3168064183,-0.2336035352,0.5940260294,0.3874759365,0.9963645284,0.0248388932,0.8601544152,0.110126605,-0.5839972032,1.501816721,0.4928806755,0.1518722005,-1.4367865956,-1.2529761021,0.392387724,-0.2293419831,-0.0969767021,-0.048361141,0.2069632475,-0.4529841962,0.0928612871,0.714982446,0.0657952428,-1.0264869385,-0.0320794506,0.1708657308,0.1155368046,0.4250256593,0.4064660925,0.5927134,0.8311938704,-0.3169605096,3.3053833682,0.8145387093,-0.6536898297,0.4796817419,0.3795259629,0.0454793305,-0.2362051401,-0.3617301592,0.217059516,0.4672350388,-1.5299519624,0.5159866207,0.8698257209,-0.3028035044,0.4374784464,-0.3562524716,-0.1822757296,-0.3735768629,0.133995796,0.3610392676,0.2960520094,3.9192005227,-0.2565926961,-0.5144896498,-0.0956825156,-0.7137796141,0.5649668337,0.141835979,0.3206749661,0.5642733755,0.0746736203,-0.8781990316,-1.0741530986,-0.2311969192,-0.3524248436,-0.7028196581,0.7124771744,-0.329616864,-0.318543647,-0.897921196,-0.4728089722,0.0033082872,0.5955965365,0.4053630564,-0.5377529013,0.8170319882,-0.4671537937,-0.2413082048,0.6217568324,-0.5753013888,-0.3124172806,-0.5548507096,0.3379406076,0.2830986042,-0.4314727567,0.0290281118,-0.0998656283,0.2311674751,0.0895427177,-0.0087753373,-0.2153679646,0.4986002364,0.8289075869,0.3511396506,0.594324755,0.6594446547,-0.7899500622,-1.3113562328,-0.9534572868,-0.1799668317,-0.7945539341,-0.45457271,-0.208557195,0.4737543918,-0.605673421,0.311950937,-0.5476184476,1.4205415966,-0.740104687,0.7259003764,0.579937616,0.5441833893,-2.9383967954,-0.3323278863,-0.1860239756,0.063846559,0.1294049252,0.7936925231,0.3914688417,0.5302615209,-2.3551986816,0.0939042723,-0.0945710523,-0.6429887412,-0.9753720228,0.6082294409,-0.7364585185,0.4000226151,-0.8322760214,-0.2343196097,-0.6288185113,1.2892078448,1.2258017395,-1.3274172546,-0.4772571731,0.3300437852,-0.8129876888,-0.0304093287,-0.1611218577,1.2133399089,0.8424030205,0.2405453464,0.1290110634,-0.1559115049,-0.5818618149,-0.2468860788,-0.8362045624,-0.2624521765,-0.3037762056,-0.3572975191,0.7954171453,0.3384317015,-0.6563943386,0.8590488591,0.2221997511,0.0560548355,-0.0484029573,1.7157230341,0.9434694769,-0.3271206879,-0.3176461606,0.2138969188,-0.4537679181,-0.670546485,0.4781596598,-0.2489821822,1.1981130199,0.4962652416,-0.6211696105,0.214646778,0.566477417,0.1907100486,-0.0310061168,-1.4107776882,-0.665935166,0.8444613813,0.0796037749,0.0970960343,-0.5182133868,0.4643458711,-0.0766566692,-0.3960709626,0.3589791485,0.6408706159,0.6955086823,-0.3880769906,-0.5255978047,0.8214478037,-0.4963481712,-0.2378890855,0.6003246314,-0.0632963643,0.8153213392,-0.1170492023,-1.3448800578,0.6388004223,1.5844325055,-0.2924155757,0.4090547646,-1.8135977219,0.1928524274,0.3415526675,0.1951925378,-0.4155806743,0.6343793107,0.3706980113,-0.1668140665,-0.7393633578,-0.0136412794,-1.1443026355,-0.3233089086,-0.4624914804,0.4341443424,0.541087617,-0.4472888816,0.4740925691,1.0265044532,-0.7763072392,0.491300698,0.3389100668,0.1071207749,-0.0585769732,-1.0649275609,0.1583769466,-0.2654069908,0.4606137907,-0.3021220261,0.0655828791,-0.0140157509,-0.325996953,0.2193647325,0.8512212938,-0.8699375432,-0.1699794763,0.6098271707,1.3145625199,-0.3461435055,-0.8709960569,-0.3263891573,1.7017175016,-1.3227674196,0.5519663232,-0.1161185186,0.143982463,-0.2986790509,0.095953935,-0.1470044101,0.3109091184,-0.8933932285,-0.9911959965,0.8551131024,-0.5591731468,0.1819058552,-0.4417023803,-0.4491328475,-0.6694672373,1.2997020591,-0.3418771168,-1.4514859707,-0.455484629,-0.9412907584,-0.4103994402,-0.21953483,-0.030513028,-0.4817330106,-0.02959368,-0.2395271197,0.5389058139,-0.7059820124,-0.4025342568,0.2994780403,-0.8302133826,-0.1928253993,-0.2983786609,0.4367230041,0.5423131599,-1.7510702421,-1.5376663048,0.4665115466,-1.0327631397,-0.7429799857,-0.3803818778,-0.6189553365,0.8609794484,-0.0279565334,-0.51752581,-0.7327625289,0.4783403243,0.4417287485,-0.0187213312,-0.9373516736,-0.4197059709,-1.7029265989,0.1021615289,-0.5116337902,2.3148080893,0.2977460755,-0.5548012098,-0.2241235728,0.2519096992,-0.1798667937,1.5701870066,-0.625735528,-0.2885516308,1.0328801405,-1.9543684093,0.4882041974,0.2188623111,0.8989204594,0.681679307,0.2701355058,0.3246259888,0.0361225394,0.4516236376,-0.0244122161,-0.813662539,-0.3059864686,2.0591041258,0.1965223601,-0.4809463059,0.6511007888,0.2799306699,0.8137252258,0.9327022369,0.8043297529,-0.3070552019,-0.51564601,-0.409532132,-0.0548849384,0.0914406593,1.1248883456,-0.0519622293,-0.0720138963,-0.1156157432,0.4593391817,-0.3938526456,0.6222198132,1.9229024092,0.8409473574,-0.9023463311,-0.9888882173,-0.9504805857,0.2287937724,-0.2034080751,0.4857909321,0.2293296941,0.5141318097,1.5490643906,-1.2429261495,0.3152793147,-0.9418287453,1.1633226186,-0.2951733662,-0.3145046936,0.5325090937,-0.4373148719,0.2220333667,-0.4409624587,0.1625287761,-1.0061849076,0.1713897407,-1.0334608727,-0.7475094223,-0.1037667592,1.1328506202,0.2752856758,0.2586053915,1.8386608953,-0.2705454032,0.6071592754,-0.6274642783,0.261224978,1.0956890394,-0.223444799,0.7189857734,-0.6719068766,-0.8506309769,0.6206507068,-0.7582558296,0.7956188323,-0.1932801291,-0.2231979623,-0.5785612454,0.2263154122,0.5860094422,-0.082250016,0.7932469863,0.4908224559,0.3322456275,-0.4458270343,0.3523183785,1.3328368995,0.1059416351,0.8767910649,-0.0085220063,0.7891197348,0.3636387731,0.7776221003,0.0441990878,0.1235935163,0.4006157017,0.3624768177,0.1241539692,0.5577798911,0.3782558562,-0.5327866227,0.6450198126,-0.3584578218,-0.8520261681,-0.3896075903,-0.7175223544,1.6752915275,0.2928975408,1.4196136826,1.9558518321,-0.3223342395,0.442819526,0.0472149383,-0.7665615798,0.7300851662,-0.6758078285,-0.8407876321,-0.6827724756,0.7347599026,0.7916973029,-1.6047909899,0.0517062781,-0.2281890953,-0.109260953,-0.6230562984,0.4802876168,-0.8769298407,0.1134543982,0.0645744251,0.7366959192,-0.5355501921,0.1327102795,0.3813848248,-0.1516956713,-0.4565286211,1.3180469122,0.0509726175,0.5637623562,0.0084342431,0.3499502016,-0.9400003526,1.0177242747,-1.2227387763,-0.0377937193,0.5853769289,0.0137668364,-0.1567323103,-1.6810017323,0.7880617252,0.0116920549,-1.001554085,0.6948369001,0.6163616959,0.3029947339,0.483519874,-0.0431057608,1.2907507761,0.6435540279,-0.1695790549,0.2918135242,-0.6577276008,0.0545929224,-0.184456205,-0.1490413707,-0.5085264869,0.0320394811,0.0379428869,-0.0755713937,0.6754782002,-1.4206862148,-0.9021817912,0.3484152143,-0.4031771246,0.2127702449,-0.6789449432,-0.4063515867,-0.513998963,0.0950971752,0.7706398929,-0.2754370693,1.2336919873,0.1270993494,-0.080358055,0.6276023273,-0.408768128,0.5510919558,0.3149317321,-0.4018891079,0.7463743934,1.0626530514,-1.3982979829,-1.0083837449,0.7870582518,1.180111677,0.9860687208,0.8897470179,-0.2899507549,1.8791192132,-0.4578789226,-0.3326963527,-0.5680909224,2.4077800302,-1.2568353066,0.9107502916,-1.8171607,0.0756699503,-0.1670936128,-1.4231175941,0.4047711741,0.6351254026,1.0729585123,0.0082354955,0.4260016885,0.1950579402,-0.7487461181,1.8742268537,-0.0783994589,0.1612533966,0.2565765171,-0.3527265595,1.0858288135,0.3623105979,0.3285053801,0.3078451008,-0.5393431346,-0.5789960227,-1.2374119833,-1.03711954,0.7944884719,-0.939105351,-0.0570844901,0.5228369501,1.0403042892,0.3171273374,-0.0099887693,0.0596146128,-0.233802005,-3.2609022633,-0.9362776894,0.2679872834,2.2883275144,0.0064173449,0.0065491256,-0.8062653989,0.4557996102,0.0398007716,0.9968890757,-0.8432818473,-0.3737637696,0.4362149841,-1.0780747826,0.1302521681,-0.1505075848,0.9744923325,1.3458418467,-1.4613666266,-0.6464773363,0.8596419546,-0.217810711,1.3574116756,-0.4184055309,0.8070916088,1.0490987942,0.1089718386,0.8277304077,0.7914651858,-0.1453128016,0.2551942804,-1.182573216,-1.0440243593,-1.0831327949,-2.7892239184,-0.0108224651,-0.258463665,-0.2533257863,0.4528358924,0.4690929313,-0.0804483226,0.6646888702,0.7939278664,0.4625071722,0.4296947982,-0.0705879908,0.526970037,-0.5803247993,1.4223051604,-1.4974853143,0.0932857069,-0.0134327954,-0.1236969014,1.1126278729,-0.4516809919,-1.6882856182,-0.2680364055,0.0974715725,-0.7596651561,-0.8420966494,-0.1079378445,-0.042055237,0.260164425,1.8337286063,3.5420888688,-0.7599166693,-0.0694195394,0.3914984442,0.9202969377,0.6019142606,-0.7809956619,-0.7847123174,0.1873359765,1.0541487234,0.8512969956,0.1129296197,-1.348439396,0.3819580246,-0.3545285235,0.3608077073,0.2171110438,-0.2543856089,-0.3994113398,-0.0023721064,0.5247151303,0.5309334674,-0.5390353443,0.2011812511,-0.3093711104,0.5638135673,-0.0400347741,0.8293013542,0.2063726188,0.1991132201,1.3846941728,1.4614569281,0.5347843277,-0.3816149312,-0.7312540648,-0.0604955093,-0.4049020985,-0.0720300212,-0.6845872046,-0.2350149181,-1.8542820828,-0.4727646219,-1.3921859149,0.7409764797,0.208431522,0.4735029055,-0.7884541079,0.3318631885,0.0585606575,-0.1587217451,-5.801957822,0.9247408705,-0.7032438789,0.8345918805,0.4793646465,-0.2462956726,1.9500620206,0.4926370592,-0.1142393675,-0.4859354561,-0.0954454062,0.7095150165,-0.3394065835,0.1117878533,-0.2468672581,0.8113138642,-0.3421770597,0.6409309433,-0.6436564355,0.8876661015,0.0161215245,0.4539535786,-0.1258913728,1.3615621623,0.650289066,0.1892154343,0.3287678538,-1.7977074013,0.0613140032,1.3456469439,-0.2290351337,-0.6521511712,0.5496194779,-0.0446193271,-0.8693404236,-0.2574989399,1.2485899973,-0.910065312,-0.3657586875,0.6999094949,0.1952195772,0.2143951553,-0.5863894414,0.2895812872,0.0959533212,0.3391276131,-0.3603767493,0.0388430039,0.4429870978,-0.108605208,-0.7191795542,0.3717354525,-1.1517442838,0.0511432593,0.0631435485,-0.381143684,-0.3142888602,-0.23693844,0.5753940456,-0.8613966583,0.5822219428,-0.131385352,0.0142667238,0.6192668916,0.7262525982,-0.7465848542,0.8330432,-1.0364365362,-2.4203240724,0.1404834581,-0.4346374571,1.9114834414,1.0377581273,-0.4838427391,0.3823682592,0.9303970724,-0.2565885086,-0.0007169494,0.9569402222,-0.9713102632,-0.8527021157,0.5735584046,0.192883389,0.0187225137,0.3071945976,-1.6607081339,-1.0732363298,-1.5655861573,-0.4935579177,0.4735764613,-0.6550309222,0.7382562721,-0.0068131487,-0.0000820163,1.9932121442,0.0438664563,0.1859950598,-0.4096683299,-0.6626841564,0.6603128189,0.7503567216,-0.587217543,0.1974726539,-0.4990756047,0.8890308637,0.0580291359,-0.0459388739,-0.5212586823,0.1723230565,-2.1517105877,0.8432575209,0.6638904876,-0.429040692,0.1547965605,-0.4929702285,1.7274003456,0.1939524538,0.4918878823,0.7923543646,1.4610612614,-0.1865447996,0.5542804903,0.9277863504,-0.2308542998,0.226830016,-0.0347921283,-0.7747196475,0.1061290416,-0.6132464549,-0.5837519903,0.8172233757,-0.9729437888,-0.5324152584,0.5064266744,0.7600485048,-1.1594011993,-0.2066356842,0.5217212872,0.459117725,-0.5112944477,0.6000761735,0.4224786974,-0.8344542852,0.1565424967,0.0133272879,-0.1472224804,-0.3753080587,0.4164740737,0.7344692424,3.1995070528,1.7094987483,-0.2335683658,0.4208710312,1.7897880243,-0.9341662288,0.509613081,-1.1624340829,-0.1172916819,4.5400294239,2.656944781,-0.0649916857,1.3253625757,2.6302867586,-1.8039227577,0.3542238568,0.9120779483,-1.6211931726,0.1681088121,0.825855043,0.954113759,0.5652418268,-0.2546740415,0.6255571668,-1.7854803991,0.179741207,-0.3121575008,-0.2129578154,1.3778414669,1.8007629061,-0.0906303111,0.5048612569,-0.6304117484,0.6474292229,0.9744880079,-1.3721627445,0.2133142868,0.7353577941,0.7780976274,0.3377970371,1.1255487925,0.155816282,1.4697041201,0.2922960259,-0.1511566122,0.56537921,0.606235137,0.7323582468,0.1785349516,-0.6441614177,1.2288611792,-0.2386904322,0.02930241,0.9247516335,0.7886286974,0.7704623872,0.4517666871,-1.130376996,-1.2121538551,-1.8805894655,-2.6259228207,0.375838635,0.1592192525,-0.5191950197,0.2033211851,-1.5845774137,-0.4717576758,-0.0570478487,-0.4416592698,0.1846809091,0.5508698464,0.3468033069,-1.1210799067,0.0496982203,0.8284479509,0.3452974594,0.4151451169,0.1960174115,0.1192943483,-0.5603476444,-1.4918021297,0.6825016309,-1.4715309933,-0.0190791974,-0.1136368504,0.6752802903,-0.7646024709,1.2039046467,0.1442457347,0.3238535134,0.3764462769,-0.2968818321,0.8019500452,-0.4283067279,-1.0101781654,-0.427989178,0.890296483,-1.3928435314,-0.2249613414,0.660335106,-1.1219937916,0.378300172,-0.5785607864,-0.1670031034,-0.2045557716,-0.6438294019,0.6990947855,0.1099768726,-0.3467097886,-0.3940032637,0.489385237,-1.0374464678,0.1357157384,-0.0106847803,0.2119554436,0.0024359169,-0.3980797199,0.7442329344,0.5265083288,0.1741401335,0.4296926312,0.7260300806,-0.0121864369,0.1522034986,0.2089947941,-0.2740403123,0.2527389469,1.1094543917,0.5396936396,-1.008994503,-0.0038915719,0.1910388034,0.8030127773,0.4137460951,-0.0936271262,0.2516611296,0.1010608481,0.6703080977,-1.503908408,-0.8205115678,-0.4782619313,-0.4860304769,-0.2696024303,-0.9616475534,-0.7049926782,-0.1162232706,0.0227789447,-0.0546288585,-0.8088779589,0.8873534044,0.1497875942,-0.0185112272,0.0613438625,0.1429070715,-1.2245572048,-0.4592790837,-0.0278321441,0.3404955605,0.4576017844,-0.6069606121,-0.0280727345,0.522843844,0.7904701229,-0.1851264279,0.4666058204,0.1466915665,-0.9633943758,0.4021569308,-0.2236554209,-0.0803962911,0.0462496893,0.3885448597,0.1195452617,0.2652392218,-0.9449531706,-0.6595742451,-0.752136315,-0.0841689875,-0.8944552481,-0.5009303048,-0.1524772153,-0.6787739924,-0.4458746463,-0.8028547537,0.4071932852,-0.8987416507,-1.6449795744,1.1749488705,-0.1276226815,0.0173946335,0.3810871496,0.7699535623,0.1578160765,-0.2944284675,0.6275566464,0.2843573038,0.854653672,-0.0095950559,-1.8475863272,-0.3739707497,0.0054363606,-0.6270891824,0.0916784878,-0.8143589597,-1.2861050413,0.169858103,0.1290452065,-0.9888157188,-0.708199134,-1.0089390051,-0.1980301419,1.0499650544,0.4081434269,-0.5506795637,-1.497121427,0.7692469162,-0.0058145834,-0.4792251765,0.9715387961,-0.2388688568,-2.5144622881,-0.8652969437,0.105271653,0.2306048242,-2.5871700105,-0.7976390546,-0.718315592,-0.1028045861,-0.3613612992,1.0533719919,-0.0501185196,-0.2988732609,-0.6657858811,-0.2189397534,-0.4601705833,0.1486861068,-0.0542937345,-0.1372303385,0.3537019657,0.3250944664,-0.7932800362,-0.7012868531,-0.3056584308,-0.1834260665,0.0709623994,0.7142676076,-0.1113484052,1.0099749482,-2.4106549992,0.477265096,0.9399121797,0.24068601,-0.2836046079,0.6746036782,0.6026476039,-0.5578634726,0.0018412177,0.2746802557,0.1618775258,0.6209025576,-0.3319955387,-0.1926183493,-0.3054501686,-0.5310919905,-0.538396998,-0.3718850934,0.6984724118,0.2415700905,-0.643910886,0.0775848889,0.5992357362,-0.5657847835,0.2623685557,-0.160403182,1.0455180784,0.9530967586,-0.9817087892,0.6951416166,0.2955420345,-0.1718140561,-0.0819027214,-1.0598476844,0.5236902432,0.5372063052,-0.9008978234,-0.5755157827,-0.1752412741,-0.7264416244,-1.0392628448,2.7709171019,-0.164948523,0.3944587225,-0.3223916382,0.2520440988,-0.3433000938,0.1172517255,-0.2964694015,0.0610633107,-0.5332933393,0.043206538,1.6089347197,0.2198406917,2.2524479515,-1.4718594839,-0.1665141229,0.0449168041,-0.37259008,-1.0810721992,0.0486747491,-0.4585956595,-0.0847468669,0.3326529172,0.5408651388,0.6576605735,5.0613493674,0.7491027744,0.7000544353,0.0975154985,-0.7330058478,-0.0027273921,1.0370422441,0.5500427725,0.6233469398,0.018473261,-0.0374211107,0.4879496444,0.1157733269,-0.3171869181,0.1500344175,-0.8186883142,-2.5158762174,-0.7450986168,0.3124425131,0.2415070011,-0.1194564408,0.0398515395,-0.5814840043,0.1158020208,-0.1759939165,0.1340698389,0.2981536751,-0.9322384811,-0.3521244953,-0.928534272,-1.9276331679,1.5576195462,-0.3930914562,-0.2706546949,0.2789448012,0.2570764531,-0.2986262734,-0.5341958127,-0.7483438098,0.9991915591,-0.010411929,-0.6062320577,0.0882926669,-0.3504419502,1.0324149483,-0.8702475765,0.7374232278,-0.521978681,-1.1687923804,-0.684315737,0.4407105758,-1.2144518177,-1.144282243,0.5451535401,-0.2308413062,-0.553095002,-0.671529427,0.3498077093,-0.0293269066,-0.3854825589,0.8663825811,1.304782959,0.6016965895,0.6335205131,-0.8906248004,2.1936962815,-0.367505378,0.1790258636,0.5765991724,0.4080456635,-0.621645343,-0.5593686344,0.0142405976,0.454538875,-1.700351208,0.373798593,0.4085271096,-0.8232246614,0.7652116177,0.5917639206,0.2374427126,-0.976307571,0.1205323551,1.4890746126,-0.2449090808,0.8515108226,-1.1792255643,0.7763653901,0.1865618749,-0.3509159878,-0.4352727605,-1.7450413225,-1.1773547413,0.9706891246,0.0011632719,0.842002568,-1.0276252546,0.3100892635,2.2661149644,1.4026314924,-0.3689722279,0.7913107086,0.0129215522,-0.4878784553,0.1628830835,0.5649945352,-0.9627716485,-0.010626631,-1.4167302697,-0.2371912672,-0.515213283,-0.6049111218,0.3957260472,0.4640276612,-0.3831552112,0.501940183,-0.7691410695,-0.2176342838,0.498705109,-0.6332899549,0.4988708223,0.8733103023,-1.2938288806,0.5081859847,0.706726877,0.2104081514,0.2727991621,-0.6651855274,-0.0869916683,-1.3845942152,0.8172649302,0.1294611495,-0.2547250493,0.0414873454,0.0100624303,-0.5921783407,-0.366682941,0.1329286861,0.2092039922,1.1208644669,-0.111393595,0.9883994965,0.2205389515,0.3154175776,-0.0142104394,-0.0591076123,-0.1367717748,0.229949526,0.2908706551,0.5537963421,0.2119679862,-0.2505593418,2.26555613,-1.0984080708,-0.1534954513,-0.8279508498,-0.9662545602,-0.081982866,0.526977812,0.5893056029,-0.5614462981,0.9872958514,-1.3054049918,0.4835265163,-0.2436689192,-0.1477802161,-0.6323019395,-0.3477230778,-0.6480468008,-0.9121378516,-2.4717226755,0.4841970304,-0.1214691207,-0.1024253172,1.3911617701,0.0346027105,-1.7294769622,0.08868958,-1.0949412726,-1.2385215389,-0.4334768987,0.9596053819,0.8641952863,0.6419424259,0.5565340998,-1.2058672397,-2.7993403133,1.1593709728,-0.3315234754,-0.7794257378,-0.0892063139,-0.0630047957,0.7267642564,0.096718285,-1.0854933436,-0.299709876,0.1164880588,-1.1351900295,0.8866068689,0.3761250706,0.419241269,0.7014592677,0.1412809045,0.8339908221,-0.5109110804,0.1894797648,-0.7597365574,-0.4120672071,-0.9166542216,0.2996936869,0.6869625768,-0.4381549741,-0.4732224696,0.0994195201,-0.2181098452,0.6643578266,-0.2147116912,0.2260254805,0.0831771933,-1.6523899601,0.6130313255,0.6409733129,1.1405229018,1.2058180256,-0.0310531207,-0.9267083041,0.5661655446,-0.5457649589,-0.4079340982,-0.9224018351,0.8277507346,0.6454737997,-0.8969867193,0.6243896556,-0.4363613282,-0.3961075695,0.6498383222,-1.7674729259,-0.9442685229,0.9000530447,-0.030961393,1.4162499543,-0.0717834153,0.6263842514,-0.8631180563,0.9192841144,-1.0929460567,0.5241402092,-0.1304853019,0.161342784,-0.1885087218,0.0820302379,-0.3419819035,-0.9490124225,-0.689753649,0.1544858093,-0.3517021182,0.7794327062,0.4933582792,0.7450789142,0.803818812,-0.8404235989,-1.2696326043,0.3000849711,-0.8010958454,0.4404156805,0.1943745846,0.7579319968,0.4625649675,-0.2123205566,2.3237648239,-0.1785183322,0.1332335922,-0.0241225247,-0.3172752309,-0.6991283763,-1.0031107045,0.7955907823,0.1945506639,-0.1356122655,-0.6650927401,-0.611545372,-1.3854665933,1.1674587612,-0.3244275286,0.2346976557,0.6012563416,-0.2271383314,0.2672329895,0.0979276959,2.2780901797,0.9770167511,-0.9717665422,-0.3732347292,-0.6358639869,3.0564950427,1.0737824755,-0.1258356357,0.6839771951,1.8015405056,-0.5608090681,-0.8864009476,-0.4799421366,1.2303588838,-0.0047927291,-0.8516149672,-0.6867404164,-0.6628696244,-0.7102350777,0.3705018792,0.9441762852,-0.1033374406,-0.0992955932,-0.0232283825,0.0039859086,0.7294393791,-0.4443922648,1.0581315131,-0.147397483,-1.083428802,-0.3087408148,0.3570021363,0.3603753058,-0.3320398159,-0.120899497,1.0265161693,-0.3202071452,-1.1374834764,0.923412126,1.1882073966,-0.777842187,-0.9268083071,0.9166662663,-0.4341155005,0.2972114613,0.1962912504,-0.1767392069,0.7123225618,1.260392766,-0.1916897318,-0.1030717405,-0.2774316063,1.0370138861,-0.501748289,0.5211168518,-0.1413501488,-1.021356689,-0.1024157496,0.4179738673,-3.426003592,-0.0652824257,0.5473371343,-0.7891545118,-0.079025961,-0.1517016747,0.2769634269,1.2794388197,0.6238644214,0.1402868268,0.488767641,0.6203507207,-0.6258041295,0.2402582229,0.125178276,0.1939646405,0.2075713111,-0.001606942,-0.259123154,-0.4778701754,0.0810883485,-0.3935618146,-0.2082861439,-0.9064475896,-0.3623049925,-0.1409656063,-0.1703390234,0.7574078493,0.4618061919,0.4402336338,0.3143043684,-0.5175521517,0.3566003052
   0.9731548985,-0.9192973715,-0.2591612937,0.07218449,-0.9336738186,-0.0217512605,-0.3435358666,-0.5728757849,-1.8454351938,0.3401565523,1.0375661739,0.8292021652,0.8910340645,-1.0331407352,0.3835858774,1.126683606,0.5917677842,0.3918925018,0.1108438516,-7.7603217796,-0.812853373,0.7218586593,-0.8762813017,-0.3036330744,-0.4666275164,0.9010893479,0.1254136603,-0.5045751323,-0.4319816373,-0.4304475666,-0.9726902522,0.8931665974,-0.5883703807,-1.1071943835,-1.026552941,-0.4675057555,0.0116537799,-0.626676053,0.6715694923,0.5042726345,-0.460398854,-0.041603148,-0.0610257919,0.7453333257,-0.3725023404,-0.0234984012,0.164794788,0.490251666,-0.7645404654,-0.2402412487,-0.3936176094,0.2613648635,-0.1273536845,-0.1125022922,-0.1319629708,-0.5767097575,0.5948112158,-0.4031062244,-0.8669460763,-0.9360111684,0.3198184254,0.3946666957,-0.2169433431,-0.4299983224,0.4045098388,0.2513390668,0.3191676483,-0.2126049646,-1.1726958855,0.2375432769,0.13264182,-0.7992755325,0.3470157145,0.7257725024,0.9180810836,0.6960962439,-0.73724152,0.1682650537,0.3314432967,0.6910725131,-0.2179108138,0.0710197833,-0.8000735085,0.8360724194,0.2215708102,-0.4747482903,0.5497647102,-0.4691733553,0.2080808941,1.6588553204,-0.8124156494,0.2308879643,0.018496713,0.2713702023,-0.0362743144,-0.2826818104,-0.0523263442,1.3351644446,-0.9025715201,0.7900456249,0.4878168207,-0.0792089429,-0.0366868827,-0.7015024568,0.176117259,0.9671272444,-0.1417036529,1.1984684163,0.0603935959,-0.4778519097,-0.0353457042,0.3052696987,-0.64495761,-0.9402396076,0.5372319598,0.4756683752,0.1160156567,0.0470745568,-0.4538478214,0.4261687558,0.7735002305,-0.040029387,0.7951161847,-0.6350126745,2.1327330849,-0.1422975567,0.9073145242,0.4475134611,0.7189051831,-1.2336974665,0.2885787903,0.3982445068,-0.4095869614,-0.3574715604,-0.6180277407,-0.0421172204,0.4514653677,-0.4046488461,0.9438800327,0.3621167032,0.9101751044,-0.0445675137,0.1770500863,-0.3658517955,1.2316293228,-0.3629716502,0.2601449925,0.0356202167,0.5100240077,1.0032301217,1.4348440915,0.5732867448,-0.350636331,0.7599087593,1.2603895691,0.8616376662,-0.891980539,-0.2093095333,-0.3820603342,-0.9731988459,0.5033506079,-3.3043661858,-0.3456780062,-0.2067733526,-0.7984346616,-0.1422104941,0.192993171,-1.1410214796,-0.5432936534,-1.4112070937,0.9596204827,0.1125660807,0.035404014,0.1396256206,-0.9370806295,-0.0357864459,-2.3907029299,-2.3441137222,0.0858788323,1.3400681525,-0.855603589,0.9546369282,0.7382940736,-1.0252786868,0.5799555858,0.7840422736,1.8151968393,-0.9029469107,-0.8600965687,-0.1099243996,-1.071019173,0.3962271891,0.1901390377,-0.124881383,0.0840895557,-1.0033599206,0.6831238687,-0.0488563432,0.2655047287,-0.4846297634,-0.1892665884,-0.5647300918,0.9087969061,0.573618135,-7.0270441538,1.6995679307,0.3016788736,-0.1923312687,-0.507781972,0.0292804552,-0.367381298,-0.4852126038,0.1332420898,-0.1072992738,-0.7159924061,-0.6653993295,0.329709423,-1.0103544374,-0.5519105031,-0.245576933,1.2894698539,-1.1934600876,0.7748305078,0.3738805641,-0.1939692563,0.4854150234,0.1984633822,-0.8800566071,-0.2288333292,-0.1885442947,-0.4365900244,0.9487863409,-0.3132697167,-0.0823863176,0.4834410964,-0.0293376341,0.8749666572,-0.1963547249,-0.7368171746,0.72439639,0.4135982096,0.2544715802,-0.2408790432,0.2038348038,-0.5310919768,1.1023951605,0.7791060236,-0.1474393953,0.2608704506,1.4296232769,0.8687929168,0.3365533025,-1.1685311182,-0.1830516427,0.7328886951,-0.4615467862,0.1372988726,0.2587882096,0.1225133375,0.4924469528,0.9970167097,-0.1597683658,-1.0561415319,0.4524364857,-0.7260349034,-0.418949653,0.738420236,-1.4879894541,0.2700799716,0.0798171287,1.4975971888,0.7803112359,-0.4848209813,0.6617111499,0.2059818882,0.5041712818,0.39483168,0.102145091,1.2710267318,0.3313019164,-0.2192637375,-0.2524346556,-0.1085021694,0.3058737029,0.731912439,0.0196009209,-0.1159829874,-1.6622715116,-0.3163330374,0.3767071212,0.5621385633,1.1649801339,0.0197402926,-1.0052715449,0.3178707149,0.5298972615,0.3689456963,0.6093790847,1.1467925153,0.6791381955,-0.5114103186,1.2299674186,0.2938384244,-0.8587312714,-0.1517436469,0.0737286104,-0.1319630931,-0.5395943083,-0.0940388725,-0.1640557509,0.2432226391,1.7548951249,0.6301024533,0.178895449,0.3523613938,1.3523995899,0.4462779462,0.7917519226,-0.3057933574,-0.4571714516,0.8915538339,-1.1335202943,0.8938108061,0.9537147582,0.2237044556,-0.9867425257,-0.2981548693,0.5036214341,-0.2606385823,-0.2714898773,0.1542500125,0.1166427365,0.3562774866,0.6776369341,-0.1790492431,0.4369299962,-0.1735867912,0.3393313912,-0.682435132,-0.8099448914,-0.6076990833,0.4931676988,-0.4263769061,-0.6497184287,1.7035078736,0.8133354558,1.2037360905,-1.7183800891,0.9034872837,-0.6193677769,-0.6213012863,0.2362447076,-0.4539433754,0.4269044515,-1.9258261044,-1.3704917837,-0.5382360787,-0.1502001471,-0.3988856176,0.6714367046,-1.1980508086,-0.7227345066,0.4893931388,-0.1790282496,-0.6951765308,0.1949734226,0.0113642086,-0.6689754251,0.5917871382,0.1829990601,1.3258779737,1.0519040799,1.3614110954,0.1972488584,0.1340147513,-1.2245114458,0.0422464901,0.3435816268,-0.2558929107,0.5169333987,-0.3011744863,1.2315321104,0.7967021419,-0.0685019057,-1.068741375,-0.142725722,-0.6029261145,0.4493143977,-1.0789323772,0.2048208751,-0.7970385313,-0.2171586011,0.9139925545,0.0342620819,-0.8332232407,-0.2390994295,0.2599383902,1.7811145708,-1.6421315409,-0.9593761987,-1.1832379696,1.3248311119,0.2010060136,-0.4219788309,-0.8647112722,-0.7967377765,1.4539483866,-0.1262577585,0.4568346481,0.7250365228,1.079786243,-0.236542727,-0.7977289284,0.5722467456,-0.5866479039,0.0865961263,1.113932005,0.114675197,0.3884347737,0.2814641392,-0.9026517611,-0.4678513652,-0.8251514842,-0.880890857,0.0520947756,-0.9957717818,-0.5050633042,0.5347520919,0.9675889979,0.4691496004,-0.8290428172,1.5193218643,-0.551681325,0.7006854501,0.5283332858,-1.4516338955,0.5523446932,0.7931147504,0.8894545076,-0.4205485972,-0.5757522484,0.8952260785,-0.8544159214,0.3771686868,-0.4913528487,1.0183220536,-0.1951502991,0.1257109574,-0.7108617185,-0.7712184624,0.0086322353,0.2999871527,0.2464649697,0.4200278578,0.2855581312,-0.4102504799,-0.0871733919,-0.2096871678,3.3765494293,-0.313029277,0.8122395839,0.5697118989,-0.0087856362,0.0658482438,0.5430426847,-2.052968114,0.7441525865,-0.531985883,-0.5435445972,-0.1961318815,-0.0630648304,0.5279222775,0.0109996759,-0.063042755,0.7088983706,-0.3050027818,0.5642097939,-0.1110683083,0.1024620229,-0.5275549291,-0.2166622433,-1.2865863755,-0.2466924325,0.4858167251,0.9129542154,1.1894057056,0.4002144179,0.064611118,1.0903076464,-0.486479257,-0.3394469652,-0.2580391319,-1.5506141919,-0.5293447398,0.9810788693,0.8955301848,-0.5658558037,-0.0169468025,0.6334666849,0.3670460006,-0.3959302015,0.3233154018,-0.1891312515,0.6776787658,-0.3355425802,0.7464524828,0.1376190155,-0.8205500204,0.0028301675,-0.1187624949,1.0313124091,-0.2333226081,0.4139863418,-0.6108972312,0.5419858943,0.2018849043,0.491863504,0.092038932,-0.6620088495,0.1171106858,0.3946886068,1.2570944226,0.0503562549,2.3283554475,0.6202987003,-0.860994932,0.4922528858,-0.2476423282,0.6780429066,-4.3913686295,-0.2059494043,0.7087207183,-0.1920709565,0.0575665302,-0.0885304961,-0.1906959404,0.7343937695,-5.504947616,-0.229491145,0.6385446144,0.3328630842,0.7365350167,0.1001510029,-0.3129316466,0.3295743378,0.1127801729,1.0641779803,-0.2139833401,-0.6987466168,-1.2077643744,0.8366272189,-0.0893279928,-0.1117624036,-0.2412083484,0.2608867973,0.4230908972,-0.5903231351,0.1189713529,-0.2206305487,-1.007251375,0.3756485709,-1.0800419437,-0.405121364,0.879325801,0.3606020889,-0.7871414024,-0.1078052268,-0.7246589329,-1.114666338,0.5117077036,0.1026609651,-0.1456573951,0.5554244557,-0.2404614809,-0.0440069274,-0.2661921595,-0.0809849284,-1.2285441345,-0.5133782281,-0.4326595866,0.0302248707,-0.2844179909,0.8429836325,-0.7388951798,-0.7007132455,0.8016440576,1.5015159285,0.0896938659,0.3951960808,-0.5381041641,0.04071755,0.0080040196,-0.6435114672,-0.1630472464,-0.2431682363,-0.5432702397,1.5727462992,0.2375882975,-0.5246933074,-0.9881702146,-1.1336775847,-0.3664126887,-0.1038795631,0.5970140207,-0.9349314468,0.4566152049,-0.3689219727,-0.1741298944,-0.2940846144,-0.411622231,-0.9059109872,-0.5216564962,-0.2261423473,0.7896454028,-0.0221286322,0.9563695644,-0.6613233736,-0.0283839832,-0.3063994254,-0.8755335569,-0.280093864,-0.4114735876,1.1926740192,-0.6887663915,-0.4763537369,-0.102080546,0.041721747,0.6099360545,-0.4331690692,0.2487528841,-0.0219622731,0.8855609727,-0.6539786819,1.4466460625,0.0180591362,0.2098167375,0.5108055604,-0.876066765,0.8686633803,-0.3168425032,0.5736265657,0.4692961369,0.5543471133,0.265363756,-0.3304807127,-0.6534186702,0.1736598024,-0.331070584,-0.1355747986,0.6978331915,0.6841086084,-0.5518020876,0.3762709907,-1.4456862888,0.2766448503,-0.4323051756,0.7325785422,-0.9901127662,0.9459001708,0.286308914,0.7213156408,0.7984586875,0.6600701159,1.1409932753,0.5468236376,-0.2790502924,-0.946291871,-0.5957785241,0.3854000157,-0.1251035666,0.3897430319,-0.5131450304,-0.073064742,1.0850572175,0.5192319151,0.5483176502,-0.8545007064,-0.340579991,-0.5185049612,0.7407110432,-0.0904524438,-1.311937485,-1.6598702624,0.0301107522,-0.5753341723,1.1097319844,-0.5581145601,0.96822239,-1.1484148183,-0.9055284122,0.7040103362,-0.087864449,-0.3110946721,-0.1246367254,-0.2114486589,-0.7961983145,0.2853211935,-0.7496679921,-0.5294025291,-0.0879653545,0.2361688463,0.6386431203,0.2987917598,-1.7036921319,1.0991055216,-2.9186434876,-0.3282050919,0.3754875401,-0.7438617835,-0.0331646702,0.1296381542,0.2138287453,1.2411280354,-0.2489528684,2.0294856931,0.3809538192,-0.3716269258,0.0414425707,0.3254207831,0.0369608869,0.203613502,-0.7701786669,-0.3419811367,1.0173630936,-0.0383898934,-0.8770863165,0.7954481035,0.4474444445,-0.3803407085,-0.0775289005,0.1904142955,0.9845049138,-0.90752895,-0.3960819781,-1.4958988925,-0.0054929253,1.4034406733,0.4456482649,-1.179958275,2.8661920946,0.5812799244,-0.09746257,-0.3762542602,-0.5237342557,0.1591347476,0.4094827267,1.1783893546,-0.8712236504,1.0009131978,-0.2199738444,1.5122951447,0.4441887648,-0.1193586263,-0.5959639466,-1.0441222029,-0.9932239322,1.2485660314,-0.3084926587,0.0016650776,0.2994845614,1.5485552504,-0.4264366711,-1.3541517079,1.0324584438,-0.7491436582,0.2727886217,-0.068996152,-0.1379530383,-0.9767571167,-0.5404239359,1.1582486281,0.8323965761,-2.1131681054,-1.36174762,-7.6769649298,1.1088889929,-0.0554812615,0.057694323,-0.8668806942,-0.4837464672,-0.0354289018,0.2918031017,-0.9835273901,-0.0964105178,0.0362607914,0.4465030825,-0.9883376647,1.2809155329,0.0366591892,-0.9868564649,-0.5731162375,0.2058184342,1.7138000722,0.2652885564,-0.4233987536,-0.6730859727,-0.0004011297,0.7506562489,-0.2058604771,0.3290194163,0.4095226385,0.4678761278,0.4815066437,0.0626183363,-0.2186762627,0.9462661566,0.2302822945,0.3502903946,0.5456556838,-0.1631065509,0.2576855153,-0.0124398392,0.233766589,0.3545636983,2.1307286091,0.0275938308,-0.7692521541,2.0521101972,-0.8282939043,0.448576732,-0.0732137993,0.7054859981,-0.8645624365,0.4075023538,1.1307191023,0.5009407991,-0.2118876994,-0.1402629384,-0.3617685424,1.6496868918,0.4268569876,-1.0179505366,-0.3760207835,-0.4777590295,0.2190184711,-0.8086948616,0.8205361537,0.712500077,1.1547188509,0.6770903596,-1.6086610833,-0.1726785645,0.6146198648,-0.1105254045,0.0777958478,0.2749589942,0.3067111816,-0.1508741847,-0.3169044287,-0.4352874606,1.3169099476,-0.1206121852,0.7029474671,-0.3529606688,-0.4420754979,-0.6553716785,-0.7050249964,-1.0290801998,0.1033622924,-0.7248056478,0.864717161,0.1672334446,-1.0392031605,-0.2861540234,0.2899388391,0.0489776406,1.0533036478,-0.9631160815,-1.7765106813,0.1748987534,0.2463849402,0.6644902842,-0.355545568,0.8503553876,-0.5008981145,1.1435479191,-0.9111697604,-3.0774306877,0.7346079207,0.4672936049,2.6504020603,0.5579611264,-0.4143323379,1.2786057593,-0.0366907695,-0.0867950985,-1.0051529641,-0.3082892441,-1.0749488186,-0.0430131981,-0.5350543823,1.0700935068,-0.9522374445,0.2691228909,-1.0145060028,-0.5662937338,-0.1662469604,1.6686519401,-0.1344558237,0.8134384975,0.5325795071,-0.7359422136,-0.6701839426,-1.2273452125,0.472517437,-0.1501606898,-1.0120468871,-0.2160300517,-0.4833556598,0.2659726557,-0.0404942821,0.4267597768,-0.3831819629,0.2102957111,0.1841881098,0.4654439088,-0.9762839415,-0.7070165901,-1.5060444339,-0.2143878181,1.0486550456,-0.6789599428,-0.3630750002,-0.7327288073,-0.7337718157,-0.7940318924,0.7559777042,-0.7596654724,-0.5445945303,0.024322792,0.7430863886,-0.2176518038,-4.2465437307,-0.4836550356,0.0179581,0.5957318313,0.4159871693,0.7064674833,0.5010535402,-1.1238307377,0.7858274622,0.4093743857,1.2657874705,-0.0061565719,0.1656818205,-0.030725068,-1.5379435508,0.0892703005,0.2819499176,0.0449289905,-0.4376935058,0.2782704436,1.1242824653,0.9380130846,0.4373890319,-0.301774109,-0.5828920805,-0.4667238032,0.0291346342,-2.1127853785,0.5970933955,0.0440115174,0.2721268011,0.6136505818,0.0600316434,1.0268343076,-0.3564136812,0.4947431625,-0.7765510315,-0.4656438998,-0.547315315,0.4005584463,0.1706908582,-0.2417146558,0.5248924823,-0.5271713209,0.7012152342,0.5207523466,-1.135262278,0.287551981,0.5201758561,0.6931832308,-1.104833264,0.2749348374,0.5664873797,0.4214527427,0.5323428754,-0.1204942022,0.1090977489,0.0041976367,0.5130016764,0.9298837591,0.3310318991,-1.0664989475,-0.0336206671,-0.7636235914,0.1097313922,0.485142872,-0.9938694615,0.1808233822,0.3207691274,0.2713012055,-0.01487354,0.2279937895,-0.7297069956,-0.3394138116,0.0542132673,1.0154984402,-0.3562831701,0.52366489,-0.4961466446,-0.5061474725,1.1449129997,-0.0460429854,-0.3977651377,0.3182461752,0.0543491625,-0.027772525,-2.8458567993,0.1432252272,-0.0685605893,-0.615369011,0.7337367044,-0.2213828268,0.6546581146,-0.9535548611,-0.2982921315,-0.2082107873,-0.1993680218,0.3028330219,0.1920438531,1.1742079366,1.2913527323,0.8482889501,-0.527259758,-0.3322771504,-0.2254807204,-1.0070075856,0.7172836071,-0.3064533827,0.0980830918,-0.1180361974,-0.5139495311,-0.1889215747,0.2847451179,0.3207691701,0.7057707723,-0.191664746,0.3291001311,1.3780575748,-0.6674191142,0.13567526,-0.0891570183,-1.1998621571,1.106593452,1.779943399,-0.0110196901,0.2128428733,0.3190342069,-0.5891004382,-0.1220619104,-1.1662296273,0.0163070264,0.4070890575,-0.0779243175,1.6822731218,-0.2173778519,-0.510866145,0.9979915588,0.4612384659,-0.2048755598,0.4453368872,-0.5009193968,-0.5719193349,0.1340856213,0.3120928893,0.6487469144,-0.4010664074,0.7885327355,-1.0599905471,0.8820411804,0.3866634876,-0.1472529672,-0.7227079267,-1.085272599,0.1722858025,0.5783920395,1.6465380429,0.6436470407,0.6305350702,-0.2318207634,0.3710094116,0.2953925491,-0.0655884369,-0.5086752931,0.3779725291,0.2072389366,0.4394707705,-1.4604804637,-0.3971396721,0.7094513771,0.8225820837,0.192477867,-0.2915017214,0.1605276322,0.9018847639,0.0680638217,-0.2577997904,-0.5589797673,-0.6654542084,-0.1824882756,-0.5393432408,-0.0370132954,0.2504163364,0.1711642995,-0.0949234761,0.9247094233,0.2164730129,0.2993955074,0.4465762309,-1.0763586715,-0.2106407307,1.0557070869,0.2375285716,0.9123510557,0.209893538,1.0623568878,0.8282589777,-0.4492597214,1.0575760564,-0.3053456894,-0.4572957978,1.0138341082,-0.7324544707,-0.6310169829,0.9684975742,0.5997810471,-0.7360237894,0.7243594664,-0.4048269041,1.0342821602,-0.2757190978,0.9947915511,0.2238080818,-0.8733548148,0.6891174037,-0.4351963845,-0.4421678042,1.242589739,-0.2102354795,-0.1653960223,-0.7929801635,-0.3040745296,1.477709877,-0.6448905558,0.5166790502,0.956076317,0.2888031255,0.1722601416,2.9119118444,0.8757718729,0.6912519798,0.2260361906,0.2477150704,-0.0388324481,-1.1263585334,0.1479173577,0.5512654953,1.3289902472,0.4237815594,0.0178749649,-0.610608244,0.3490443044,-0.0720254303,0.3690274321,-0.3533211712,-0.4348976019,-0.125053818,-0.8557943127,0.5132895271,-1.2446868374,0.0632613133,-1.3655560217,0.7407480797,0.7309082913,-0.0499753664,-1.1168970897,-0.8917250945,1.2860065878,0.3582489068,-0.2777652777,2.036389519,0.1113249373,0.5146207792,-1.5803525389,0.3626980098,0.6250170106,-0.4729356098,0.9997055181,-0.3303919376,-1.0239247585,-0.3545156257,-0.1015910498,-0.5095627221,0.8870148764,-0.7349850489,1.1603043628,1.248949274,0.6235518403,-0.0365650122,-0.3971934936,1.7184003506,0.0345119905,-1.2621026291,-0.6281212611,0.5667866345,0.4996185141,0.0827301448,0.3441394915,1.6380239187,1.2505607606,1.0769349164,1.6011612399,-0.088304018,0.8729813945,-0.3231375476,1.1393274139,-0.8730757174,0.2256224831,0.7855469405,0.8667872997,0.3418030856,-1.0765124431,-0.6258596018,-0.4938355408,-0.023781948,0.6358555443,0.6815170395,0.7558729917,-0.0762430426,0.2898846637,-0.5132894259,0.5472161903,0.6402131672,0.5213912466,-0.087313551,0.3616573319,0.7924434269,-0.5157383155,0.4628671778,-0.9694166955,-0.2289413035,0.4342239802,-0.4014232939,0.4849334416,-0.4272281783,-0.3947677057,0.9914460628,0.4241469988,-0.1531890118,-0.6952156364,0.6241471871,0.6863684122,0.4287820184,-0.2966911321,0.7964377019,-0.2094673102,-0.1074420277,0.8328388991,0.2546137699,-0.8917381017,-0.396257197,0.6290028753,-0.9410485507,0.1848655793,0.5050441629,0.7715577957,0.1380736746,0.5147494426,0.2731084728,1.3367208601,-0.1671500821,-0.2169896302,-0.4929490073,0.918052421,1.5068122123,1.2353957568,0.0376852021,0.4405392209,-1.7645553511,-0.2342116528,-0.145882768,0.9913694567,-0.9787556207,2.2995830203,-0.2935652106,0.4208323679,-0.8925767839,-0.0275087769,-0.8618007688,0.1978999535,0.1803827477,0.6138127071,-0.7926108601,-0.4465346323,0.501192974,-0.0133449763,0.5275075061,-2.2943269653,-0.2199796262,-0.6499036784,-0.6402191573,-0.6108464428,-0.2652052263,0.5243993248,-2.0040119332,-0.2141121565,0.3692566391,-0.3630757538,-0.4242329404,-0.4564592238,-2.4957053839,-0.8007397052,0.2107580409,0.6059433534,0.6543585479,0.3043364514,-0.5830360519,0.1196845371,1.6165237817,-1.8159594948,-0.141085538,0.3809382434,-0.3905409559,-0.7449979583,0.9912366297,-0.7052455649,0.2249874337,-0.1529236796,-0.5173955519,0.132922747,0.6004349612,0.001302717,0.0128886824,0.6187760424,-0.9123686334,-1.9238143746,-0.3794100239,1.6333021393,1.0492111183,0.377376364,0.5769489508,0.099884633,-0.0339348587,-0.3289146852,-1.1835449557,0.0710493331,1.1345329973,0.8431763288,-0.8440662985,0.0386939694,-0.5553195535,0.0912629201,1.0228753626,-0.2949665848,-1.2992698111,-0.9785822376,-0.1255222663,-0.4478948197,0.041340884,-0.0641967366,0.4395526688,0.1737040559,-0.2805027943,0.1717325776,0.0288307483,-1.1458856152,0.5908938625,0.5031511231,-0.532877989,0.7940737727,0.2617731003,1.855323704,0.4873502027,-0.2350419726,1.154591574,1.0679881096,-0.462730991,1.3771623547,-0.4317810255,-0.3015158689,-0.0386379383,-0.6547016667,-0.4208076072,-0.7707594889,7.4934840539,0.2038258934,0.6881138731,-0.6439707728,1.0562640103,-0.5104994715,-0.4713622782,0.1371522788,-0.2285293828,-0.1746796763,0.6040721756,-0.3288547325,0.378641437,0.2582779363,0.1352925418,0.2193415126,0.5723006368,-1.8829601369,1.8505439897,0.3050990811,-0.2253493453,-0.4661238596,0.2995198956,0.4462319059,1.1202474882,-0.8392045457,0.4037929038,-0.1967444283,0.4763479531,0.5657039937,0.2962854366,0.376699473,-0.5684788984,-0.3193797432,0.4134141492,-0.3933744808,0.7006661641,0.167954451,-0.2080371446,-0.1632169059,0.9540982758,0.4083258781,0.4366578095,0.6028824438,0.1118019553,0.58113473,-0.632278553,0.6301792657,-0.7871579485,-0.1867001361,-1.3479932623,-0.4463922605,-0.0252330399,0.7947393798,0.0848905491,0.5504553002,0.7111059581,-0.0634444638,0.2212235984,-0.9927824962,-0.1379924795,-0.0268730408,-0.4554915776,0.1500254796,0.3091323673,-0.5876174942,-1.1399267247,0.2173394422,0.346777795,0.0154425341,-0.5784379372,-0.2253621445,0.4950895073,0.2479065746,-0.9784528236,0.3897125841,-0.3790750226,-0.0354079793,-1.4546564843,-0.058987285,-0.5685795521,0.5705635867,0.579408065,-0.5775597238,-0.3182854256,0.3956178449,-0.0698597147,0.8780185426,0.2348837187,0.7026825024,0.413052109,-0.1359702379,-0.1895084976,-5.0420540365,-0.5983606211,0.177438342,0.5857627088,-1.7103140216,0.6278546895,-0.4213612598,0.8811621508,-0.3047097735,0.2290543505,-0.7136974918,-0.1207367523,-0.8122530856,-0.9179372652,0.633869906,-0.4265121024,0.9781714751,0.2616910329,-0.2972785997,-0.4742582498,-0.6310281761,-0.5704305163,0.3957278773,-1.0462561089,-0.0062648125,-0.2148236793,-1.1395945021,-1.2430520838,-0.0966728944,0.1594063155,-0.8062037865,-0.7088822986,0.2420108539,-0.4205891749,-1.8735667937,1.0160974234,-0.5765002723,0.3074970096,-0.0635341638,-0.073762057,0.6753036129,0.6563209411,0.3968358565,-0.2574285074,0.6142702081,0.9066698972,1.2544460326,-0.4365701066,-0.0147410853,-0.3521301517,0.6660636117,-0.803602916,-0.0819641456,0.9447459389,-1.1641740248,-0.635513701,-0.3797003137,0.3220730584,-0.8533483952,0.178636268,-0.1107643742,0.0115476622,-0.1017624171,1.040814746,-0.0626988394,-0.2868329019,0.0690714646,-0.0035059492,-0.7211266337,0.0020692213,-0.5453358202,1.1347943621,-0.2807045165,-0.6476001327,0.1677565833,1.0358704925,1.4195957841,-0.6784424332,-0.7475970296,-1.1522892677,0.1730075683,-0.3068357908,-0.3926214154,-0.1680033473,0.5302013533,-0.5254093424,0.8362396586,0.4648538603,-0.2015031406,0.3351920344,-0.4937984127,-1.3162795329,0.4020669953,0.5009564048,0.4000429153,0.9795644576,0.5549634126,-0.7653698114,-0.4203314641,1.859588278,-0.1061724372,0.5447481179,0.2273944146,0.5685831043,-0.0367135884,0.4596872648,-0.0960727829,-1.0289602516,0.169954091,0.2997779523,-0.1553191017,-0.7328117587,-0.4133179822,-0.5289069318,0.37738667,1.3953940231,0.6568611196,-0.3831845558,-0.639987897,-0.6725371089,-0.6923032011,-1.3552499968,0.004768252,-1.9320671742,0.207064196,-0.7181961546,-0.2734552131,1.0560586998,0.6149271092,-0.1072200212,0.5599499307,-4.0509677814,0.5681468721,-0.3116849162,0.128399235,0.8991670194,0.2325170997,-0.6924384538,-0.3382501822,-0.3275538581,0.3471614658,-0.5812129421,-0.9045532151,-0.8827671752,-0.4747427105,-1.1923570825,0.7403213898,-0.3088641703,-0.5400166311,-0.1259532044,1.451806961,-0.7959171967,1.1371899311,0.5254725009,0.0605482016,-0.0027216262,-0.5456631709,-0.9376620056,0.4639337307,-0.1672531515,-0.2749621513,0.6131069638,-0.815708764,-0.0719727397,-1.6182436973,0.5849116518,0.1732090596,-0.9330880054,-0.4893264536,0.3669135346,0.3851163426,-0.1590992808,-1.4577117753,0.1626443458,-0.0989070242,-0.3221138425,-0.5929463405,-1.0583121629,0.481909379,-0.3951485735,0.0415560811,-0.3587046943,-1.3488540742,-0.0733521095,0.2739822802,-0.445376754,0.7588528137,-0.0236106323,-0.0424403561,-0.2182095346,0.426061326,-0.4983201089,1.0524828341,0.299187418,0.0689241736,0.1992695311,0.089342888,0.1588536395,0.0899500101,2.557884564,1.2120714357,-0.1908163414,0.1551122778,-3.8187277588,-0.5935362465,0.9115623262,-0.0218606858,-0.6207609456,-0.1299090224,0.2985653874,-0.3107457751,-0.7985397436,0.3059569932,0.3867021664,-0.5109760237,-0.3848268034,0.1498469506,-0.4188125064,-0.5325469139,-0.2644303229,0.423321462,-0.591091207,-0.4275157064,-0.2803182614,-1.2497811816,-0.9154644872,0.3807559814,-0.3102759698,-0.645829692,-0.1214374333,-0.2229228749,0.7908401724,1.8423358954,1.1785790712,0.6212013961,0.1833361482,-0.1058515267,-0.3372282956,0.167487185,0.8380726484,-0.8656414366,-2.9321202193,0.2016084973,-0.7672817149,0.9152205697,2.6074779415,-0.9261624441,-0.364014276,0.4058912541,-0.5746495805,0.1902646612,0.4540574894,0.6512224483,-0.1830242739,-2.2373059499,0.5439776962,-0.6819855758,0.7058095143,0.1531943696,-0.0845911497,0.6887616876,-1.2519297518,-0.4719072108,0.4041390301,2.0583460659,0.5423370406,-0.6054572331,0.3435352052,-0.3796036706,1.0335439973,0.6496125031,0.061683868,-0.4517371788,0.7526116799,-0.2549688202,-0.5859847962,-1.2316537021,0.4864098873,-0.3176428799,-0.0360800131,-0.2171882024,1.3213921544,-0.9027296733,0.4032090793,-0.1018088339,-0.1056535855,-0.5859922336,-0.4384640562,0.0610460403,-0.4467826081,-0.4069880281,-1.5738629453,1.7556681841,0.2928638667,-0.8703068309,0.201459857,-0.3056817712,0.561197858,-0.0617144409,0.3451956903,0.6224007935,-0.3414634487,-0.2467760786,-0.4252876848,-0.4569526959,0.6235928954,0.0751562426,-0.1803792849,-0.1581691192,0.44550146,-0.4335047271,-0.0692022341,-0.5376434051,0.33523029,-0.1247454072,-0.7199921644,0.7035547218,-0.5196265269,-0.9433889041,1.0796365673,-0.8020992996,-0.3415308222,0.6587997197,0.622750411,-0.5102177487,-0.0628122256,0.3573425095,-0.8129131814,-0.464391082,-0.3385946978,-0.2440622705,1.0286858973,0.4378320557,-0.2832637864,-0.6629716711,0.1061121087,-0.1527549723,0.6192847365,1.0040185715,-0.7224870197,0.5298072611,0.6664093368,-0.341594327,0.1088026388,-0.0849582986,-0.2398939929,-0.5999517467,-0.4376807994,-0.1985167061,-0.5533292973,0.71689241,-0.929469709,-0.6756981861,-0.1962271294,-0.0299781634,-0.2667393035,-0.2142383788,-0.1003622493,-0.8693276999,-0.1725632298,0.4083074077,-0.0177432049,0.6089341781,-0.0509916789,0.0653622671,-0.5497744396,-0.3013214696,0.6691763884,-1.0434853859,-0.1596381803,-0.6154332997,-0.411040177,-0.121524531,-0.8877339022,-0.994326854,0.3487615264,0.2146710332,-0.3690583403,-0.2773155189,0.3271448966,1.1958799342,0.3105099792,0.2353381945,0.6464983957,-1.141674683,-0.1611900879,-0.0219451342,-0.0394286589,-0.4865078904,0.3760666702,0.718364351,-0.3569376804,-0.2550542447,0.2795634441,0.7124378493,0.5699381816,0.3539712792,-0.8701995972,-0.3376467203,-1.3358429185,-0.0223854236,-0.4838173349,-0.0554391993,1.9045697376,-0.4201199852,-0.5139848615,-0.1194840289,-0.9857484291,-1.3571147293,0.8206712521,-0.2316228326,0.3278584919,1.2322886916,1.4645728403,1.0292650429,-0.1269622769,0.1150327914,1.7005928127,0.5099313158,-0.1061305927,-0.877952429,-0.6634329302,-0.9607617265,-0.1379670544,-0.2977117617,2.9864923549,-0.4998174463,0.4659999864,-0.0132391052,0.7654921525,-0.9223378054,2.2491656897,-0.113727094,0.5831927162,0.7847051036,1.810148732,0.1782999544,0.9651322272,-0.0706910905,0.6091216543,0.1272452502,-1.0561496577,0.3959512037,0.5006526034,-1.1872398563,-0.1680975984,-0.622089048,0.4754839272,-0.6066138878,-0.3513675459,0.0421958237,-0.7078766049,-0.0166976004,-0.446242838,-0.1278611176,-1.102382653,0.404155663,-0.4553746966,-0.5685446128,0.5298529316,-0.8267090576,-0.1443916681,0.0161601649,0.1710353675,-0.3970566723,-0.7786671956,-0.4848979458,-0.1217400729,0.9347304174,0.075177513,0.8293348409,-2.1558907558,2.0642304688,-0.2596059042,-0.8156485231,1.4126774606,-2.0336219196,0.3220644647,0.2091984742,-1.1990336675,-0.9817871706,0.102201767,-0.9052988067,-0.0166257823,0.0775573578,0.2837298638,-0.2466982408,-0.8419001065,-0.7431300519,0.7461019863,0.6353321044,1.712397395,-0.1138714652,-0.360065944,-0.6051141559,0.3602497226,-0.2801184799,0.6127566793,-0.0748733736,0.3944141041,0.2160242668,-0.2747469123,0.4401912913,0.3551509845,-0.1459070226,0.0830124743,0.5461453317,-0.0888180349,0.365562363,-1.5461222435,-0.1268027475,0.8595195278,-0.6856053161,0.0222515693,0.7504177415,0.2446331119,0.48351323,-1.0375857074,-0.835155622,0.0861338992,-1.4402531645,-1.0245159035,-0.2858322502,0.0951318205,0.5789635091,-0.1211066526,-0.3623906657,0.8848399531,0.3199407435,0.1307064373,-0.3119121892,-0.3236795788,0.9380489288,-0.1812503657,0.3206996674,-0.443349306,-0.3009513949,0.3154920575,0.8461689557,-0.132324382,0.1400815603,-2.520789906,-0.5221204484,-0.0913551631,-0.0910022526,1.0650826569,-0.8581641788,0.2866549472,0.2422257459,-0.0812185349,-1.1648929973,-0.6784748845,0.0947195954,0.407494329,0.5258325888,0.2609001706,0.4073094664,0.6125320383,-0.8006635461,0.3776934675
   -0.3748882937,0.4474216834,0.6736641462,-0.2047704792,-1.412861482,-0.3807653305,0.9600250465,-0.8191706546,-1.8187832843,0.9616423394,0.0601530776,0.7201940219,-0.1663456128,0.2172452905,0.4273257429,-0.1839744398,-0.4274949486,0.7086618045,0.2779667921,0.6701539341,-0.7209432494,0.5952664206,0.1539064758,-0.0037739204,0.1922251549,-0.7388829069,-0.2276555319,0.5561215282,0.3569413939,0.0916733909,-0.2791637165,-0.9831825306,0.3072171214,0.9955142186,-0.6362466808,0.2548341705,0.9203495682,-0.5528874159,0.3759160031,-0.2005178487,0.2497264958,-0.1881537712,-1.646025027,-0.4894591605,0.3921347437,-0.3427288928,-0.0352421955,-0.122881406,0.719663023,-0.3542811479,0.3064897667,-0.5968482733,-0.3410150246,0.7474297325,-0.7955940695,-1.1946948233,0.5661355712,-0.273863294,0.5561483294,-0.3802241143,-0.3459478408,-0.1409822882,0.4518570745,-0.3790033441,0.6273071938,0.5034201765,-0.5538198236,-0.1933766586,-0.189052113,0.4312913532,0.4234900836,-0.0959268381,-0.3300993141,0.4969418928,-0.042287307,-0.3583210714,0.9133913557,0.8894768981,0.8066581837,-0.5522113405,-0.2986546484,-0.3363709488,-0.8387014237,1.0415830232,-0.0604579332,-0.5939327232,-0.3482934011,-0.1583171151,-0.1663273578,-0.0104704856,0.9483422577,-0.0455296138,-0.3866695466,0.7791928979,0.7163125568,0.0663214912,-0.7860208421,-0.5114842346,-1.3920525841,-0.8023789361,-0.2116082753,1.2621175307,0.32349704,0.4266879224,-0.7210662695,0.4622239669,-0.2065332282,0.1000245571,-0.0489172424,0.8398641646,-0.3068505938,-0.7360846757,-0.9906865638,0.185171181,-0.2415863177,-0.8527134668,-0.1805032496,0.0547850747,0.1339854504,-0.7914710369,0.1907941144,0.0704937634,-0.9640103106,-0.0615421189,-0.9860556673,-0.8128761365,-0.1206013907,0.3166018388,-1.2510578366,1.0990625452,1.4559452222,0.554697369,-0.2781090447,-0.8377581161,-0.0589557435,-0.5689208273,-0.6953511251,0.2229590656,0.5946288804,-0.375233327,-0.0788854781,-0.552369208,-0.1056322187,0.8161940313,0.3874825711,0.3384578744,0.5706945143,1.0689693825,-0.3929528531,-0.1989847821,1.2819787433,0.9068056501,-0.9086172425,0.3498774386,-0.4756630599,-0.0534264284,-0.5045181701,-0.0391384625,-0.8584093528,-0.6528158857,0.7567458067,0.7028152496,-0.6179999417,-0.9860746839,0.5849674692,-0.3909460622,-1.9899937559,0.7903929504,-0.7055953993,-0.8397341618,0.4542612934,-0.1284316973,-0.8337688985,-0.5229631564,-0.433473892,-0.5493905505,0.1099872767,0.1229604914,-0.4774624662,-1.2131710993,0.6220737827,0.1574420659,-0.8643607959,-0.3824702102,-1.0702968696,-0.0867555718,0.6690802984,-0.2793106287,0.2694193328,-0.6529050927,0.035255647,1.6442718805,-0.6724184081,1.0365567232,0.9026684059,-0.8594155301,0.8639151353,-0.6586744553,-0.738589562,-0.9637063201,-0.1957507526,-0.5753452147,0.839810298,0.1596062845,-0.0509752497,0.7187309804,0.2754273477,-0.0828604082,0.0748137244,-2.4407507706,0.1198371445,1.0243411535,-0.728288963,-0.6787679896,-1.1203326677,-0.2655238196,-0.308831751,0.4794332657,0.0899690031,0.6207945704,0.1719208534,0.9111618759,-0.2385941165,0.2507120081,-2.0085685288,-0.6270451125,-0.4227318036,0.1592349909,-1.013910631,1.241990025,1.2814604976,-0.0809349767,1.3670912953,-0.2332833059,-0.9537657692,-1.2306163622,0.4912564283,-0.6173690635,0.1877307418,0.819358444,-0.0928285426,1.1287087094,0.6792246699,-0.2767609891,0.0386559733,-0.5131199917,-0.9105082761,0.1566981708,-0.5897661009,-0.3394340195,1.7779531526,2.729196685,0.5036421795,-0.5207592653,1.2684764528,0.4856919909,-0.5439135118,-0.4160111487,0.3270267717,0.4585551629,0.4451548834,-0.0581788619,-1.0201576698,0.1158550792,0.3418464724,0.5936072823,0.4564369406,-0.0839123229,-0.6310965001,0.8894545854,-0.0180474923,0.2470253956,-0.583510301,-0.294496926,1.5467875714,0.3991441028,-0.938214713,-0.0487082968,1.5197892336,0.1369883567,0.0788507322,-0.2692996048,0.5611238166,-0.4761318035,-0.6546773905,-0.1340058751,-0.2174493103,-0.6820167438,0.664066403,0.9157881505,-1.8674776005,-0.2476948626,0.8676116464,0.4859110727,0.2582594457,0.5361908749,1.4911039662,1.3586974458,0.29476517,0.943085231,0.2881313265,-0.4585000277,-0.1566579666,0.7765185214,-0.9592752697,-0.7055735542,0.6790574588,0.6689873916,-0.3936808204,0.4326516735,0.2473081434,-0.8757495458,0.6505532712,0.2641336214,-0.1433458822,0.6715671747,1.0845135979,-1.0338741488,0.5807448631,-1.0765809835,0.4282047238,1.6177154393,1.6457631185,1.1828757303,-0.3039270311,-0.3367931186,0.3869780614,-0.0473683716,0.3800488131,0.4754837863,-0.0986057194,-1.0293622864,2.0644045878,0.3460569985,0.0519943261,0.9616885571,1.42262272,0.0322394364,0.7796583299,0.4460227933,1.4573029653,-0.6887446916,-0.6331720916,-0.3740137981,0.9935902165,0.0840144288,1.5511237468,-0.3552476405,-0.8637233102,-1.9940657282,0.4380634029,1.810070296,-0.3213727515,0.8805697432,-0.7699997743,-0.6567291455,-1.0891195212,-0.0238834514,1.1312813681,0.3647822247,0.283691891,0.9909112542,-0.0320028822,-0.3214806234,0.9496436892,-0.8432007709,-0.0172053668,0.2197232379,-1.0500878125,-0.3336791794,0.287641603,1.2231700958,-0.7915171502,0.2265527298,-0.9244822141,0.5862548722,1.3452477489,0.1159406395,0.4110081946,0.2026974466,0.6814978705,0.0574593402,-0.0474698896,-0.0610460466,0.5426082602,0.9296504762,-0.922875789,0.5388142402,-0.710702482,-0.8992711553,1.9731425066,-0.2814983062,-0.4319665716,-0.694532121,0.3280612823,0.3739542847,0.4884664791,-1.5875410736,-0.3724037628,0.0202274732,1.0155168303,-0.0640864166,-0.8443342091,0.7119464472,0.3883132054,-0.6495870123,0.3723220477,-0.9148816856,-0.0749933525,0.6674502639,-0.0703277052,0.0084361603,1.0375726694,0.4804358313,0.0140165443,-0.4840992886,-0.8370269583,-0.3215425067,-0.2671124173,1.2126998608,-0.1588291296,-0.1532801458,-1.2524481999,0.0095909668,0.7342109893,-0.2609144251,0.3528468885,-0.5858072824,-0.1796643452,-0.7152335192,0.7575059015,0.9100122237,0.1579530742,0.7012306155,1.1783852795,1.2459731801,-0.9887040888,-0.77852047,0.8871296381,0.1521543561,-0.4350804591,-1.1936622184,1.7167999763,-0.2157029959,1.0789069883,0.3214693004,0.3787139638,1.2214219566,-0.0287460119,-0.9065171647,0.8136086286,-0.3100735039,-0.9532310333,0.6749689233,-0.3522388909,0.6243653786,-0.1758052884,-0.2466981939,-0.0396401553,-0.4475034123,1.1229904054,2.053233081,-0.4079088481,0.3795390235,-1.6605151313,-0.0926626857,0.0272055497,-0.1962811288,-0.1662236659,-0.2503645131,0.4265047334,-0.5318905502,0.4346798197,-1.1247964195,0.0978562026,0.5740833666,0.6083222549,0.6287019816,0.7349446584,1.1731221492,-0.9463828549,0.3959197371,-0.8344191202,-0.7172350633,0.6300094734,-0.9361522234,0.2757351941,1.8715669761,-1.0296116099,0.2422144627,0.0892763346,-0.4929149191,-0.1502880828,0.0267088047,1.0768021862,-0.6974925095,0.5086718262,0.3154278074,0.1229535534,-0.5740899405,0.1195464782,-0.4314994847,0.6037103946,-0.2668306247,-0.8181001378,-0.2468584608,-0.1391041851,0.1672730359,-0.8958394888,0.0895145229,0.0086683729,-0.833244497,-0.3509712695,0.7016728704,-0.596004043,0.3354265678,0.0050202856,0.6403529621,-0.8290386865,0.0362967676,0.3192764317,0.0833190161,-0.7881512213,0.9816766107,0.6437899818,-0.4755922642,-0.2891225875,0.0739306073,-1.02671034,1.2681798615,0.2774042037,-1.1144670173,-0.4434988434,0.5260954994,0.2415431381,1.1289764297,-0.5309494721,0.8496848286,-1.8332013439,0.6589855203,0.7847661805,0.1157141842,-0.7629260389,-0.3246536989,0.364922552,0.4900168568,-0.7134519786,-0.8176824101,0.3395910816,-0.3158436318,-0.5407573926,0.1801670467,0.6451879645,1.0604613235,-0.8383264897,0.0278362696,0.7108948538,-3.0227930006,-0.771860691,0.3684014257,-0.0300579509,1.0626178869,0.6340236782,0.2570577809,0.62121302,0.1540593311,-1.0762226849,0.9714836442,0.0698836006,0.6412143479,-0.2445866413,1.2828483007,0.1620009839,0.1788518932,-0.8313152032,-0.3952317436,0.5782043111,0.5658507034,-0.1378649128,-0.6879235741,1.1626213476,-0.2156372138,-0.2370691195,-1.0498987432,0.1187543799,-0.1735797153,-0.7730381682,-0.1374347686,0.2703269879,-0.6279115625,-0.6482627163,0.1349130067,-1.0681650004,-0.9307452269,-0.6343090382,0.4290746437,-0.4596670327,0.1889725097,-0.5574125382,0.6768933697,0.3014276135,1.663966614,-0.291270451,-0.3423276808,-1.0169692384,-0.5512154507,-1.3736288645,0.1070579237,-0.5049710792,1.1939346525,-0.5899600556,-0.6144347703,-0.0088471761,0.8826577376,0.6038218338,1.1665333157,-0.7955302612,-0.0908521378,-1.044746514,-0.9841372919,-1.3672670279,0.6033648321,0.3519548587,0.5751467934,-0.1697301573,-0.3101278411,0.3858203756,-1.0751958048,-0.1506459238,-0.0451515473,-0.9422293731,0.0400211861,0.4877121768,-0.9851281396,-0.1997275164,0.1789103804,1.1060749819,-0.025158015,0.5152010571,-0.3606289366,0.317325022,-0.8361411585,4.530100086,-0.4297902049,0.5042890955,-0.0598742037,0.356206781,0.9546026131,0.6615185707,-0.1322409815,-0.2891956615,-0.1682506374,0.1585057272,-0.4540320818,0.6947892163,-0.7765801812,-2.907749766,-0.7536268491,0.2068457719,-0.4918949304,-0.6930958472,0.0617618935,-0.9440338287,-0.8194541481,-0.3490147353,0.0795309849,-0.2053030115,0.9556163913,0.9635070139,-0.5564734548,-0.382264216,0.5873913047,-0.075318791,0.9698265055,-0.9812171979,-0.5522955811,-0.948287428,1.2765552249,0.1075620095,0.355585554,0.1190330682,0.4632273126,-0.0469238271,-1.7807198798,-0.8990642824,-1.1482619915,-0.6020690317,-0.219015799,0.5245977972,0.3783237525,0.2114442085,-0.0804771378,-0.1291564076,-1.0290869708,0.5378735903,0.2561892328,0.3138935401,-0.5132197585,0.3096576195,0.1564296873,-0.1317887837,0.0533446088,0.1217345462,-0.745799993,0.2137412387,0.8359298881,-0.1384516724,0.4052495308,-0.698096535,-1.1084659805,-0.6360922978,0.2385607162,-0.4890399773,0.4834355135,0.2452627059,0.1735582602,0.4490678265,-0.6080586775,-0.8258485418,-0.4165754621,-0.7285656077,1.1297337504,-2.4721342608,-0.01417369,0.0071348649,0.0824144904,-0.2050586611,-1.0285591662,-0.3846705619,-0.4626755159,0.3495732269,0.1146113686,1.2356287367,-0.3239279965,-0.2174493862,0.5633570369,0.0860517547,0.029149188,-2.633261706,-0.0891640751,1.2231282667,-0.5051043626,0.1014072834,-0.0973036079,1.0876979927,-0.0418001115,0.1825880191,-0.1094820827,-1.0583840755,0.8640197861,1.3155522935,-0.2353500176,0.8109841842,1.0986696989,0.3274199667,0.2355998552,-0.871842038,0.0817178933,0.0550976827,1.2299743893,-0.5841339087,-0.2470354947,-0.2078357759,0.7880086048,-1.1543499327,-0.8239234589,0.6248841342,-0.148802811,-0.2747178341,-0.852167666,1.7800731429,-0.3926817359,-0.7794536398,-0.1157030197,0.0471114253,1.1125018206,0.8514361115,-0.1871179868,1.4591952641,0.1775947523,-0.4413222258,0.9550270923,0.5641965909,0.0944728104,0.2043493353,0.3513760629,-0.134791289,0.6931221277,-0.0784469319,0.3834582474,0.5887448537,-0.4162394611,-1.5184070206,0.7922094678,-0.1614375885,-0.4041853637,-1.354742212,0.0809297767,0.1405454138,0.6664157481,0.6619960501,0.0870520386,0.3102987468,-1.8694594796,0.237763747,0.760543022,-0.7712408718,-0.3683178442,0.7067189205,1.7103607994,-1.3681807176,-0.1600153094,1.2366057826,-0.12200372,-0.7052405021,0.1118182209,0.1026459634,0.0976382732,1.5289254444,-0.5115258502,0.5517518907,0.2251959085,-0.70978208,0.0590255785,0.1127354282,-1.1304976438,-0.5375107163,5.5561889907,-0.2368502645,-1.5533794225,-1.6061011309,1.6912330849,0.9915095504,-0.1782321936,1.1214084942,-0.7730674899,-0.1432313063,-0.6739926654,0.7760025063,0.5959599843,0.3348977654,-0.7679793486,-0.3277013882,-0.1874572078,-0.5301314896,-0.8950269929,-5.1850587895,0.5250608119,0.9010380969,1.1841692944,-0.7868066137,0.8167093309,0.6893663493,-0.3527360344,-1.3451033008,0.2716252148,0.0150577595,0.939512488,0.0732297238,-0.5543402002,-0.9285223613,0.5314702324,3.6115741106,-0.3574310611,0.0986779372,-0.0411192054,0.6816352114,-0.267742075,0.4329953056,-0.2732217476,1.2061246719,-1.0814213334,0.7578233253,0.2540137267,0.2047619523,-0.257415977,0.4085158572,-1.6192868047,0.8899851102,-0.7863407126,1.6277273648,0.7520413699,0.0560820753,0.5820009693,0.7248011447,-0.0588415295,-0.5423659832,0.6576005793,0.4152620722,-0.5516990168,-0.7140561141,0.6489851205,-0.021516663,-0.1472160843,-0.309485995,-0.8839810385,0.0850545925,-0.6341972964,0.7790370018,0.1791722281,0.2149844793,0.3530288283,-0.6684062764,-0.9523736438,1.62300458,-0.47252612,-2.0802187046,-0.4789150205,-1.0332424328,0.4150376385,-0.4734155473,-1.6655094756,0.3603483833,0.9817356842,-0.5157122888,-0.0795920056,1.119107907,0.810342978,-0.06115314,0.1746495298,0.822255044,0.7142872932,-0.036415639,-0.7184563464,0.3519959001,0.6404969764,-0.7132392226,0.391117607,-1.1305531101,0.1539410341,0.4384192822,-0.9090039686,-0.1344151775,-0.0284623204,0.941345455,0.1696153491,0.20453739,0.5354810314,0.742109678,0.3589783722,0.9554324411,-0.575319683,0.7325353725,-0.2586698891,-0.6097406038,-1.3984101253,0.2126577268,-0.9318030579,1.3044052126,-0.3964561365,0.3681314605,-0.0062460452,-0.1966609664,-0.5282037034,0.1563855305,-0.6188286279,-0.8694072345,0.0840134897,-0.3747916616,-0.6205727966,-0.1461251072,0.8928784955,-0.0024957023,-1.8712012033,0.5163136085,-0.4803534953,-0.5327042627,0.6960480493,1.1200253316,0.0411359453,0.1672897078,-0.6142757191,-0.3583236743,-0.0571240993,-0.7665335832,-0.6989179935,-0.3224281105,-0.661201038,-0.7020254746,-0.4189615121,-1.7558469524,-0.1381583717,0.3499431249,2.8061585758,-0.3386382467,-0.1402820276,-0.5829665229,-0.3099764328,1.2357272221,0.2354440058,0.2493510824,0.6356653787,-0.2951041842,-0.8971401377,0.8514767073,0.6488621,-0.6609945478,0.0139834532,-0.0328137755,1.2693593028,-0.9290473717,-0.7529491096,-0.7358312224,1.0667821193,-0.3321703925,0.1172784507,0.0988018815,0.2035836148,0.5165417918,0.821327503,-1.4604872547,-0.8273171603,0.498694541,1.0246157187,-0.3723978396,2.0699590596,-0.029006027,0.7260229684,0.9896658268,-0.8650006764,0.5655591267,1.2109651482,0.6320486957,1.1926052124,0.7697819229,-0.5339975518,-0.1620985164,0.7046448563,-0.0998763306,-0.0863303019,1.0406253302,-1.3890308692,0.4252049725,0.4123549251,0.2953799579,0.1053037326,-1.305766821,-0.667502358,-1.1016642728,0.7455054907,0.855018068,-0.3579266896,-0.2277704917,0.5553145727,0.754100744,0.634307895,1.1781805179,-0.0615362791,-1.0047129748,0.2053534056,0.2694777417,-0.6217866908,-0.3119040605,0.5006666816,-0.8972100357,-0.8283150209,-0.2840157694,0.4321561835,-0.3400094399,0.430104976,0.5927625633,-1.4065401693,0.3431003844,-0.478164615,-1.1650837268,0.7539935727,0.3718295539,0.8487095747,0.347156415,0.7344367806,-0.8833653777,0.3223674418,0.1876732974,-0.425568325,-0.8387033319,0.0143222,-0.1048880545,-0.3334723582,0.5634128977,0.5801640967,-0.6870589026,-1.4360314483,-0.1762777566,-0.2059444567,0.0977653544,-1.6255148078,0.603851952,1.671714228,0.1710125585,0.8006626313,-1.4692585931,-0.1961074361,-0.2714314959,-1.6339209905,-0.8607732343,-0.3579030551,0.2755701481,0.7778705853,-0.1722654039,-0.0333188232,-1.1001366021,-0.1568318486,0.0702341854,-0.4416749151,-0.3304663406,-0.2820888657,0.3215173767,-0.0715037052,-2.0480320599,-5.7323077218,0.1834121025,-0.4071505301,-2.1939174151,-0.6751076541,1.6592693765,-0.7727559673,-0.0216762215,-1.1033184632,-0.5953469532,-0.0184516081,0.500712952,0.3797572477,-0.2390936986,-0.8310761178,-1.0663973027,-0.4038851422,-0.3575576622,-0.7557385463,0.2664392517,-0.0367868766,-0.4464815622,-1.0816957727,-1.927785378,0.2698483225,0.6634613638,-1.6772436778,-1.3255026411,0.1287635313,0.0742767018,-0.517545651,1.0414160367,-0.6914900329,-0.0918495442,-0.3055383573,0.3628634849,-0.5900027852,-0.9052613925,5.2256698741,-0.8770505471,0.2301010245,0.8171925445,0.5662584819,0.1142752354,0.0858674366,-0.7043284797,0.1266319645,0.3451359588,-0.447836159,-0.6598205062,-0.0289990219,0.1875781599,0.241633088,0.4759030995,0.8918786754,-0.2099283887,0.7217592977,0.5027375704,-0.1386160343,0.3074922366,-0.0510672477,-0.6345224859,0.3720033705,0.5259318481,-1.0211299978,-0.0782489536,1.7669238101,-0.8041370609,-0.2230135013,0.8661149173,0.9716573665,3.6771171657,0.128111456,-0.6717970376,-0.7564847548,-0.3097459929,1.0315656828,-0.655969244,-0.7479041504,-0.2738249611,0.6660234479,-0.4400798614,0.6203511677,0.215740745,-0.2127230707,0.0760535126,0.7126600518,-0.6049348098,0.0792744955,-0.3925436033,-0.8670331254,0.7152037291,0.0414094763,-0.3268383854,0.2698876009,-0.1871673126,-0.7221722439,-1.3173521771,-0.2999220809,-1.1510433778,0.2274220634,0.4538602199,-0.7125816503,-0.3007134572,0.0822486999,-0.5891016707,0.1288938537,-0.3840477362,0.3924622823,-0.4571142984,-1.5834765909,-0.9442858295,-0.0469073344,-1.2532222327,0.9246787383,0.2056180788,0.1062142911,-0.3237753249,0.2779713523,-1.8902358471,-0.6081215937,0.0652912218,0.0799044933,-0.067460325,-1.152345928,-0.6929070259,0.1014163531,-0.2308823634,0.3993104887,-0.4441023562,1.2902614953,-0.6374783069,-0.0655360501,-0.8391035006,-0.04929863,-0.8633574357,-0.0640320856,0.3625006176,-0.5978929604,0.70516293,0.0389479848,0.2342832561,-0.3484628221,-0.461067303,-0.9636195257,0.6174286037,1.1216583782,0.6905051164,0.2536797341,0.0910429782,0.7677858403,0.3911024397,0.91203613,0.8211801247,-0.1674097309,2.055972078,1.2223953974,0.7715938654,0.3171408311,0.2514559197,0.3795556393,-0.9902885783,-0.8989619621,0.5553863839,-0.5788430693,-1.364792244,-0.6573997545,0.4330415209,0.0185713997,-0.2107371426,-1.5259975337,-0.0743241659,0.1027119685,0.4364735559,-1.2243707653,-0.4658752463,-0.3514948021,0.7054884654,-0.8601200869,-0.1144751328,0.2873662296,-0.7619545852,0.2776542947,-0.3411273982,-0.141142072,0.0848729788,-1.0439300765,-0.3109553604,0.347608914,0.0465953371,0.0608169421,0.8421738557,0.229737138,0.4392606098,0.5609847993,-0.9820111669,-1.0381143212,-0.3607364268,-0.8208136771,0.8570556497,0.6825354839,-0.0929325724,-0.3611869613,-1.0924176654,-0.472565626,0.332357399,-0.090215786,-0.2942276498,-1.0165337894,-0.1529297665,-0.7586331002,0.0118048076,-0.2044012564,-0.3776211254,0.5854615456,1.5317354839,0.889932125,-0.663098923,0.6794483909,-0.4386942176,0.2487235298,-0.0888428854,0.4760088482,1.4606532601,0.8131146909,-1.6239158959,-0.2180269987,0.4601559455,-0.25279368,0.1557360893,-0.1206288569,-1.1260446987,-0.1687961464,-0.0903852216,-0.1496670157,0.8078684888,0.6979284558,-0.5337080811,-0.5348472304,-1.9477851714,-0.2270128197,0.3095884513,-0.1288747357,0.1026042856,0.3666784338,-0.1676092573,-0.0599328224,-1.2010445391,0.1124988037,-0.3594868849,-0.9697904242,-0.3332152605,-0.8207241687,-1.3928682267,-0.163064848,0.4102925495,-0.2170655481,-0.0064509842,0.1221488857,-0.5895633565,-0.0621800438,-0.4533167288,0.0591787841,-1.7547321881,-0.4471983783,-0.4777681253,-0.5672301476,0.3222117485,-0.5132182556,0.6338375796,-0.2844960893,-0.5083446373,0.6009694711,-0.2887556882,0.0724521785,-0.5785557012,-0.8289851732,0.7191672448,-1.1503210846,-0.1480033838,0.8300506539,-0.1073488145,-0.4329528001,1.3003814166,0.6388331108,0.2755563123,0.0802637687,0.7502615017,-0.491538542,-0.4417406477,-0.4377135977,-0.4123428925,0.1893587858,0.2470821394,-0.1798722154,-0.5228617574,0.0498483801,0.1338918949,-0.21406783,-0.0962989143,-0.0650111155,1.0412646675,-0.6434867257,-0.5149664962,-0.384580035,0.6335212526,0.0237753753,0.721895317,-2.5020675487,0.3261810621,-0.2543115911,-0.0094810631,0.1390822883,-0.7993030588,0.0484339456,0.5186780872,0.0805678719,0.108169809,0.2727972832,-0.6753816191,-0.227131584,0.1388537031,-0.4590019798,0.2357326766,-0.1854284156,-0.295866769,0.5456489751,1.09587558,-0.3567123282,0.1745154888,0.6736085671,0.9956803165,-0.710401653,0.2218165579,1.0562646607,0.1605659634,0.3910156082,1.2597824046,0.5537331391,-0.793669976,0.4798149119,-0.7160100611,-0.0557806075,-0.0630456882,0.3898979767,0.883162089,0.506057275,0.1839191939,0.3065807118,0.1813919522,0.2631338727,-1.3323228241,0.4134173381,1.3312560344,0.1794953855,-0.4501244324,0.6864986812,0.1712268807,-0.0279986922,-0.6158688763,-0.7813220441,1.1785436974,-0.3612143107,0.3087286219,1.0449155093,0.2214559678,-0.2465286967,0.1424701263,-1.2201147393,0.1526643122,0.0548373515,0.263257446,0.3102501291,-0.0312771254,0.3279455287,0.060716609,-0.757799727,-0.9517106657,-0.7381314188,0.3770088347,0.358880857,-0.1180631111,-0.5772306537,0.7544395491,0.703514738,-0.0041462852,1.7885348572,0.5974485892,-0.7390874651,-1.2643764538,-0.2649556615,0.4248909857,-0.1670848537,0.1208208369,0.4015530386,-0.2002943486,-0.1923357855,0.2339021727,-0.0419714073,0.0935361501,-0.8747603838,-2.0314183078,-0.829717033,-1.1225599304,0.0422755918,0.013146654,0.6710683595,0.7364428417,-0.0166501931,0.3165500218,-0.1622313994,-0.256515007,0.0664231208,-0.1570996693,-0.3025594425,-0.3522971075,0.6199535456,0.5440259712,0.6048132386,-0.6071756278,-0.1547613536,-0.1784921393,-0.3476770155,-0.1617099509,-0.2290678192,0.367451702,0.6694944506,0.0604226023,-1.1702127112,0.9482718159,0.69671404,0.5429883283,-0.7900566033,0.0246625608,-1.0934255732,-0.4237558281,-0.1376374072,-0.7239006775,-0.2336627285,0.4156483204,-0.2311809744,0.4473398054,0.9590252984,-0.0137701543,0.4400835268,-2.4103000989,-0.7341598682,-1.0427450819,0.4862180309,-0.3762640329,-0.8336820779,0.400385679,-0.9021719111,-0.4898865716,-0.656973099,0.4571667125,-0.7486521233,-0.0001986652,0.2410332096,-0.3381478604,0.8074895084,1.7512578921,0.8335363014,0.4034684491,0.5071990927,-0.2967243248,0.6721842505,0.0930771507,0.661604937,-0.7343770467,0.7101930196,-0.8240033882,-0.5117072366,0.6572208436,0.673102497,-0.0823684487,-0.2100892922,-0.457760541,-0.6713546051,-0.224076989,-1.1474973857,0.1819224041,0.0771416594,-3.7932363543,0.1673757102,-0.3314562493,0.5871612467,-0.2008224572,-0.0545534486,-0.4732843737,-0.0760413642,-3.289492348,0.1548779518,0.715068439,0.2433940068,0.3892980951,0.1362911042,-0.6317037787,-0.7653997204,0.7380572149,-0.9132011185,0.8881474614,-0.3427269472,0.694470176,0.2492960219,1.1967374132,1.0427211207,0.1539516897,-0.7817854819,0.945685074,0.5278780746,-0.1858583205,0.4589139994,-0.1753979237,0.1114597095,-0.0409639898,-1.5247014738,-0.5500139073,-0.4200264764,1.2843157638,-0.327963091,-0.0159963693,0.3616459097,-0.5651461432,-0.8041723687,0.630709378,0.8389902075,-0.1987482711,-0.8820613206,0.3502385043,0.2343330745,1.353859465,0.4475993367,-1.1612965228,0.4858171903,-0.3605626847,1.2364388634,0.3750926648,-0.1911863709,0.5515578083,0.7925565911,-0.0277768969,0.7401959353,-0.1392498367,-0.1458485872,-0.7982860211,0.1221577564,0.8876097514,-0.012205814,0.1934624606,0.0202675244,-0.1442040728,0.5639160322,-1.3186123193,1.4302198796,0.3033651084,-0.465395386,-0.7720553157,0.2746861534,1.0968096563,0.4027468944,0.5548656187,2.0515229543,0.54917909,-0.29932231,-0.5726549529,0.7874200772,-0.8649064061,1.5472941959,0.9231721423,-0.3838188616,0.2122927833,-0.5494516224,-1.1519981959,0.3138697589,0.2832608208,-0.252489138,1.1705510132,-0.2352546528,-0.038307568,0.4334150788,-0.994247921,0.2001022879,1.0649114097,0.308785262,0.8361619559,0.6465004229,-0.7499889876,0.1113197065,-0.1010620263,-2.163333178,0.4146241486,-0.3951017237,0.0568108445,0.4622685446,-0.0324937058,-0.1733197254,1.0180194821,-0.0996362029,0.5468533109,-0.683492522,0.52007336,0.6233338885,-0.136300315,0.4898840347,-0.2539610806,-0.934852152,0.8793895757,-0.8185255272,-0.0234562077,0.1418551105,0.5604741306,0.8270770419,-0.9531276247,0.4010848246,0.0211923976,0.5703000751,0.6538016937,-0.1822174377,0.8729359338,0.6579525584,0.7639124391,1.4050044036,0.8626473405,-0.8178675185,-0.2591090687,0.5156445987,-0.0750410702,-0.4358657406,0.3230387651,-0.4757930066,0.1887017643,-0.0127869936,-0.3722860991,0.5368453759,-0.6638494181,0.4648890626,1.4071105862,-0.1284103349,0.2120359133,-0.6933310533,1.5917224668,0.0135864984,0.6123243941,-0.6463804026,0.8703074146,-0.0912657622,-1.7642123294,0.7026797801,0.3798794664,-0.0326847966,-0.2391136358,-0.3007064689,-0.1038729082,-0.0163138564,-1.2431744274,0.3065352879,0.4095020046,0.8628857739,0.1272651973,-0.0361396949,0.9603004909,0.7830517571,-0.3198270081,-0.8716502356,0.52339974,0.1587244419,0.3773947774,-0.7158309994,-0.6735780156,0.5973183486,0.8196942426,0.0511731996,-0.1101737573,-0.9547883347,0.0691146872,0.6427450146,1.5524624759,0.2448086428,-1.0790333179,0.173143504,-1.228685839,-0.7080779792,-0.0151154085,-0.537752664,-0.1209211829,0.6893249544,0.3205214907,-0.7420659708,0.1874687491,-0.3033335073,0.8879671513,0.1043236141,-0.1698653593,-0.1774699602,0.5879186027,-0.43325752,-0.3925400741,-0.1344207892,0.3811409745,-0.3305567617,0.0367931934,0.1184375069,-0.4570595571,0.7195560691,-0.442508119,-0.7427061769,-0.2961671243,0.626885319,0.5614847188,-0.1674098244,0.2544934831,0.9698226643,-1.0377110252,-0.8221772778,-0.8588190137,-0.5499976018,-0.8441937281,-0.4798107785,0.3524085655,0.131599159,-0.6681715593,-0.7652977902,1.193597621,-0.6237902389,-0.3004184961,0.6102419566,-1.2361521181,0.567849285,0.9367114025,-0.6005317134,-0.3833687333,-0.1054313339,-1.1818423085,-0.4352617722,0.5569799962,0.6408010427,-0.5242910072,0.5384500728,-0.0490168501,0.5988951417,0.6038558439,0.6172847852,0.4440124001,-0.7242708063,-0.0087035478,-0.8551999113,0.233662632,0.0788146196,-0.3164828637,-0.0632396745,0.1475779903,-1.0715276762,0.4003599414,-0.6409141109,-0.3036018037,0.0182981062,0.6949995095,0.7425921982,-0.7312232527,-0.624374801,-0.7771498825,0.0221313231,1.6251010533,0.809839971,-0.2513482259,0.9243066077,-0.1991828223,0.5791658772,-0.6893857562,-1.5720194045,0.5611455143,-0.0248581826,-2.3480025558,0.1755513271,-0.7418684485,-0.5001993115,-0.8477566611,-0.0788842231,-0.355700656,-0.736464644,0.1319895379,-1.9414728093,-0.5832631363,-0.8115604018,-0.7384788154,-1.1635119728,-0.7807317901,-0.7239051617,0.6982736009,0.1068341711,0.49721131,1.0984231371,-0.9721393037,0.6099431481,-1.0991198952,-0.902978785,0.5650648413,0.7185744356,-0.472389122,0.6527188881,0.525241384,-0.2399146322,-0.4936401174,0.6939899746,0.9489606447,0.2601349644,-0.01130621,0.3117857999,0.6868369804,0.5985008273,0.1893832022,-0.2375795054,-0.1377868882,0.1583976596,0.6828644786,1.1017355685,-0.747952811,-0.6360797798,0.0190955165,0.3152407061,0.8190720061,0.9065120107,0.3178863092,0.5750989823,1.1371249788,1.3770327163,0.589102831,0.1054865161,0.6172075166,-0.0701963468,-0.4793407091,2.3842707352,0.0837240581,0.8117298179,0.0336094222,-0.6215733464,-1.0396690966,-0.3166327947,-0.0013450026,-0.8193379249,0.5972007474,-0.1380084758,-0.8623323752,-0.0506944303,2.2794660199,-0.5654013318,0.4505087353,0.8708702661,-0.6060739914,-0.7043518947,0.3259554915,-0.5146906863,0.1363025716,0.6369165737,-1.3026580408,-0.0716822444,0.3651352902,0.980722166,1.0429975916,-0.7966248562,-0.8826648185,-0.2986578272,6.3156926636,-0.5001696235,-0.6376786091,-0.5636189291,0.9915209812,1.4348792402,0.1830840102,1.7602241303,2.6675696029,-3.1946875306,-1.5179787324,-1.5107534845,0.5296972156,0.3376828327,-0.1919831993,-0.9307191559,-0.0033748909,-0.3838087729,0.8523962995,-1.1412061336,-1.6426954362,-0.263966836,1.0944632123,-0.2927813197,0.0455586683,0.0001755036,-0.6216301558,0.620672406,-0.6527753303,0.3832704174,1.4380962048,-0.4306635915,-0.2132684217,-0.4893277898,0.7370093205,0.5864418874,0.9314689146,0.9902240133,0.4567025896,-0.1323615631,1.3157139307,0.0780529917,-0.8493016439,2.7138153161,-0.3357203244,-0.7632956547,0.1998557417,-1.1518034915,1.1096174202,-0.5571081969,-0.1033516952,-0.9620230097,0.5113124203,1.1774810871,-0.5707907235,-0.8129393176,-0.1014900437,0.7448750203,-0.158245626,0.9254748936,-0.2997415781,-3.2044917885,0.7485582376,-0.524729155,1.9308508619,0.7787116444,-5.6554012726,-0.3139787869,-0.3792184087,-0.056011712,-0.3242432971,-0.5045518493,0.0646430496,0.2065884558,0.5176512808,0.5263243722
