encog,BasicNetwork,java,3.3.0,1,63586934348857
[BASIC]
[BASIC:PARAMS]
[BASIC:NETWORK]
beginTraining=0
connectionLimit=0
contextTargetOffset=0,0,0,0
contextTargetSize=0,0,0,0
endTraining=3
hasContext=f
inputCount=112
layerCounts=3,61,201,113
layerFeedCounts=3,60,200,112
layerContextCount=0,0,0,0
layerIndex=0,3,64,265
output=0,0,0,0,0,0,0,0,0,0,0,0,0,0,0,0,0,0,0,0,0,0,0,0,0,0,0,0,0,0,0,0,0,0,0,0,0,0,0,0,0,0,0,0,0,0,0,0,0,0,0,0,0,0,0,0,0,0,0,0,0,0,0,1,0,0,0,0,0,0,0,0,0,0,0,0,0,0,0,0,0,0,0,0,0,0,0,0,0,0,0,0,0,0,0,0,0,0,0,0,0,0,0,0,0,0,0,0,0,0,0,0,0,0,0,0,0,0,0,0,0,0,0,0,0,0,0,0,0,0,0,0,0,0,0,0,0,0,0,0,0,0,0,0,0,0,0,0,0,0,0,0,0,0,0,0,0,0,0,0,0,0,0,0,0,0,0,0,0,0,0,0,0,0,0,0,0,0,0,0,0,0,0,0,0,0,0,0,0,0,0,0,0,0,0,0,0,0,0,0,0,0,0,0,0,0,0,0,0,0,0,0,0,0,0,0,0,0,0,0,0,0,0,0,0,0,0,0,0,0,0,0,0,0,0,0,0,0,0,0,0,0,0,0,0,0,0,0,0,0,0,0,0,0,0,0,0,0,0,0,0,0,0,0,1,0,0,0,0,0,0,0,0,0,0,0,0,0,0,0,0,0,0,0,0,0,0,0,0,0,0,0,0,0,0,0,0,0,0,0,0,0,0,0,0,0,0,0,0,0,0,0,0,0,0,0,0,0,0,0,0,0,0,0,0,0,0,0,0,0,0,0,0,0,0,0,0,0,0,0,0,0,0,0,0,0,0,0,0,0,0,0,0,0,0,0,0,0,0,0,0,0,0,0,0,0,0,0,0,0,0,0,0,0,0,0,0,1
outputCount=3
weightIndex=0,183,12243,34843
weights=##0
##double#34843
   0.5809191418,-0.5928325515,1.0334950379,-0.780772634,-0.5279740249,0.2821865151,-0.3528961564,0.7950247756,-0.3438644897,-0.613008919,0.3796804639,0.514674486,0.7450976573,-0.8776071972,1.1294907717,-0.5973975337,-0.5631740792,0.574203694,0.7389974828,0.131899886,0.8202888606,0.68620563,-0.5767736593,0.1537326657,-0.2312938579,-0.2924018168,0.7015608387,0.7890806729,0.0854457223,-0.7052050387,-0.0870055494,0.1778175476,-0.8300905338,-0.0589779892,-0.0454508503,-0.2217112285,0.1380058581,-0.9988487497,0.7160888595,-0.283899958,-0.6129996894,-0.2941648223,-0.2553186703,-0.2301882045,0.8119118298,-0.4275711701,0.5152667736,-0.6287112575,0.5010348367,-0.3403654312,0.5857576316,0.0225584393,0.2533937099,0.8598912072,0.2299679938,-0.4637640814,-0.1177626897,0.1039610443,0.7058356287,0.4279736932,-0.0849141956,-0.2339579232,0.9534045504,-0.1761256417,-0.4928944137,0.9250740301,-0.0225718534,-0.6658438415,0.3227208255,0.7258411615,-0.0366068179,-0.1370612767,0.5351052346,0.8327959523,-0.3622664661,-0.91281781,-0.330191386,0.635716751,-0.4046056326,0.7947483615,0.7427066958,0.5424656463,-0.2406024669,-0.1197209812,-0.0339461493,-0.0280264121,0.7137137299,-0.5957055177,0.8749689321,0.8493767752,-0.9211350076,-0.9193555087,-0.6471361131,-0.6169475712,0.6030545533,-0.1897388146,-0.0322972954,-0.153825612,0.7645408564,0.6041272778,0.4534574195,-0.6831566126,-0.8927894663,0.4392758167,-0.6547863419,0.4952067191,-0.3093205392,0.4146313122,-0.131306524,-0.2497580608,0.4244500068,0.7368418668,0.2456597447,-0.3816561825,0.5090767805,-0.5557157849,-0.4365523902,-0.3928753537,0.7825745414,-0.110000857,-0.024064155,-1.3396754499,0.6820780758,0.3172824581,-0.7770203854,-0.1976901491,0.62209295,1.1892533442,-0.157254136,-0.1449441299,0.4370137548,0.9995664406,0.291657513,-0.2277425401,-0.1988965121,-0.1420831515,1.2227981075,0.9403360842,0.6012918121,0.1743037715,0.3386340376,-1.1582003904,0.5590270812,0.2646179758,-0.7046368409,1.2394301443,0.8541247458,-0.0865208788,0.377540088,0.2262402981,-0.5920170679,0.7633600306,-0.778353131,-0.0178064377,0.1657932989,-0.7619661884,-0.2052105506,0.7984049932,-0.3588225441,0.1172480462,0.3648582364,-0.0773546809,-0.2477818497,0.6776633377,0.0694020941,-0.3132383653,-0.0950383341,0.0033028696,0.0541468459,0.2914258346,-0.4638094142,-0.1181956717,-0.5193408835,-0.1520771303,0.5833188216,0.5462827029,0.2712070907,-0.7212416855,0.3196283436,-0.8619203311,0.3163344721,0.178489231,0.9213386748,0.5070463612,-0.1479518735,-0.6768702787,-0.2440260478,-0.4565744564,0.2767306157,0.6689073412,0.3904714431,0.8119872516,1.2789768694,0.2424157684,-0.0309565777,-2.5127113871,-0.4220091711,-0.0916604039,1.041356098,-0.5844641193,0.1196269053,-0.3750700011,0.2392800079,-1.882046713,-0.6253520491,1.0729947221,-0.1950788266,-0.9075212085,-0.4303088696,1.9674206147,-0.1333275313,0.4231610241,0.7429203873,0.0644070391,0.5694457382,-0.2528582664,0.2200988253,-0.0866285727,-0.3120811008,-2.9866577515,0.7406881452,0.0516933112,-0.1633362152,1.6558703539,0.0431078178,2.3897093643,-0.0041337731,-0.5755420496,-0.040416977,0.6450193919,-0.4588543807,1.0533648128,-0.3115372941,-0.0901704259,-0.6079437357,-0.4789284915,-0.6160402741,0.9605694172,-0.4253344008,1.0537763838,0.4250866226,-0.3047008837,0.9980291973,0.2414733944,-0.638894992,0.0783168647,0.3247167651,1.0762717993,-0.2147033339,-0.0860703379,-0.5208545103,1.0247770322,-0.8917128507,0.5522186327,0.0868046381,0.9904724731,0.3217609238,-1.0862487787,-0.0413079016,-0.2852068865,0.9131442134,0.1534974736,0.040731116,-0.5695682856,-0.0514583149,-0.1360713613,0.8357564471,0.8891208767,-1.099222964,0.5885019581,-0.4509908191,0.240936583,-1.1086363263,-0.1663150495,-0.3755187009,-0.588330865,-0.6418765769,-0.6358894504,0.1190381138,0.239937882,0.7274661327,0.3927856446,-0.2095692488,-0.2248354565,0.4080240289,-0.7293043815,0.3402305267,0.1494025567,-1.7983386327,0.0084175816,0.2008795669,-0.2586400372,-0.6294402429,0.2158423361,0.3226917967,1.3827486593,0.2266431113,1.0456398742,-0.7642590511,0.4812943619,0.6742895227,0.4887286696,0.1242556428,0.5831546008,-0.4825915392,-0.1688905631,0.3027536846,-1.0818699508,-0.7795398108,0.1776383921,0.0071244686,-1.0217088196,0.5352892588,-0.2389770389,0.5487166041,0.3653454179,-0.6766994002,0.503600475,-0.7503906449,0.2997860936,0.848890697,-0.8111568293,0.5560102089,-0.4161356099,0.2986271198,0.4834231981,-0.6857040996,-0.3435516454,0.6250933038,0.4508309744,0.9172045607,0.056079032,-0.1504406791,-0.8699441786,-0.8283378527,-0.1357796303,-0.3044242682,0.5801745811,-0.9959915354,-0.2987622036,0.2782778418,-0.3780374696,0.4716395471,0.0175552725,0.1349273726,0.0303239604,0.3579599384,0.7311892077,-0.181945327,0.1180417146,-0.3834615616,0.4246125415,0.9264895348,-0.3442635484,-1.141421512,-0.3394968165,-1.1067740326,2.0856698167,0.5715840586,0.7389251306,-0.5062536405,-0.207153318,-0.1949084548,1.0646628333,-0.5317231155,0.5465259529,-0.5538174462,0.6011396346,-0.6510873083,-0.9409908616,-0.6287490035,-1.1354925629,0.4688886896,0.3343884303,0.7548782073,0.1818603478,-0.6293865465,0.8366797554,0.5933724008,0.4140899137,-0.1627112537,0.3758201647,0.5876530699,1.1793853595,-0.4529836517,-2.0946052768,0.9677744375,0.5658117865,-0.7875838185,1.0422448835,-0.7393793271,-0.5110560552,-0.2011544836,0.5198623209,-0.0484147717,0.6740267737,-0.5038486565,-0.1202106613,-0.0067346844,-3.6559641317,-0.2335293573,-0.2507818526,-0.1193892102,-0.8582761926,0.5410781106,0.286890961,1.4951314418,0.3358066791,-0.0729267938,-0.5149146455,-0.2160264332,0.4739869281,-0.2544087644,-0.7354577589,0.1639971314,-0.7284868812,-1.143532763,0.9420601133,0.9205880399,0.3628165096,2.5599205191,0.0860944518,0.1162573181,-0.1901369065,-0.6175879775,-0.3482692883,0.4619988307,0.3884938656,0.4136159324,0.3517201211,-0.4938099515,0.8288006202,-0.4516303019,-0.3339750448,-0.0867107459,-0.4920968981,0.5023831373,-1.2146955123,-0.4490875511,-0.6139237158,-0.0345381344,1.0331897704,-0.3896635494,-0.3286745706,1.1044353048,0.3648508768,-0.6887229455,0.989991459,-0.822903237,0.3708280461,-0.344911575,-1.6460364773,0.41576922,0.4039701034,0.2847759683,0.19765394,0.1301871151,-0.504431211,-0.8297819531,0.7268456977,-0.3907985712,-0.4635402301,0.3353616555,0.8727672437,2.2308462868,-0.7155991236,-1.54767355,-0.0797649594,0.7104078949,-0.2640796882,1.0617344842,0.4001519909,1.3370963863,0.2289133395,-1.3910221306,0.8237508733,-0.6576742114,0.0848312996,0.40816805,0.7048629274,-0.662440928,-0.6026160937,0.0133187142,0.0272547573,-0.3237174248,0.5742488127,-0.0034094715,-0.5159335385,-0.6451665362,1.1143177639,-1.1585230293,-0.1130234693,0.5249833714,0.2250871594,-0.8782946678,-0.219096136,-0.3680283117,-0.920892256,2.675671556,0.5323447559,0.1051324356,-0.5082126114,2.7595680541,0.0723565073,0.0960699507,0.9334122933,1.6276493657,0.5528253911,-0.9236591384,-0.0939424815,0.4738718396,0.5718562516,0.0960375757,0.7988896693,-0.3389049552,-0.9440316705,0.4171193459,-0.3463430068,-0.5632106506,0.3340431611,0.4060490214,0.7853944352,-0.2734775355,1.0449349189,-0.6553739454,0.0831883581,0.1171427002,0.0562735821,-0.5585090358,0.5821543042,0.4460046262,-0.6763263806,0.307999275,0.2437601597,0.2258492716,3.0238745314,0.54451879,0.5674262995,-0.602202517,0.0826457441,-0.84594382,-0.6317574713,0.5964364094,-1.4932554177,-0.5573087295,-0.8802115655,0.5815360833,-0.1380911605,-2.6012217892,0.9545535141,-0.4744013404,0.4269457081,-0.5728727338,1.0250205159,0.0253929388,-0.2830299892,-0.7477920252,-0.116360191,0.0505256009,-1.7055843761,-0.6166434098,-0.3465163511,-1.030159432,-0.3773879135,0.1406257697,0.2397555314,0.5366394594,-1.0912861003,0.5137865548,0.0934885059,-0.4977301321,0.4281689277,-0.6404080321,-0.3162240691,-0.1143040502,0.5927649599,-0.0767272551,1.3952125031,-0.9837350228,-0.7399014005,0.3398717057,-1.0434872378,0.2905928091,0.5248446638,-0.3094086734,0.6243959991,0.1642244581,1.4239616497,0.6529635736,0.3515751949,-0.2621383085,0.4543641098,-0.1631806855,-0.3432742596,1.2112302847,-0.3526513244,0.4632438021,1.643391824,1.1429445542,-0.2079756208,-0.9332048659,-0.0679758771,-0.22948897,-0.0134574979,-0.0688508667,-0.7977339627,0.9978447517,0.0398675756,2.1435062769,0.8383192586,-1.0263803448,-0.1549627842,0.6366716921,0.8706856554,0.6146294894,0.89457868,0.7064984918,0.1766584825,0.6375527566,-0.8079269516,-0.7639671745,0.6123216941,-0.2835294795,-0.3283350461,0.9840815789,-3.3865556954,0.5805157955,-0.8063646225,-0.3483880364,0.7503047543,-1.4320056226,0.4397098032,-0.7872484496,0.634474075,-0.2793293087,-0.4905133452,-0.6509776762,-1.0804611626,0.5886519001,0.9294643397,0.1436681004,-1.1009384539,1.0749794088,0.8525775084,-0.5328410244,-1.0223311385,-0.6376721588,0.1346291361,0.3746784665,-0.6588980242,1.2202277502,-0.5154239365,-0.3258988158,-0.9082834734,-0.713399045,-0.391795735,0.4585363019,0.5678142243,-0.1095526962,-0.2182626822,-0.4288005364,0.9735946995,-0.5811127607,0.2998349822,-0.1625997189,0.6554997483,0.781656968,0.6207384101,0.5082785264,0.2172781455,1.1079493846,0.7992275526,-0.2132270654,-0.200883215,0.5042878683,0.8384686312,0.4987119164,0.6677994605,1.0232555555,0.4390847172,0.3141270343,-0.506107728,0.2916826189,-0.4659269203,-0.6987406754,-0.1876553962,0.8049754791,0.1435144841,1.1877980178,-0.7434974704,0.3623154379,0.0245922208,0.295592556,-0.3262336164,-1.3882031088,0.6063933117,-0.0962472916,0.3069288342,0.2506677154,-1.0789020067,1.4276944503,-1.0878344653,0.8807534982,-0.7423683669,0.8239450039,-0.3144380749,0.6921370328,0.3985342662,1.192600274,-0.3367186624,-0.0078284769,0.7187477036,-0.8196090274,-0.5697753556,1.0206294586,-1.0395909845,-0.2500875289,0.1267060226,-0.2938772122,-1.0044300189,0.2578465963,-1.3005626236,0.0782461205,0.7186118752,0.246219008,-0.0635050223,-0.1734552736,-0.3318695562,-0.092043147,0.3152594547,-0.3308775879,0.4131097897,-0.5711238621,0.5896008633,-0.6260673422,0.3696208537,-0.3879232486,0.4244786119,1.3385886153,0.0421418972,-1.0945347593,-0.5043290319,0.1616708954,0.3315694873,-0.798230613,0.2132397947,-0.2718504901,-1.122268866,2.3037765981,0.1549766174,0.0453292419,-0.2419518399,0.633528256,-0.9368887406,0.480486566,-0.0988790273,-0.7173239421,0.2011468778,-0.0883866491,0.2655390404,1.3248182448,0.7155338967,0.0044744944,-0.0860694899,0.5632447151,0.6305818527,-0.6253731155,-0.1307117186,-0.8170149532,0.5714443072,-0.2715209926,-1.0134165291,0.1129389411,0.0590991684,-0.4009760162,1.1202344847,0.457347646,0.4542518615,0.6991367789,0.2343325051,0.2519157777,-1.233685723,0.7876461867,-0.3858515054,0.3374119997,0.9559339731,-0.0554908168,-1.063407954,-0.1296664436,0.447443678,-2.9683211951,0.2023129064,-1.1929816886,0.539579153,-0.5267981866,0.2747715387,0.2499068636,0.5201232645,0.3894028258,0.1781795097,0.2704845864,-0.6601128137,-0.9522611695,0.4765696614,0.2217816823,0.4976423975,0.1162946882,-0.0587434799,0.5087265819,-0.5995110703,-0.4069129545,1.0766008185,-0.9785916331,-0.6296286792,0.628779744,0.3313931641,0.474081044,-1.0534876709,1.9167064189,-0.6470375774,5.1160692888,0.803090557,0.318563195,-0.5272315267,0.9051397142,0.252443599,-0.8624895507,-0.2173179978,0.8546605104,0.018405964,-0.349514228,-1.0115921804,-1.3600976912,-1.2248931669,0.0153817395,0.2451184167,0.6694824909,0.0536312255,0.2165696588,0.6113338839,-0.0049317607,-1.1365313317,-0.1528784048,-0.7423952052,-0.6719830705,-0.0058009066,0.4398714376,2.1075087376,-0.1689369826,1.9631646054,0.5242110768,-0.7527350974,-0.1010018296,-0.2930121646,-0.5318325698,0.6052153994,0.6135008882,0.8764442512,0.8407786852,-0.451119698,0.8803209743,0.5066493969,0.1512875009,0.1473904819,0.1236262901,-0.962663955,-1.7910586629,-0.6877902626,-1.1296412021,-0.5657808795,-0.5065717584,-0.2965232912,-0.0708629865,0.7538170975,-0.3541684406,-0.0606290134,0.0248345187,-1.4068756917,-0.3153835115,-0.6519697881,0.4502791166,0.1240197801,-0.235197337,-0.811070208,0.2436131361,-0.2522167634,-0.4675688499,-0.6978454809,-1.0346329944,1.1147453855,0.9468282808,1.1517050577,-0.4970417215,0.1328334102,0.2668690046,-0.5556850867,0.1512044816,1.3245173153,-0.3016189236,-0.4598042865,0.2118940613,0.5117360193,-0.6430082597,0.0046288581,0.1373541807,0.5586696594,1.1730706955,-1.1394597055,0.7445895692,2.5432211012,-2.8994830381,0.5806606595,-0.6777375638,-1.4562825441,-0.8675787579,-0.3196503055,0.6681032397,0.1312566652,2.5852365041,-0.9386310422,1.104100857,-0.4814026389,-0.4153772584,0.5549371474,-0.9179634196,-2.7485247987,-0.4647785604,-0.3926363513,0.2374940215,-0.220245252,-1.2377686366,-0.5811449179,-0.7910292351,-2.6011804653,-0.7829945985,-0.6848746234,-0.2089700603,1.045811819,-0.5369266836,-0.2846097148,-0.3996732905,-0.8624669465,-1.0050739332,-0.3691796252,-0.3883212883,1.3231651912,0.883195899,-0.4620243964,0.4707167308,-0.6658757431,-0.9531164218,-0.0027001142,-1.0132504898,-0.6510253313,0.1092051406,-1.1054568785,-0.893322501,-0.9353736687,0.057572112,0.2762941954,-1.1307729765,-1.3627162173,1.6040294336,-0.5855376364,0.2237155271,-0.2889383398,-1.0205548182,-1.2701043394,1.455910394,0.431184551,-0.5913196303,-0.3354596998,-0.7170896091,-0.740463845,1.1075966111,-1.6742183194,0.5675238734,-0.0168290405,0.1689733133,0.6556283141,0.1837700238,0.2526650242,0.192144671,0.324610799,0.7112860125,-0.7421234399,-0.38208609,-0.5563816201,0.4989065616,-1.7424336671,-0.0663517319,1.7349318038,0.663812719,-0.8250021584,-0.3085712312,1.0455120456,-0.4654503479,-0.040261612,0.4773041695,0.4239002892,0.4579703282,-0.7177571701,0.2443410291,0.7506736071,-1.2815646985,-0.7765506371,-0.500635727,0.061474124,0.0630594968,-0.231571224,0.1812521993,0.7790682007,-0.1817539628,-0.4534148876,0.1291080357,-0.3350512968,-0.8120326551,-0.3340479899,-0.0547932529,0.986098823,-0.8127375019,0.7146095189,0.5681929903,0.4305278636,-0.2539463092,-2.4311715922,0.7701836854,-1.1321246556,0.7596069219,-0.7181786505,0.5036482059,0.4094291567,0.5364414925,1.3098020463,0.1414305959,-0.6771689071,-0.0047593413,-0.0931486984,-0.2912948766,1.4425268083,-0.5437164598,0.793190927,-0.9127053219,0.4424596315,0.0107894301,0.0986302265,-0.810409834,-0.1075608498,-0.7651842899,0.1300624125,0.3932134418,0.0843325205,-0.8883402208,0.6138663204,0.0111188954,0.858650557,-0.0343146695,1.2102917283,-0.2633169577,-0.8204707444,0.1780816304,1.0155732881,-1.0462959492,0.5245744829,0.1597502592,-0.4712985182,-0.299297621,-0.9357056289,1.1115093371,0.739600867,0.1363722351,0.3162451491,0.9813629327,-0.7707966267,0.3057880239,-0.0020896441,-0.1074192691,1.0632782015,-0.0935928959,-0.1388275764,0.7111588757,0.443143711,0.4856425872,-0.6408076995,0.9295673116,-0.404972122,0.6078123925,-1.6101487961,-0.4561489074,0.5199946244,0.1914587858,-0.6898451272,-0.349682531,-0.5946599141,0.2778396313,0.2066142825,0.525784673,0.2977073305,-1.1930715367,-0.3538359606,-0.2911936134,0.3519756633,-0.1836098397,-0.1690071583,-0.2294331388,0.9596058393,0.1614220047,1.8645861559,1.6781629137,0.4538265745,-0.1652395406,0.5070556555,-0.4587166441,0.4076642698,2.8301057001,-0.4643882897,0.2809160002,-1.0625776906,0.2076161286,-0.7627825525,0.7571203911,-0.8389267969,-0.6369274014,0.2162586691,0.2189704624,-0.3868164832,-0.266122191,1.425066449,-0.8664375185,0.1160482419,0.5438163677,0.1119720405,0.2881157907,0.2974268248,0.9365796025,-0.6155211475,0.205425127,0.9507340468,0.232662842,0.4359233456,-0.2278733352,-0.4570071556,1.1130635639,0.0268011514,-0.2952750535,0.2332686469,-0.9435712271,-1.8047756325,0.0568536939,0.4173002322,-0.4663501145,-1.2049958775,-0.3378274305,0.1359846918,-0.0895601066,-0.3786572755,-0.3065664201,0.5274280656,1.2378135972,-0.2180132547,0.7767266773,-0.7627705163,-1.0213425117,-0.0585905962,0.1702472879,2.1596132965,-0.3646034229,-0.3035967641,-0.6926028648,-1.1054230112,-0.3303103118,0.9807419728,-0.6529571862,0.1184477779,-0.9563777695,0.8223026547,0.873921043,0.7588275811,-0.910342542,0.3851310952,-0.4196718564,-0.5267490826,0.0045209915,-0.9786234417,0.7396889339,-1.2240009598,0.3860740301,-0.8494233721,0.7078936262,-0.0747591821,0.6915349252,-0.3397496418,-0.7997927158,0.1645382773,1.4449814464,-1.714890819,-0.0235258829,-1.3345418396,-0.1268563048,1.1193997255,-0.6420704998,-0.635759642,-0.4670468084,-1.3699805431,0.626288062,-0.8367918586,-0.3175125019,-1.0231457712,0.0686055849,-0.1632413753,1.0636446146,-0.1377840581,-0.5347465879,0.4414755118,-0.2337050692,-2.2885670409,-0.6230495517,0.06005656,0.3736220897,-0.4455493618,0.6751442222,-0.6574426199,-0.8308926755,-0.98248808,0.1754295031,-0.7593418864,1.0730432949,-1.4906791506,-0.2603011429,-0.2751387557,0.5268787647,1.3763323187,1.6485669964,-0.4680531081,0.6983666588,-0.3478068319,-0.0223624677,0.5616552108,0.2629823853,-0.2448319721,1.069792784,0.6352324764,-1.0873980616,-1.4262933236,-0.0454297583,-0.4275234027,-0.7214625785,-1.8386716041,-0.4010057175,-0.4271141822,-0.6418361603,0.2598903392,-0.1172037171,1.080004965,0.2018759705,-1.2992052742,1.0419804125,-0.3044713143,0.8051602745,-0.1257202572,-0.1110194887,-0.0551929477,-3.5223069502,-1.0028412539,1.2842763913,1.3475570236,-0.6311789712,1.2096829511,-1.5378440325,0.1733164631,1.6057202444,1.9280989043,0.3029859946,0.3143379627,0.6029826878,-0.070226411,-1.275914829,-0.8793012769,-0.1859449648,0.3418431104,-1.0316001803,0.2785439995,-0.080931912,-0.8095655411,2.0017916456,-0.2126081887,-1.1724472905,0.5444540034,0.2186371723,1.0949677334,-0.3875329266,-1.3221754714,-0.1050798948,-0.5716459343,2.7527889009,-0.8010215243,-0.4423437172,-1.4563845804,-0.6600467797,-0.895449725,0.1235871513,-1.3793300684,0.2509560668,-0.1375002224,-0.4870117319,0.6844008154,-0.7403733009,-1.3211751882,-0.0360313862,-0.9919752194,0.1348616425,0.8862607775,0.0881255765,-0.0925171414,-0.184492083,-1.0591763271,2.1899065925,0.2905718234,0.4953050366,0.9706226324,0.2866457921,0.062562153,-0.4335203762,0.2291847193,-0.1347251035,0.7480672357,-0.7912708611,1.0382776266,0.8349780391,-0.4293799957,-0.3540583277,0.6010924741,-0.2312794916,0.9825023859,1.5001999615,0.1278099051,0.4261338979,0.2728505091,0.5255265255,1.1504639065,0.5992958416,-0.0652718056,-0.1329922199,0.6729316005,-1.037832286,-1.6977910571,-1.3790085162,0.3457667012,-0.8810633033,-0.2795315992,-0.0331644498,0.7482372145,-0.6538293329,-0.0903787433,-2.0435004781,1.1677931585,-0.0238449008,-0.117387407,0.0029350439,0.1016682454,0.1987612577,1.0391204223,-0.3513755173,-0.0179416158,1.1910613106,-0.5246485458,0.977420742,-0.4699262966,1.2990635874,0.7239896896,1.4494057608,0.6556893112,1.2397890885,-0.7161117021,0.1658699524,-1.0177251206,-0.83686618,0.1167527353,-2.4011632599,0.6126740696,0.9962105717,-0.7814698907,0.0377943742,1.0862697727,1.6795731479,1.0904369216,0.1508579249,0.217701017,-0.0061227023,-0.6934387027,0.2428280664,0.3216860577,-0.9307834344,0.7983560917,0.3832152337,-0.2864723824,-0.321659171,0.3821160537,0.3442213214,-0.8601863089,-0.3070599456,1.2412454609,0.1793564602,1.201286046,0.4187721344,-1.3866796284,-0.8201281143,-0.3485401916,0.3954887537,0.5196051501,0.9827485222,-0.2526004706,-0.2594767912,0.320700362,-3.4752298938,-1.0997493432,0.1019760195,-0.7069202501,0.5584921856,0.4913044771,0.4970356397,0.0990606022,0.0425860106,-0.2081752288,0.1436782213,0.4028727719,0.1941645857,-0.6480015082,-0.9010141412,0.8702675821,1.3044100314,-0.6570885452,0.3372104474,-0.2421493098,-0.4287393894,0.7825801524,-0.8720686526,-1.2349574885,0.5381031945,-0.7482221442,-0.3066962705,-1.0241483536,0.3969901781,-0.3704553744,-1.5419526277,-1.4082025076,0.1005747069,-0.8881365981,-0.779497444,0.0637190249,0.9863846976,0.7134517778,0.7592491414,-1.7793566378,0.4340283813,1.1146328342,0.0063237857,0.6385566671,-0.3218784809,0.8276252534,-0.2301201465,-0.2634560397,0.4114286141,-0.6305203182,0.3692872782,0.4333879373,-0.6935973092,-1.3662052529,-0.7693506568,1.2218731568,0.3050000576,-1.1469313913,-0.0522818129,-0.51467881,0.1597639016,-0.1042627305,-0.6234247138,-2.4630962307,0.9913956839,-0.9770743688,0.5416279239,-0.5150182902,-0.5527881332,0.07992679,-0.0346474395,0.9347041501,-0.1993408173,-0.5887449174,-0.2782969994,0.1665039691,0.1053839111,-0.3225260665,-0.8458433835,1.1589094724,3.2561336791,0.2671611817,-0.0242729919,-0.8737215897,-0.7767283703,-0.7915958168,-1.0039286567,-0.6006561146,-0.9447341336,-0.2723431238,0.1140761268,0.5184077781,-0.9592505236,0.0503502883,-0.117045392,0.0290190218,0.3465299007,0.4615425756,2.1810312351,-0.2414163751,0.0406505324,-0.6847540275,0.7520754153,1.4582715359,-0.2532481695,0.7817993708,0.0355735625,-0.9107356709,0.3155949504,-2.4003834686,-0.1101235128,0.6308366298,1.826002525,0.4957116881,-0.0717068527,-0.7141500164,0.5743015568,-0.8032422966,-1.1555001588,-0.5451254263,-0.0693147572,0.28791052,0.0571452731,-0.6882782369,0.603032099,-0.2260954776,-0.6777546224,1.0260464289,-1.1939420766,-0.0710497819,0.163960861,0.1109198643,0.7077348556,0.1924148826,0.1879128043,-0.0714821803,0.5936735606,-0.5446940712,0.2516921546,-0.8956323922,0.1898186013,-1.5006565993,-0.9206797917,0.4666087388,0.2031931445,0.3943944808,-0.6402996398,-0.7697885411,0.9114685099,-1.2262734172,0.2329109453,0.7544326518,0.3923778643,-0.8197194072,-0.4157072206,-0.68222468,0.2717916406,0.8996676531,-0.0529508594,0.1739314011,-0.7543917539,-0.5280539663,-0.4254128995,0.5723447341,0.5567038785,-0.8230332551,-1.0979156251,0.9636360767,-0.0610274832,0.4343640812,-0.5461485829,1.7776051345,0.1468373741,0.7163696536,1.1324497223,-0.8253898364,-0.2118045541,-0.155463566,2.0154561452,-2.0199573274,0.6297988376,-0.0939811386,-0.1673967071,0.6498768583,0.852314788,0.5143703728,-0.369240616,-0.8103097181,0.3051847049,0.6080943495,1.4903470296,0.0462607853,0.5182934911,1.3058234364,-2.0078052228,-0.0100647893,-0.2475839211,0.141664596,0.1057793868,-0.2974644197,0.5945671829,0.0749250115,0.9785757373,-1.2153562612,-0.4909219926,0.4608213811,-0.3392080029,0.588214581,-0.0533600879,0.9742165825,0.5370321105,1.7649457029,0.9473616378,0.1930730494,0.3088405832,-0.7568207729,-2.9663576844,0.4289860452,-1.0026941715,0.4061676743,-0.4043245298,-0.1499814887,0.7718045581,-1.0022439576,0.4067124716,-0.1754963288,-0.7623000562,2.3968451926,0.4250885037,0.038748169,-1.6810016437,-0.5947665674,0.3579476263,-0.1449988347,-0.5603643678,-1.3505758379,-0.2105415344,0.6526422351,0.44573261,-0.843348555,0.3202586539,0.4523668789,-3.0077361744,0.4049689578,-0.3936295122,-0.2616095089,-1.3173061087,-0.4120419362,-0.1477687294,-0.8633419302,-0.6029507497,1.4834551365,-0.3654335562,-3.6537252878,1.1012533824,0.8936398651,-0.830783885,-0.0931697089,0.3875494764,-1.3682233148,0.8501786237,0.8150972869,-0.4983465079,1.0350927454,-0.2205790575,0.1209969135,-0.485933227,0.4421767335,-0.3808989083,1.8219376477,0.4672249615,-0.5775640595,-0.3819430069,-1.1916323497,0.8353163654,0.7277195248,0.0334168159,0.6027276358,0.3232794979,3.6103297889,-0.7526942478,-0.7372480809,0.6289361698,0.2108999621,0.9389296018,2.0009070148,-1.0858358262,1.1046843685,-0.0884901347,-1.6632939337,-0.3670963969,-0.1248306579,-0.4108214822,0.8587585904,-0.6942369878,0.0859631966,0.6183294215,-0.0474134937,0.5451763939,-0.7429564873,-0.0311106494,1.4872803841,0.872943836,-0.5327904277,0.4665829938,0.1803337381,2.3509408225,0.3903444301,1.1967302443,-1.6555905752,-0.2382534984,-0.6801170342,-1.3343526429,1.8049019908,0.1208026026,-0.1708219884,0.572131791,0.1519977005,0.8035838579,0.9050680348,-0.6032848749,0.4704022779,0.852313094,0.0120313543,-0.5521713916,-1.0557914584,-0.6009764745,3.8942602345,0.0668043897,0.6536006333,-0.5563339929,-0.984447787,0.2924335106,-1.1108429471,0.6737739655,0.0662166461,0.6761095598,-1.0117355503,-0.9690416312,0.1975572598,0.7033590886,-0.7869738879,0.5521966702,0.2278024705,0.5682078894,-1.3565637434,-1.2579759938,1.1986285216,-0.3762802154,0.2883300329,0.4351510348,0.5658666521,0.5446615155,-0.2559220105,-8.5135570216,0.3542780694,0.0216583873,-0.7153884067,1.1517976972,-0.0544461939,-0.3565289016,-0.4674121705,0.2267714358,-0.2680720837,0.4520974065,-0.9856291049,-1.1653012964,0.4795158472,1.004111514,1.7980169092,-0.5077418999,0.2795781919,-0.8960976807,-0.3621680058,0.3966609311,0.7711595704,1.5187974718,0.8013980746,0.698172561,0.4441363213,0.3983096786,0.063902026,-0.3660311617,0.1156363578,0.6405121187,-1.210016213,0.8905812511,0.7209922817,-1.0891455618,1.8829045644,0.5310345943,0.0627681648,-0.0303215253,-0.1854864298,-0.2004598799,0.3179590556,-0.2802554746,-0.7283046921,1.1253054623,-1.3041087332,-1.062063455,0.1342866198,1.1262136711,-0.2129060438,0.3377843681,0.4143219941,0.8492496821,0.7441008018,0.0234366398,-0.5690560219,0.4507713538,0.8569751088,0.5732645372,-0.020921994,-3.5857789201,0.9630290963,-0.0071476169,-0.4245403492,0.0216466786,-1.2145145377,-0.7462819825,0.3927503941,-1.1044870676,-0.3188762476,0.6176428706,0.6100413508,0.1204332257,-0.5802305101,-0.4088730505,0.0350977863,-0.2830403532,0.1524504474,0.1203595878,-1.3290160097,-0.1806348509,0.3938087142,-0.1187847497,0.6712906871,-0.2676494758,-0.2817507256,0.3520272319,1.1901346552,-0.4421004206,-0.5596639126,2.0912402634,0.7544385003,0.6435733381,-0.7133320769,0.6441585565,0.5778048792,0.7554333985,-0.2380653045,0.5711374736,0.2344665534,0.6599879288,-2.7561280884,0.8379021737,0.1597081024,-0.8756942913,-0.4663326459,-0.4350014313,-0.6069057284,1.2861589797,0.7900794181,0.2102859339,1.1500084949,0.0770468864,-0.0305156004,-0.0880343017,-1.331241975,-0.2171880582,-0.2518694295,0.6202073852,-1.1209353143,0.0083181573,0.3419344787,-0.7288560812,0.4361386382,-1.3064468479,-0.7745616834,0.9599364243,0.2799615558,0.5181446644,-0.5131941523,0.2959723922,-1.1356095028,-0.4753677396,-0.0966780353,0.5148173297,0.2587042172,-0.7410655238,-0.7444737569,-0.0120809284,0.0676350827,-0.3292612606,-0.3556414676,0.6873811254,-0.4146757557,-0.4451909433,0.0725941522,0.0169024244,1.9707815455,1.2362381538,0.7034033967,-0.664664453,-0.4674622369,0.305071924,-0.2852657657,-0.7864744821,0.65980041,-0.0996625412,-0.4280310564,-0.6874763676,-0.3835676672,2.8870480052,0.3224647368,-0.6459668708,-1.615904569,0.7467649953,0.7772044494,-0.4087113185,-0.5670656524,1.0131490032,-0.4926629819,1.1967888347,-1.0815489542,0.7140157801,0.2094300174,1.1072011938,0.9701706041,-0.2733462338,-1.3344395112,0.5366304948,-0.0332295479,0.8652916004,0.0158096427,1.1555623943,-0.2510132928,0.1211753503,-0.8308050162,-0.4274914349,-0.6128446281,0.8756932757,-1.6310293725,-0.6588398887,-2.049781785,0.5469299754,0.6297176398,1.1734982535,0.4298123541,1.8119421229,0.4370883709,1.1162359904,1.194604249,0.2707635688,0.0504646719,-0.4737323099,-0.4492236678,-0.6540324337,-0.8115426699,-0.1485747418,-0.9637805225,-0.7595782472,-1.5172803897,-0.2010755233,-0.3556492586,-0.7227263509,-2.2558762077,-0.5454789823,0.2066088614,0.0589041624,0.2964775174,-0.1657924106,-0.5571059636,0.6786886472,0.5044422239,1.0530223027,-0.2669321881,0.32290151,1.016444105,-0.3558548,-1.0622623178,0.0823212417,1.6831507925,-0.1939157925,1.6422864436,0.4173560729,-0.1652472075,-0.0531518535,0.368875765,0.5436016658,-0.7248497507,0.7343324314,-0.1413677728,0.1487216113,1.5036087572,0.4116894947,-0.8611761793,0.8149758274,0.3511906,-0.0086821266,-0.5179457977,0.2902246841,0.5321320796,-0.8805909401,0.2319675612,-0.3593536182,0.0864896183,0.7528836658,0.0639248143,1.1166974927,0.5297649577,-1.0642442066,0.7441960911,1.7129885577,0.0984758188,-0.2960096402,1.0440460139,-0.5343109257,-0.5421532373,-0.3204119829,-0.1284565581,-0.4764256199,0.8638871339,1.1245514811,0.5652778958,-0.6114883261,0.1098499412,-0.2229588687,0.3061320775,0.0776472312,0.7637542584,-0.3256000903,1.3276363571
   -0.4099879697,0.4984870589,-0.0802459661,-2.3303628677,0.4053082215,0.6897536168,1.0494055565,-1.633296485,0.9034391086,-0.0793121655,0.3181575661,-0.2713701595,1.4084176535,1.3812194813,-0.2948653499,-0.5219318495,1.784721174,0.279871951,-0.9704976398,-0.317793125,0.4057143807,-0.1723236843,-0.5001446039,0.5135290748,1.1072439342,-0.105305308,0.0177483115,0.9082449517,-0.4025363833,0.3977540629,0.1612294391,0.1770063215,0.8029725232,-0.3978307959,0.0570825558,0.0258464369,-0.2199238556,0.1360096273,-0.5480240158,0.3159221663,0.9116304411,0.7189442974,-0.6137381856,0.14572407,0.5296747614,-0.4141424561,1.1228314932,-0.3346526648,-2.5690427958,0.5369138658,-0.5139205701,1.2122407259,-0.3878048406,-0.3238995561,-0.0280877393,0.4747829543,0.3628220346,-0.2905827731,-0.8653996472,0.3093887414,-0.9129842543,0.1428344081,0.7434298124,-0.4365215368,-0.5014915356,0.741055523,-0.2913130037,-0.5493142489,0.1302241177,-1.8341632399,-0.304590277,0.650571994,-0.4086997908,0.7425177807,0.2529065427,0.1877913976,-0.7169605406,0.9759534017,1.0992172302,-0.2873286923,0.3583220392,-1.3739989422,0.0642259422,1.2269853665,0.9599837798,0.0625955223,0.8239692225,-2.0307697247,-0.0151735241,-1.3645238731,-0.5166616654,0.729907599,0.3310607321,0.6022969099,0.1319909132,0.062401317,0.4372204364,0.1710363215,0.4902409609,0.1668063812,0.4884779632,1.0418786636,-0.7452427114,1.0325335794,0.2363433924,0.3217348832,1.3994671736,0.5763415634,0.5420560477,-0.4214159979,0.2455158852,0.1316036887,-0.7245357743,-0.5953576695,-0.9437558851,-0.4608388046,-0.1825908078,-0.3775675916,1.0265374588,0.0475791416,0.9379322427,-0.914234121,-1.0255399185,-0.6424948606,0.720340852,-0.1434606179,0.4392398465,0.3012406025,0.9686215632,-0.2233756693,0.4087293921,-1.7849122154,0.3723510432,0.6248446769,-0.7283475058,0.3467839619,0.1998737796,-0.7407323821,0.2683089013,-1.0079442271,-0.6056129567,0.7000438652,-0.7262125969,0.8919810371,0.5073154035,0.9406387385,0.2840271759,0.9710399222,0.6088854696,0.6737387795,1.0964211161,-0.741961657,0.9639050047,-0.8164298478,0.9615649843,-2.8522830291,-0.6001268261,-0.2775353399,-0.6167266099,-0.4500651632,0.7883072297,-0.031996907,0.5477514532,0.5229442414,-0.1044210817,-1.1296647442,-1.3919133069,-1.0106688609,0.0729802327,1.9475896503,-0.4918111971,0.7633521374,-2.0914192053,0.0335420014,-1.0410650887,0.0641157109,-0.0207573171,-1.4566236796,-0.2046283044,-0.8799270206,-0.4062460715,-1.5310638613,-0.5282977052,0.210095083,-1.2936313629,1.3173813817,3.5620322657,0.4120848944,-0.4124871392,-0.4592863113,0.8904520763,-0.5840474911,-0.4394973946,-0.1252619086,0.2854488943,0.198473273,-0.4997818516,-0.8658009063,0.3177959253,-2.0867220965,0.375945071,0.2239838765,0.251944741,-0.0112143152,0.9421748698,-1.8808701565,-0.6226164047,0.5833709719,0.7442911769,0.9487965339,1.3461527664,-0.0514834049,-0.5711452893,-0.7104789523,1.029453869,-0.819448199,1.0929394901,0.5463229167,0.465004366,0.6146439971,0.1917389281,0.3472406456,2.2812186219,-0.3597657217,1.7566206977,0.599399721,-0.8946455307,1.3212598528,-1.5211886929,-0.1031730961,-0.7939638019,0.6969995468,-0.0669512246,2.4540647913,-0.8532248795,-0.1269459336,-1.9991446403,2.0992522828,0.6367436836,-1.8725115788,-0.6795645613,0.5637180401,0.7262806894,0.2312167145,-0.3115259704,0.7404108698,0.641241334,-0.1251255458,-0.5759743233,-0.5157769307,0.4238322459,-0.6412107726,-0.7087671773,-0.6173443738,0.3404333895,-0.0776723915,0.5314360097,-0.6627096143,-0.1559891246,0.4883912379,0.6173805941,0.6496159703,-0.6699586738,-1.0356922115,0.4223357983,-0.6806174834,0.8328974758,-0.6292558603,-1.1173198047,-0.5756460196,0.3549468452,-0.6840966466,-0.6036845002,1.2748081874,1.1105468063,0.6630106843,0.7033243002,-0.821861119,0.7628740061,1.3418417156,0.4554104293,0.3832901006,-0.8571476273,0.4483801249,0.8860832875,-1.1332003449,-0.5245413514,-0.4924256283,0.5908889641,0.4913850278,0.8104531492,-0.3104983765,1.099888638,-1.9678080201,-0.0854637996,-0.7828325734,-0.3237279084,0.1142371769,-0.3892460611,1.1477451759,0.5450559468,-0.8273522681,-0.0626221399,-0.9416579925,-0.0849711684,-0.5911850947,-0.0800706558,-1.3010427576,-0.0344281239,-0.4547792062,-5.2282243258,-0.2537209921,-0.3937104654,-0.4908731617,-0.8045303431,0.6210818076,0.7781661041,0.0204915397,-0.472756369,-0.446207648,-0.696032393,0.412562742,0.5926170233,0.2120135526,0.9160069197,0.446476697,1.9030868053,1.0323252222,0.457123774,0.0715508064,0.0083034104,0.6593879298,0.604135462,-0.4667715283,0.5256284987,-0.2138148648,3.1325710906,-0.0819112247,0.611205182,0.9539392539,-0.1793759643,-0.1175072616,0.4373102635,-1.1313082111,0.6185614654,0.347757657,-0.4008997407,0.9774574843,-0.5751237784,-0.2680981953,0.3257520653,0.4006605315,0.5173608784,-2.1720909272,0.3823061089,2.1100048351,-1.1580249912,-0.3362718615,-0.8446158995,0.7467180408,0.253082532,0.4125953282,0.9154020123,-0.1220237716,-0.7922384826,0.0479519781,-0.6181553639,-0.4276926422,0.448578413,-1.2762585751,1.3158111442,-1.6734656928,0.1108721982,0.6451832201,-0.4725708481,-0.6443054722,1.8220975263,-0.7595055209,-0.8779390315,-0.4352564168,-0.8618647014,-0.5833622123,1.1761503844,2.3820793087,0.1412034548,-0.7960599177,-0.4967767821,0.8048090508,0.41789129,-0.106502156,0.5202941661,0.9527967222,-0.4538979155,0.6075752501,-1.7106848969,1.1485078758,-0.0464983916,-0.2107111332,0.7658090204,-1.4267841515,0.4992121881,0.3361034322,-0.3348993798,0.4666429544,-2.7493712181,0.6074786978,0.4298972802,0.0298914867,-1.4356154438,0.5979021808,0.5584341379,-0.6475243848,0.0310784819,-0.6164800115,-0.3368279762,0.0317213749,0.7706933024,-0.7269207697,-0.8884153311,0.8880481832,0.2512359888,0.1292905732,0.5080996354,-0.6035162925,1.0063246468,0.7618308006,-0.4916889803,0.5616248307,-1.237420322,0.1219280543,-0.4448424033,0.5836715365,0.0015470231,-0.7282090873,-2.2888848137,-0.800779471,-0.7998150686,0.05932597,0.0022865939,0.1936173506,-0.0793490109,-0.2726256498,-0.320348493,-0.6448025281,-1.4444688479,0.1370828997,-1.6050156,0.2393826624,-1.9916427071,-0.6138409939,-0.5556703378,-0.7107172025,0.4448836025,-0.3557749974,1.083660042,1.6164923072,0.5837236758,0.4130903394,1.3866331373,0.6293428906,-0.1677223096,-0.909019395,-0.8681393644,-0.1328249808,0.6577143061,1.296620156,0.8048864074,0.6726314599,0.1307091734,1.0365768353,0.2712318906,-1.13164312,0.4034133744,0.4314812552,-0.4101093736,0.8176804327,0.0182684491,0.1059392179,0.5624702775,0.2830782925,0.6235237205,0.2984290723,-0.0247636328,-0.2209284833,-0.4337435292,0.697090269,0.4247235802,0.8319305174,-0.4598712704,-2.245593422,-1.0951455673,-0.3638386344,0.7021383511,-1.644246814,-1.4141043082,-0.9397517958,-0.1111020881,1.8933630443,-0.974148113,0.5994175504,0.3256455343,0.427368408,-0.6674114376,3.1470912188,0.5797018816,-0.0138094613,0.5343147975,0.2396834928,-0.8467818313,-0.7008123813,-0.0700205477,0.1094349442,-0.9897347822,0.3912278458,0.7545041672,1.3473535408,0.3659421256,0.7981611759,3.2831649124,0.4576817329,-0.3690006492,2.4041394748,0.0474398171,-0.0085937172,0.0032241771,-0.0056553671,-0.4240964306,4.3275846352,-1.8630416596,-1.0502903513,0.3909777059,1.3439530175,-0.0426111433,-0.1967348319,-0.1486553863,0.4638834659,0.3377985029,0.9627045853,0.8628370586,-1.2176561532,1.7844657174,-0.0304877481,-0.7497564017,0.3394272326,0.7801876542,-0.6057439302,-3.1402522622,-0.2116532899,-0.3843856024,-0.1575580596,0.5613359279,0.8186478959,0.0306728677,0.7527612017,-0.3057895589,-0.7840970344,0.0488560973,0.1138505812,0.5857454834,0.095430697,-0.2391952217,-0.4966245274,-0.0743638242,0.0039049363,0.8566923657,-0.5527477271,-0.1725190359,1.3341765998,-0.8013887746,1.2438904565,-0.4802860858,-0.9163808793,0.4614355915,-0.2055286161,-0.1301152116,0.7073483394,0.1954826806,-0.2056163974,0.5154859951,0.6669841526,-1.1469901786,-0.4577864664,-2.3034060924,-0.3843022256,-0.425431933,-0.3805275834,0.5828621862,-0.6136503855,-0.0841069166,0.0463968664,0.7740329376,-0.7223832157,-0.8512484655,-0.2908378545,-1.3204834688,-0.0035321891,1.0129778779,0.9272069246,-0.0260297021,0.7165858288,0.4975352204,0.2658586554,-0.745229147,-0.0510426765,-1.551489429,0.1781993709,0.4665504898,0.5654237224,0.1975791964,-0.1774134706,-0.513063461,0.6635301414,1.1522909626,0.3437602035,-0.2124853211,-0.6045135393,-1.1633934329,0.2179225166,1.0219657887,1.2249091881,-0.2648103193,-1.6265351175,-0.8941015446,0.8581796734,-1.0265900969,1.0027068406,-2.024871409,0.7587608045,1.7322734093,0.2742851542,0.3719943463,-0.5354542581,-1.4451015966,0.2280287106,0.770734137,0.1846823982,0.2787630121,-0.6251857935,-1.0837493202,0.8556616269,-0.2799775918,-0.5080873382,-0.2626411546,-1.5171924239,0.5603142564,3.805422344,-0.8084146455,0.8463973841,1.4126385481,-0.6642170171,-0.5459431447,0.0975950678,-0.1439683005,-0.8076260542,0.8253904467,0.8780522657,1.0744721801,0.6331841625,0.2113001517,-0.4123746097,-0.6188688547,5.0537175195,-0.5381533148,0.6030695698,-0.0362666034,-1.0601683392,-0.2882420285,-0.4671514586,-0.1338126852,-0.0665602751,-0.7546945684,0.1100889981,1.1042017421,-0.6885276136,-0.5530785013,-0.0398971837,0.2198461292,0.4477376909,-0.6373789727,0.4381501476,0.6321115728,0.4743290995,-0.1339176558,0.1109595769,2.1618194428,-0.9960049593,-0.944959735,0.970159422,-0.7462419492,-0.0444450244,0.3922843478,-1.4534997355,1.1379962853,4.6748589407,-0.6298671629,0.5786711589,-0.9761169363,-1.903133977,-0.8948934363,-1.1232784311,0.0476977939,-0.5050163919,-0.7021422115,-1.7791632082,-1.9847303427,0.149564972,2.1088735662,-0.1492143279,-0.0128316099,-0.6111026561,1.2348400686,1.682436414,-0.4146795189,0.9514416388,0.0568691562,0.8729173522,-0.2270763691,-0.179390902,-1.1195279238,0.3164571234,-0.3478084312,0.3694738999,0.1952327234,-0.3714702195,-1.1696244777,0.8535312454,-0.7839993946,0.8398429624,0.2642330065,1.3014864942,0.029717812,-0.4119299718,-0.5004143431,-0.8615081145,0.4681539255,-1.7574591355,0.9954648794,3.0686098547,0.6122019501,-0.9279647174,-0.0380407802,0.8424809379,0.887429812,-0.2042266013,-0.8072987295,-1.1475902085,-1.1135795547,-0.4371365144,0.4660573134,-0.1813651132,-0.3783858155,0.2995769203,-0.5828351445,0.7939634044,-0.5268311525,-0.1838250086,0.6513776222,0.5329681652,-0.2629909937,0.5388273308,-1.2362665745,0.6134654722,-0.6630647607,0.1037588305,-0.229021731,-1.0305615451,0.6306551802,0.6358094087,-0.751686042,-1.5556839792,0.0771437158,0.7256194957,-1.0224424649,0.6645924321,2.7034477812,0.7643541432,0.474723008,-0.4564011826,-1.0283353408,1.2659234656,-0.8949541385,-0.2279074519,-0.5809156286,0.6172917418,0.1176166455,0.1762926519,0.2835018802,-0.658959161,-0.2336056833,0.8277940497,0.6439419353,0.3485097168,-0.4939938973,0.1395666908,-0.3176175635,0.0341238564,-0.8882756378,0.8467576174,-0.5997440551,-0.221557724,0.0045606062,-0.9880676664,-0.3136443273,0.9749692865,0.0651544496,-0.0438926487,0.880764411,-0.2457425792,-0.712802735,-0.3001235759,-0.4685178857,1.028253593,0.2702199292,-1.1312110354,0.5397898619,0.5121015472,0.5218006766,-0.8309258739,-0.5617458103,-3.8577261026,0.1483703399,-0.5162759808,-0.2048080273,1.4155269438,0.5564082996,0.2799316022,0.6296451916,-0.2780277224,0.9126887605,-0.3498892866,-0.4079512424,0.4011166318,-0.4474263603,0.3113110455,1.0292820453,0.0872997863,0.7580244401,-0.304353662,0.4770131429,0.4516926525,-1.0330333704,-0.8737450285,-0.3261321465,-0.2351966921,-0.0594501872,0.5834932221,0.6564598824,0.878737629,0.2279388345,-0.1310604867,1.0508928493,0.8314063259,-0.9765954151,-1.5228250824,-0.5614342915,1.5366531087,0.5679153281,-0.5606379498,-0.5930725452,0.05888715,-0.2034210594,0.0298322267,-0.4161895162,0.5956872067,-0.2312258396,-0.7438886006,0.1184855858,0.3485176224,1.1906254945,-0.313502986,-1.1562028619,-2.4985672775,-0.2133444989,-0.756949984,-0.8975412658,0.3572357547,-0.6561067785,-0.3644866185,-1.5972058887,-0.1443653981,-1.0219235123,-0.5992543754,0.4642141484,0.2270922949,0.4646076869,0.4464812062,-0.0251278984,0.7924054167,0.3117397412,-0.0293981233,0.192763662,-1.1743892687,0.0110956,0.0158475628,0.0069340908,-0.8407956724,-0.1581099943,-0.7674441403,0.2859259773,-0.5910336033,-0.4731030655,0.1076046412,0.5881667165,0.0619671639,-0.2373997954,0.2219306955,-0.1674937606,-0.4830033475,-0.5640966491,1.237531353,-0.9452879058,-0.7223056477,0.5148699049,0.6969315973,1.1922162836,-0.738394251,-0.1556828379,1.2419275021,0.6521035386,0.6249940408,-0.486245865,0.1597702092,0.0789634409,-0.3644505816,-1.316562225,-0.1180951575,0.8315606327,-0.1371935224,-1.1540353645,-0.6226135643,-0.9280553638,-0.4038459968,0.200241746,-0.8617938319,-0.0935630486,0.5048290824,0.1306068745,-0.1017386373,-0.0275301148,-4.8959667697,0.4718294631,-0.7786835216,-0.2250972384,-0.5127007116,-0.8619952963,1.52644087,-0.2526864102,-1.4567372642,0.2306813484,-0.0351635952,-1.4296002977,0.7866798932,0.2451251327,-0.8232212733,0.5012006621,0.7988935311,-0.0694282618,-0.7541464824,3.2131963967,-0.1519982882,0.2967836206,0.1759915484,0.5550710977,0.1817752071,0.3529742451,0.0732317997,-0.7930012757,-1.3740100625,-0.9137657503,-0.4549303553,-0.6754660434,1.3882406232,-0.0769379892,-0.688967793,0.1095414848,0.8192111292,0.3990824934,0.3487518697,-0.0783092605,0.3951210016,-1.2865420479,0.4289096411,0.6370336903,0.8655097618,0.7559273184,-0.4193212305,-0.9782580199,1.031815987,0.1679192512,0.9720739761,-0.6230975607,0.3202133867,0.4895284985,0.1852907078,0.2150468235,0.8464432333,0.8536875456,1.4589673289,0.0364280244,1.2739051353,0.3061974506,0.061771253,-0.3587491061,-0.4724446342,-0.3752609196,0.5499767631,0.2558051486,-0.3240238533,0.0737828085,-0.4544668286,1.1208397919,0.7049996796,0.5506137758,-1.015835898,0.2147473864,0.441298028,-0.0605138233,-0.3624461115,-0.8614088514,-0.6818590675,-0.3693105715,-0.1805711979,-0.1724196786,0.4357262379,0.3104812256,1.2814119353,0.3153192675,0.2900168527,0.8786674408,0.9126814541,1.0897489786,0.828346337,0.6216374234,-0.4304465199,0.3819539819,-0.9081037225,-0.2206514675,-0.3256559035,0.208791605,-0.6451140579,0.4899079574,1.2768942236,-0.2512829727,0.8210065893,0.3643399187,-0.5453390703,-0.2048120905,-0.5984298636,-0.7238112407,0.2076847301,1.934135804,0.708725059,-0.4036551311,-0.3345364579,-1.4855886328,0.4225689364,1.4453658641,0.0353901443,-0.2740483676,0.5069371209,0.2481925755,-0.3256091479,-0.3424963858,0.2437661013,-0.1368079311,-0.7148833104,0.7238087371,3.7665552899,-1.025464844,-0.273929891,0.596231212,-0.3025374441,-1.450199937,-1.0564557193,0.7657897342,-0.6139706007,-0.0477455924,0.0094962511,0.0360896435,0.5438575627,0.2164283584,-0.2391097425,-0.3124242419,-0.0288385272,-1.0869945398,-0.0049300862,-1.342747794,0.1256067464,0.4260204146,0.2270274744,0.9101704603,0.1036307205,1.6479045879,0.6239750864,0.342569917,-0.3309713558,-2.6320054184,-0.5629448921,-0.2819263569,0.2735231009,0.0682832575,0.8409331244,0.8007044328,-0.5450329362,-0.6224645795,-0.5949026355,0.7883564116,-0.0783405792,0.4840895666,0.6321097274,0.5278498318,-0.1476465541,4.4980853015,0.8270231749,1.0507499502,0.5521259087,0.0341786397,-0.3355225434,0.4800907654,-0.7617873059,-0.5275324857,0.4391829258,-0.5842851134,0.5262227037,-0.3828697283,-0.4346533231,0.7803777879,-0.4102209384,0.4681603672,1.4869891308,0.3180332537,0.116709235,0.2218775052,-0.9551638609,0.1217211195,0.2487165387,0.4674005593,-0.2427449193,-0.8644220315,-0.8385786145,1.0233506201,-0.1735824751,-0.0380640968,-1.3958906118,-1.5409841152,0.0534524732,0.8604131673,-1.369906923,-1.3971010644,0.7173413004,-0.1568790576,-0.0968672117,0.2900973041,1.3838271516,-1.0174129382,-4.8139812829,-0.3859761113,0.5995166349,-1.9402540288,2.0172883333,0.40305466,0.6199728827,0.4566824966,0.9025331706,1.7797683322,0.3586882952,-0.5090697396,-0.0583261677,-1.884116967,-1.2020896062,1.6395659263,-0.2812907451,0.7660698186,-1.5892107059,1.0145383554,0.5212007394,0.9433149594,-0.0247859481,-0.1616429394,0.5105353039,-0.63463236,0.4937327041,-0.404728035,0.9527189693,-0.4699739853,-0.9380812948,0.22540026,0.0878905925,0.4957940452,-0.8989679571,0.4782608074,0.6478109568,-0.4897753715,0.0186356205,-1.0159541079,-0.2169843306,-0.6327081297,-0.3724142283,0.317663219,-0.6831616225,1.2289620187,-0.5802855692,-1.1878730359,0.157613051,0.2980380393,0.3791340682,-0.4370791827,-0.3116796852,-0.6823824711,0.7078137504,1.3211383784,0.3028443136,1.1723858421,0.473517185,-1.2941357995,-0.0644846157,0.3158234476,0.8354077356,0.57594713,0.2463883017,0.1014186302,0.3492180936,-0.4900157884,0.839698935,1.0847927112,0.6034493001,0.5726430594,-0.5947349379,0.4439778103,2.2627280374,0.2529638371,0.5029365594,0.2420411075,0.6475131861,-0.8161060717,-0.0047587662,0.2288297208,0.9431562763,0.5836032224,0.2292379608,-0.6260212216,1.5512312787,0.8624110218,-0.8884615128,0.1657752557,-1.1388345762,0.9189894595,-0.6230354967,-0.2501023863,-0.1042983181,1.8601680714,1.2153890977,-0.5279123901,0.6409066806,0.4197807329,-0.7537280963,1.0711344868,-0.0288816677,0.6967751017,0.875543255,0.4882212573,-0.0405146845,-0.1128206303,-0.2283694791,-0.7855723356,-0.2128641534,-0.6917214903,1.0239632023,0.3434639786,-0.1580197183,-0.1519435835,-0.8965989097,0.7634199821,-0.4817506251,-0.5317758546,0.1421586579,0.0506840927,-0.6112647691,0.6907126172,0.9802166217,-0.5463891803,0.3912238169,0.8683568395,1.0944022044,0.243329014,0.7314388408,0.9055255472,0.774832373,-1.5817265537,0.6247036676,-0.6521645737,-0.7135752539,0.0557177624,-0.0384192762,-0.4507656419,-1.4293380711,-0.5716096106,-1.5913525766,1.0555746324,0.6477081333,-0.7006066574,1.216797734,-0.1984847921,-1.1495749329,0.7017340646,0.6354042403,0.0950446602,-3.0264398153,0.615988417,0.1110056806,0.997988418,-0.9018479131,0.0379549588,0.9732336759,0.6607450611,0.698697078,-0.7996190301,0.0256599179,0.416061004,-1.2348972063,0.8490069026,-0.1186928388,1.077805175,-0.3557872901,0.1969998386,-0.4441816748,0.946963148,-0.4552985913,0.5040226182,0.6781750791,0.6673089569,-0.7008734481,-0.6813123021,-0.1929150586,-0.0826704173,-0.3355149852,-0.3368035757,-0.7512994789,-0.7934082777,0.806710287,0.1764763032,0.2219260624,-0.1205757531,-1.2913854466,-0.2876248481,-1.1941240316,-1.1308154269,0.1248686834,-0.4129466955,0.2476307232,2.2147027084,-0.1682420373,-0.6319327307,0.3061008659,-0.6321282068,-2.815768959,-0.4874093052,-0.1333024716,-0.7961317009,0.6138371067,1.3179584079,2.2531801064,-0.2089455768,0.3921618623,1.1143851557,0.7771728349,0.3541136779,0.4323090902,-0.4096670095,-0.5617611959,1.4671215342,0.2907841954,0.7145281289,0.5024249128,-2.6676555401,0.2766217269,1.3779868273,-0.3523421693,-0.4501570137,-1.01264984,0.5282943733,-0.6790985353,-0.8937407892,-0.5470281673,0.4783832929,0.214554713,-0.7947960605,0.6068158859,-0.1331616468,-0.4804505094,-0.0297731583,-0.2847080918,1.0075534955,-0.606656128,-0.2922807175,4.9074667077,-0.1626218781,-1.0596430136,-0.4869513007,0.3248577487,-0.5480820658,0.5374402444,-0.1651017692,-0.1366803906,1.562172786,1.0583985118,0.9978221548,-0.973592315,-0.6607302619,1.0840875768,0.7880279741,-0.091333839,0.6004244768,-0.6382712041,0.3400349507,-0.7521006295,0.4488408713,-0.4331923232,0.260503485,-0.4860758913,-1.6601991814,0.3954239067,-0.0980809741,1.2112922835,0.6558858877,0.5563752919,-0.4357056805,-1.0326736504,-1.5218127767,-0.9177134828,-0.5681442073,-1.6527236946,0.7977685044,0.5472900052,0.629264026,-0.1868592477,0.2095346859,-0.1839745401,0.6661107241,-1.4262190052,0.9605320999,0.2384828603,1.2307069668,0.3476207798,-0.6627707554,-0.1356100229,-0.589866754,0.0083868612,-1.7694634212,1.0319090353,0.874723842,-0.3902405152,0.0762769871,-0.19435449,0.4647367694,0.7531699941,-1.253888804,0.1422307732,0.8813164776,-1.3629069434,1.2103711323,0.1613120944,0.1564768522,0.4331464738,-1.5508134297,-0.4037708793,-0.5733693412,-0.0760077092,0.7465168955,-0.4553769144,0.9758624867,-0.4742479349,-1.8619633271,0.6600136541,-0.4584632251,-1.2390846984,-0.0166173016,-1.1691440608,0.0856293988,-0.1236344387,-1.0300359727,0.9038655218,-0.3982414246,1.668931149,-1.0449770977,2.3746264336,0.2969845645,-0.6451842806,0.445892872,-1.0651889478,-0.6006938756,-0.5015607035,-0.0145155609,-0.0124795175,-0.933266577,-0.7519224562,0.9956162581,-0.4843006495,-2.6819979126,0.1523020173,0.2464668211,-0.5428612839,0.7744812043,7.6796541774,-1.4340899671,0.162236821,-0.2243698256,-0.1933747917,-1.4523134169,-0.0230331541,0.7405198223,1.3257848248,-0.8446708554,-0.51693612,-0.0691914156,-0.5653097414,0.1788732,-0.0169090357,0.2484859995,-0.5946691181,-0.9455746072,0.6367353563,1.4696219595,-0.0986897948,0.7329132331,-0.3782495536,0.2546706156,0.2051604361,-0.618348093,-0.2405288399,0.4974601298,-0.0214273768,-0.2642185394,1.473971977,1.2034801154,-0.5988982037,-0.6425056189,-0.0370800643,-0.3349996877,0.2274415249,-0.3575539863,0.0845253609,0.1161064461,1.6635700499,-0.5783146127,-0.1341560622,-1.078936889,0.7612605513,-0.2223252733,-0.9387627496,0.0187530807,-0.2406204291,-0.259792415,2.3601509592,-0.8772426233,1.024933676,0.6137462891,0.6354102708,0.5068997399,0.2110456633,0.5517561917,0.863899026,-0.4547232594,0.7203867161,-0.7974692678,-0.5235353346,-0.8726716764,0.7352141777,0.0789940516,0.2111054913,-0.4520713933,0.5708289851,0.7263983599,1.1929946648,0.8119143425,1.2455102973,-0.0366372095,-0.049222493,2.3981337729,0.1849935107,-0.9565820205,-1.7158474501,0.3761249488,-0.1068093837,0.8753378955,-0.7790274744,-0.2453743132,-0.0655373739,-0.820544399,-1.0957515619,0.0614555309,0.8195973352,0.7616859898,1.0108945815,-0.2698698097,-0.4563953208,-0.5078339399,-0.5469113567,0.1760774001,0.5815079075,0.1467099135,0.2526090544,0.4994889984,-1.1723382688,-0.0929995991,-0.4715582276,0.1196114793,0.3724995271,-0.4589868571,-0.0172948928,1.4934278038,-0.7019968843,-0.7098134126,-1.0479711366,0.6383973648,0.1280554088,1.5944113711,-0.3548384918,-0.6155797909,-1.7745606476,1.0076475566,0.739227116,0.7458525228,0.1531652476,0.9465377189,-0.2389842386,0.70501533,0.1090711801,1.7417839067,0.3451923399,0.1627342942,-0.7179011758,0.2430057462,0.924412433,-0.9806702657,-0.4085626393,-0.0992285058,0.1616305837,-0.7409405611,-0.1070561532,0.4708911411,-1.6313122,-0.7149130674,0.0244819961,1.4582274941,0.4024375872,0.0130059527,0.3085255746,0.9083721723,0.9630756383,0.1042430817,0.1204751954,-0.4543897239,0.2939356448,-0.2818544754,-0.3847562232,-0.4957105212,-0.7753038077,-0.5138105665,0.3830842167,-0.0514798401,0.1545278609,1.9087162806,-0.5906089562,0.1744957816,-0.6873633757,0.2169728728,-0.7467746984,0.8127999578,-0.6566016611,0.3987511756,0.8044300379,0.1309082369,-0.3219995698,0.5855797204,0.257522289,-1.1276458104,-0.0329049171,-1.1945318618,-0.5291673106,0.9821041812,0.783928709,-0.2042798677,0.2015434082,-0.9036139897,0.8806565916,-0.0538568533,-0.1417023036,0.944174342,-0.8540732196,-1.0653927356,-0.3199014992,0.7847515661,0.3887229618,0.622929486,0.6564381403,0.0116208536,0.5937134534,1.0347209134,0.7212380345,1.1086320907,-0.1004994697,1.0212585755,-0.8697761176,-0.1003218722,0.9651863041,1.4111105388,0.423782873,-0.3641443928,1.382924572,-0.8294801577,-1.7998258829,-0.3281097932,0.4128073896,-0.5569090461,0.6715949842,0.0211173459,0.1855878384,0.7323014248,-0.5666054948,0.2811918444,0.7872532132,1.6860509888,-0.9768750842,-1.001368916,0.0801481317,0.7645477096,-2.6559721551,-0.0320573919,-0.7997695338,0.0133655105,-0.6154132149,-0.1988895575,-0.2859811587,0.0151607195,-0.108492667,0.6628304504,-0.3397666149,-0.6948411051,-1.5419286901,1.1133226444,-0.795603148,0.7601151392,-0.1392548635,-1.3801791806,-0.7540508267,-0.0214338827,0.9891860856,-0.2761455332,0.2774689646,-1.4566713804,0.9898179653,-0.5293499114,-0.0188365009,0.5091919179,-0.8002223541,0.1332533784,-0.3855267778,-0.4645557788,-1.0162805477,1.0664757942,0.2155375146,1.3052038263,0.0275874852,-0.2946696859,-0.3992725544,-1.7484340149,0.0937991494,0.8775422202,0.3117235383,0.3846915821,0.0745352121,0.7669481593,-0.6203032182,-0.216041935,1.7844134855,-0.5380258083,-0.942686931,0.4792099965,-0.2986809545,-0.4512048008,0.10027814,-0.243643134,-1.7666696661,-0.678790818,0.5702467061,-2.881782216,-1.3949252357,-0.4944387767,0.8646808061,-0.4785768366,0.0781467581,0.8598972981,-0.5321309178,0.329463512,-0.1642690237,2.3119108274,0.4077957067,-0.286630111,0.7080351488,0.4931282616,1.4376884192,0.3440103785,1.6309363478,-0.1688929013,0.2357852857,-0.2009463488,-0.6401821594,-0.6562982019,-1.6610219247,0.9056066483,-0.9067007073,-0.9948826833,-0.1245486348,-0.4372515092,1.1402398954,0.9236249705,-0.6432411394,0.5729351415,-0.8999563245,0.4914824212,0.7609692232,-0.3812092731,-0.1956422163,0.989219475,0.1805331288,-0.1203392689,0.295147172,-0.1460999538,1.5213568259,-0.4597615934,0.4875016215,1.1776845669,-0.6325310793,0.5728636625,-2.1413788939,1.4388509701,0.1681304982,0.0631672809,0.6146301265,1.0057876844,-0.6346605531,-0.9180887542,0.2269222188,-0.4542120939,-1.8758834193,-1.357849138,-0.5202915723,0.0144386832,-0.3650304712,-0.0885867277,-0.9798288474,0.7110672877,0.5090418003,0.0769446184,0.9192166009,-0.3045170071,-0.6521303143,-0.2564988196,0.553941551,-0.8640976325,-0.5845484809,0.7642964277,0.5762557938,1.3798725593,-0.8862102221,0.09682689,-0.3829653894,0.1114408602,0.8007979292,0.4386167239,-0.3258272195,-1.0586931403,-2.351696779,-2.551934881,0.9175583645,0.2565265205,0.9121074318,0.0962469637,-0.4409009903,-0.2506818849,1.0897639352,0.2467737005,-0.1348052623,-0.4420806912,0.3125487381,0.7164555053,0.3217123361,-1.6052195793,-1.2859733913,-2.4689539944,-1.1362048533,0.2424103356,-0.4718328958,-0.0298637569,-0.4082506958,2.0722666219,-0.2157812032,-0.3609150611,0.0775683318,-3.3523105753,-0.2458524272,-0.8160243909,0.0574186768,1.3528663489,-0.9666485344,0.04777948,-0.2969337991,0.8495674692,0.4106685972,-0.4171862436,0.5576323147,0.1462992644,-0.597261195,-0.0634835961,0.6630202193,-0.2262073112,-0.4957287258,-0.7967714403,-0.3329965738,0.6033256562,-0.8521128529,-0.8619983297,-3.3392598273,-0.1684965825,0.8078495588,-0.8526451139,-0.8229897264,0.0423522682,0.9465870169,2.3176389174,-0.8339508294,0.6378301553,0.3294596185,-0.0521101736,0.9473743416,0.0933763779,-0.0375762121,0.0790128195,-0.3301151962,0.4092722019,-0.8850624083,0.5063887056,-0.3314171458,0.7023832147,0.5430347965,-0.0102029753,0.7983629804,0.6993357907,0.4092317705,0.0497374058,0.6013473743,-0.2752913333,1.2791310397,-0.7151063624,-0.6166818736,-0.7182915027,0.1617035822,0.7441974774,-0.6939664783,-0.2401636178,-0.7958108486,1.0671930976,-2.5074503352,0.5407634875,-0.640597597,0.842314442,-0.7366544379,1.0320552715,0.5087034168,0.1129103895,-0.678911877,0.4363752988,0.3025163384,-0.211802503,0.0985324293,-1.0129155417,0.5385652483,-0.4733564547,-0.2704564333,-0.2409667154,0.5592700839,-0.3035808623,-0.5184361554,0.8093123233,0.9716456372,-0.2180135537,0.1298183067,0.9614701478,0.2968161563,0.2940413641,1.1712667996,-0.9234684317,0.8651797136,-1.3484597225,0.8895902699,0.8096358489,0.8784778374,-0.7141311189,-0.1027363335,0.7390644059,-0.6521664718,0.1584957822,-0.4373406617,0.7491159655,0.0689569797,0.432651158,-0.7430379306,-0.4128442001,-0.2738419976,-0.0633655541,-0.8122546713,-1.0155145089,-0.3997389393,0.3367542227,-0.1864303232,-0.8480264746,0.9816261195,-1.6770189885,-0.7069815249,-0.0048291276,-0.4955254311,-0.002413675,0.3438295716,-0.3623669012,-0.4482619582,0.6728689203,1.0285702477,0.4584912283,0.5185116963,0.8259257167,0.3344785552,-0.2374811351,0.7811974636,-0.9444142226,-0.0469796788,-1.0117289695,-1.319951348,0.8087490579,-0.6405391522,0.7633913093,-0.7942998286,1.4576881775,-0.7847418532,-0.7263836001,-1.631279836,0.1314152719,-0.0102747592
   -0.0608176006,-0.3906399988,0.2825052788,0.0418910487,-0.7969102901,-0.5771027568,-0.9143442172,-1.2474793562,-0.0334130461,0.734780535,-0.8650921217,0.639537453,0.7938235047,0.2116549947,0.4047307241,0.0822161371,0.7097847689,0.4095547056,-1.4390835924,-0.0118972462,-0.6198336745,-0.6467451484,0.4524704339,-0.7071921808,0.9196872066,-0.0750284213,0.5885614287,0.8171023502,0.5055512639,0.5339979392,-0.093198894,0.9172870087,-0.1006873729,0.0717186525,-1.470083209,-0.3211964697,-0.5395342316,-0.7771420855,-0.7888912884,0.4607050611,-0.3959903227,-0.7092813033,-0.3865476222,-0.4580163688,-0.0105901703,0.6674741634,0.0977906867,-1.0086572792,0.9338995988,0.3434068106,-0.5893552928,0.1129273074,-0.9750073035,0.7214800707,0.5970472535,-0.5658566584,0.0156438181,-0.5271478587,0.9380711168,-0.0599391419,-0.389297932,-0.1896134082,0.9568979862,0.3976079431,0.6933748597,-0.4893402964,-0.2845563155,0.2998839673,-0.6425563696,-1.2654200884,-2.9711095191,-0.4629146109,0.0958756061,-0.4988495339,0.5193417069,-0.3650757185,0.9347638763,-0.7383349306,-2.7560827336,-0.5512846942,0.438774324,-0.1806183999,-0.5894200294,-0.5965160139,-0.5440402397,0.2013115778,-2.3448232457,0.0853334287,0.2247934427,0.6447428221,-0.964018903,0.2183150668,0.9629685621,0.6608716586,0.2492472398,-0.9216289563,-0.7195424082,0.1670809188,-0.3467345457,0.0111717038,-0.2189675557,0.6042766314,-0.9413453643,0.4607771609,-0.4736130729,0.7402059675,-0.887830303,0.2736080459,1.2799023158,0.4241612034,0.3986045613,-1.2457945621,-0.3977698588,-0.0236197317,1.2666329899,0.4353492426,-0.810918836,-2.1516922064,-0.1874359747,-0.3277668688,0.335566696,0.6588493301,-0.4384145586,-0.963424946,1.7230459746,-0.6644124606,0.2257446144,1.2560223977,-0.7325636251,0.0139696723,1.3113996732,0.4327210246,0.5565352292,-0.3037643283,0.0223354768,0.7769485134,1.5195576258,-0.5293022612,0.0805390246,-0.4218929597,0.0064166391,-0.3227231203,0.4429465338,1.6164765111,-0.8370309476,0.8415248447,0.0423443439,1.271003055,0.8719016576,-0.5775845743,-0.3616392749,-0.4446392655,0.3131528898,0.4178438152,-0.7240333415,1.3124242377,0.4654731505,-1.2021860133,-0.9124233634,0.1750310253,0.810456581,0.5665612587,-0.0588705124,-0.1658835686,-0.1566598649,-0.2356471008,-0.2951160882,-0.0565518335,-1.4900299349,0.0788867699,1.0378114953,0.348258623,0.6250345503,-2.9752672095,0.396474306,-0.7203457412,-0.5241042028,-1.2536951065,-0.2383830247,0.8076052829,-0.5726573128,0.3083246018,-0.4702974912,0.6723005281,0.1446195358,-0.5194698178,0.5204734538,-0.5035458085,1.1595204503,0.140272794,0.5638433939,-0.5303667027,-0.1942795192,-0.2555176516,-1.9447953441,1.3095576829,-0.0377917946,0.760285914,0.6102655695,-0.2384158316,-0.1888424365,0.5214078742,0.1956514228,-0.0696847239,-1.9183605963,0.5481342613,-0.7041025465,1.3064123127,2.1536434225,-0.4594840209,0.3189621661,-0.1457817526,-0.748713777,0.01441769,0.2067274584,-0.2216615516,2.2131829201,1.0781638627,0.5146883484,0.7261863416,-1.1072666639,-0.7172336698,-0.0092419673,-0.6111547162,1.5585493309,-0.4420480657,1.3677219478,0.7835347847,0.076673764,0.5833926084,-1.1485374908,0.8720578802,-0.1486626655,0.2670473758,-0.8094392118,-1.1956629107,0.5061690614,0.9324322307,0.0329380254,-0.5377262271,0.6846348549,1.1339218942,0.3104396628,0.3520048027,-0.5024399932,0.7460673454,-0.5860134659,0.0444879666,0.025395325,1.1425868024,-2.6696145764,0.3174313576,-0.0577831925,-0.7266408564,-1.6502269124,0.873086708,0.4295315245,-1.1420999269,8.145920218,0.0442899111,0.2439366725,1.4537964576,-0.2903292669,0.6176012669,-0.3903916417,1.0578921032,1.5555146265,-0.0931881308,-1.1062113524,-0.0368982106,0.6114005947,-0.9016062792,-0.0842973132,1.0952662882,0.6650451587,-0.0872275094,-0.802514581,1.1379014112,-0.6840046637,0.2784158655,0.5844731942,-0.419886284,0.1895444625,0.440302924,0.074548508,0.2531323207,0.114867191,0.502859648,-0.9714525253,-0.3890053907,-0.8364103492,-0.7462680616,0.1493865714,0.531624517,1.7205454615,0.1666174734,-0.5113478603,-0.0226100334,0.4060601317,-0.0025993912,0.2127847886,0.7005741873,0.7096874875,-0.3844405946,-0.2618699072,-0.6388194887,-1.0034430947,0.1255762246,0.7917670972,1.0069706191,0.415913662,0.7639333121,0.7913701784,-1.2895973841,-1.266800722,-0.0986419114,0.1176583046,-0.3681360678,0.8074484908,-0.0355640007,0.1161716289,-3.8717784999,0.7036583479,-0.3409036946,-4.7530085489,-0.387276524,-0.1855395199,0.7249913648,-1.290940004,-0.5203722257,-0.7399768352,0.2029053283,0.6158930762,-0.9528271074,0.7238886523,0.0370816896,-0.4133968066,-0.498944233,-0.6035890811,-0.1874922088,0.0167105349,-1.014721512,0.9084252668,-1.5467322553,0.3974125691,-0.3923614363,-0.1299665966,-0.3141087159,-0.4953201768,-0.7659705156,-0.2073570948,0.4172817356,0.344580126,0.0287329162,-0.0385648247,-0.1852412722,0.2292063883,-0.8862222276,0.5001184212,0.3669806564,0.9017596695,5.6774983843,-0.5112754207,0.3797558319,0.9761923897,-0.1871286121,-1.5549326753,1.2060812731,0.6604188803,-0.5901335631,-1.3587779196,0.2243715224,-0.6754767069,1.2227361661,0.5735271789,0.0263819865,-0.9708591108,-1.6355635227,-0.3934416765,-0.4826125182,0.6451301867,0.7427834817,-0.8648481648,0.2430058099,-0.1848870403,0.0400554805,0.0442454369,-0.1604164396,-1.196748892,0.4355363314,0.3946785868,-0.5685720809,-0.0299976573,0.3763836258,-0.7598214667,0.4930920179,-0.4930819876,0.0702409666,-0.9972720033,-0.1864142122,-0.494038057,0.6316931435,0.6773087144,0.1751306138,-1.3035605902,-0.620648985,0.5751254218,-0.3322628306,0.0466097766,-1.2791976859,-0.0938854507,1.4799020173,-0.1148903687,0.747973348,-0.2046912377,0.3958825884,0.2319040048,0.6227057139,0.2345777788,0.866387551,-0.8955406347,0.0192277851,-0.5143415604,-0.1342208536,0.0015432474,-0.8480021746,0.4033573373,0.7981431263,-1.1398554776,0.5586267702,-0.5978780179,0.5928296727,0.1016236031,0.2644640352,0.8160385631,-0.3177320999,-1.969746515,-0.3028472266,-0.5621799329,0.753379718,0.6417144905,0.4586921466,-1.9542165535,0.90383377,-1.1949277596,-0.6061001722,-0.3466337275,-0.4540365544,-1.230769965,-0.1978009702,-0.8894903043,-0.8095108344,0.6437175364,0.1937042824,-0.1938016493,-0.4991098706,-0.5825425744,-0.1671991048,-0.5160848545,-0.4992193717,0.6882038771,0.2521509381,-0.210723955,-1.0173219156,-0.6425730486,0.7845970048,-0.3860026733,0.4841037284,0.1088064219,0.1004072584,0.6245135858,0.5585710591,-0.0221534893,-0.4909661805,-1.0503533208,-0.7506874885,0.4688679691,-0.0387874154,-0.2486440181,-0.0206764308,-0.3604318878,0.0790321948,-1.470611805,-1.8282550813,1.1324153197,0.0399169595,-1.0323065829,-0.255665766,0.2753702814,-0.8113381223,-0.6193864929,-0.0694554632,0.6356942653,0.6680583349,-0.6962642306,-0.720293884,-0.0024507046,0.0546728094,-0.9450491432,0.606952083,0.4856861523,-0.1533388323,-0.4982233695,-0.8503320034,-0.4730069554,-0.2980941615,-0.8941436422,0.9851161925,0.4590157499,-0.4407133682,-0.4404513833,-0.8029558327,0.1512372044,0.6287083122,1.5371961305,-0.1700178973,-0.5519645906,0.8918294576,2.2131954248,-0.8110900509,-0.0159446992,0.4835207999,-1.3480121066,0.6519132506,-0.9142533221,0.9205771847,-0.0931672086,1.2142406466,-0.5299334383,1.0053261075,-0.9423005258,-1.1056563272,0.6067134127,0.9880555526,0.1537145724,-0.8725861846,0.6456740346,0.7970485538,0.6478228059,-1.544877445,0.1012765178,-0.509148006,3.6742624881,0.6126009823,0.0342618384,0.3941393379,0.2754623361,-0.8225411425,-1.6955288317,-0.434122282,-0.7041823546,-0.6645779077,-0.18633644,-0.3524081952,0.4641123063,-0.9277284081,-0.1238892484,-0.6364064577,1.4068161241,2.105941368,0.7885405972,-0.625119572,0.8366546529,-0.9573184443,0.4445189034,0.1526229952,-2.1072430368,-1.837611528,-0.597201315,-0.4105866282,1.2317178754,-0.0071863531,-0.754399834,-0.7852822941,-0.3206795389,-1.5467006173,-1.522600925,2.1690873152,-0.7705821192,1.010520189,0.4233887257,0.5547078345,-0.1285711517,0.442851973,2.4160218954,-0.5717621665,1.0179019495,-0.4637351281,-0.0536252698,-0.2536793918,-0.8442525786,0.196572866,-1.2103994878,0.4004254066,-0.74889168,-1.0132976964,-0.1144106723,1.5528877078,0.5002456792,0.1239215583,0.8645323121,0.3091480266,-1.0029312877,-0.3560545327,16.4961006573,0.1786696274,-0.1980835981,-0.866855846,-1.0660993577,-0.7538991642,-1.776494262,1.8427041262,0.3666850316,-0.3101065039,2.1453929603,-0.8553508062,0.7345184223,-0.0645475077,-0.0350725819,0.3660918074,-0.0319941583,-0.5678838546,0.019228586,-0.7892342055,-0.0070499114,-0.7740999094,0.6412642372,0.7315883666,0.4161689178,0.6556837277,-0.0172202447,-1.0835946992,-0.2281854062,0.4295702547,-0.2054885651,0.9203560314,0.0937552296,-0.4161309185,-0.1539973759,-0.217259603,-0.3649733986,-0.4531151112,0.6838363152,-0.5873667444,0.5571158874,-0.9093101625,0.3325839847,1.3854232107,0.352686981,1.0709966693,0.7582288614,0.3570889365,-0.4862342253,-0.0990452468,-0.1208663642,1.3531279627,2.6807685858,0.2776727909,0.2174546485,0.3297635972,0.1998637682,0.7969137395,-0.7358254877,0.6748029225,0.5034313476,0.8241669456,1.5361578782,1.1929685813,0.6459239121,-1.0665447938,0.7243579704,0.1542754329,-0.1531247381,0.3911049068,-0.2086210192,0.2464692641,-0.5122132137,-0.4865741206,0.1996844582,1.1838250932,0.1965854795,-0.0399029872,1.0674586304,0.355367304,2.0232273931,-0.2154105484,0.2248555292,0.39275162,0.9786401185,-0.488081075,1.5575303808,-0.3749928749,0.3501705185,-1.8567330605,0.847955621,0.601260534,-0.7134876968,-0.7745090377,-0.623304839,0.0138743255,0.4719151696,0.2086868046,0.1596748922,0.4223902561,0.5272918944,-1.0325806285,0.5690640254,0.4863709158,0.0844984758,-0.0661356454,0.1804916951,0.56727958,-0.6062713247,0.3117186246,0.6609123101,1.281023202,-0.2697418175,-0.2101883744,1.2361033704,2.2833626267,-0.2750443293,1.1826570451,-0.6494102828,0.9319913822,0.9886792798,0.2622326906,0.2376512109,0.5428681859,0.3211064289,0.6279320052,-1.6240693078,-0.7889328249,0.9429958464,0.7151265937,-0.4153053727,-2.1500535185,0.1345247865,-0.341780989,0.7335472419,-0.251092443,0.5505099041,0.7095150786,0.671121112,-1.5005521564,-0.9540419549,0.3014363275,-0.5686406499,0.3925902098,-0.6040373733,-0.37417613,-0.3272286186,0.5479790698,-0.7125068515,0.3263719948,-0.5477514785,0.2604558157,-0.394730747,0.6832505575,1.0312230048,-1.3476006534,0.3228217999,-0.7588962909,-0.4892335958,1.2194073306,0.8006888038,6.3652647922,-0.018784372,0.4430253938,0.5992682869,0.8280016052,0.5959137075,1.0512736192,-1.5034208814,-0.4252829462,-0.2358309422,-0.3337827816,-0.3015037217,0.3182896612,3.8778338683,2.5488203258,-0.5625040346,-0.8253009859,0.36802294,-1.54673636,-0.0043257961,0.5851748322,-0.4407229226,-0.3998551396,0.4021926998,-0.5099918874,0.1239486301,-0.3933369982,-0.2507107132,0.8055852499,-0.2810073383,-0.4357068773,0.5373173289,-0.5372793575,0.9065614446,0.6347507792,-0.1015878664,-0.7018824043,1.0036453602,0.7754548894,0.4231016011,-1.7419167859,0.0861367084,-0.1575087235,-0.7945432059,0.5161300531,-0.871216021,-0.1001238963,-0.2855813023,-0.6091662513,0.2834569567,0.099102425,-0.0851925511,1.1180258047,0.478907572,1.0189853851,-0.1271784689,0.3037490073,-2.3335160216,-0.5023476168,0.093455175,-0.0052264362,0.8929575802,-5.868708494,0.31235586,0.6450336199,-0.073394305,0.2791367535,-0.6694397071,2.0759630399,-1.6603147146,0.3826109144,-0.1382059172,-0.7340422576,0.2318937814,0.273250113,0.3761867289,-0.736927257,-0.7290273612,0.3020112684,0.3580606628,0.0733620239,0.5203146222,-0.4065230822,-1.2427503486,1.0290362623,0.2054542382,0.795899043,0.0192695539,-0.3872474895,0.4157932375,-3.2136174504,-0.1692191362,0.4272779711,0.8384433894,1.1076907329,0.1295084864,-0.1375639843,-0.083503816,1.2952316419,-0.4234142099,-0.5752938332,0.643185778,-2.0193884634,0.2362455527,0.6757890112,-0.6650868123,-0.8031507173,-0.0284940457,0.6634657122,-0.1170828072,-0.6527161755,0.114745853,0.1145420806,-0.5199724329,0.6892283107,-2.2612469336,-0.2732322567,0.9191569562,-1.0236738729,-0.4521085329,0.4059857615,-0.8845698667,-0.4661309577,-0.2668329561,-1.079222754,-0.3035838607,0.5139421365,-0.8505095241,-0.0975745534,0.8742046648,-1.1096205507,-3.5112836392,-1.4519492826,0.2048453735,-3.5576393409,-0.3044661639,-0.3375743172,0.475641012,-1.056558559,0.7309367055,0.3673156943,0.8858928234,-0.5856231692,0.5993647952,0.238629615,1.3445309816,0.0636742537,0.8511104339,0.3684243368,-0.1277795175,-2.5390946941,-0.2369319991,-1.0137571448,-0.6782547467,-0.9030559257,-0.4235552735,-1.0785271413,-1.3851553871,1.0749203263,-0.9138232268,0.1876585313,-1.4293893824,0.1017243524,0.49079059,0.705535537,0.6394571242,-0.0375690197,2.1572421292,1.1778421012,0.3489769392,-0.4048908326,1.1772377829,-0.2282853285,-1.2449704926,1.5202103979,0.3586596,-0.7147119776,-1.2290359796,-0.2302010139,1.5653250811,3.0280536937,-1.5456448742,0.5457327541,0.8827876291,0.5722512724,-0.1276583426,-0.4365522157,-3.0049165216,-0.1944663097,0.185249787,-1.1495913446,0.3998921119,-1.9068932055,-0.2170729383,-1.2825071696,0.0864054615,-0.9902747216,-0.3982334595,0.374030049,0.0652802576,0.6182173417,-0.1080201135,-0.6222297454,-1.2157786629,0.5028980161,-0.4170820479,1.0135197064,-0.1135188839,-2.2404612791,0.4387706043,-1.1218765589,0.0373830042,0.3398262837,0.4795657994,0.7592808745,-0.6273992826,-0.7593949395,-0.3647943352,-0.5811574711,0.8410053906,0.849542486,1.1883632155,1.6141036274,-0.2917315126,-0.6727049605,-1.5621101842,-1.0471440738,-1.1077400545,-0.5631502944,-0.6463968602,0.502952896,-0.5909387163,-0.0133104539,-1.3164064001,-1.4440042327,0.2716533206,-0.5850736474,-0.1132963771,-0.2971747211,0.1859861086,-0.0879683306,0.5601370489,-2.1851861262,-3.1519394659,1.3080433896,-0.2734882515,0.1909955094,-0.0188260973,-0.5560819921,0.401013502,0.0023109033,0.5219532583,-0.6114244788,-0.4429246428,0.5699478057,-0.565695399,-0.4042066493,-0.1480198936,-1.0132515769,0.5382371419,-0.3443060927,2.6559009459,0.4442754723,-0.5437669707,2.3523767652,-0.3097814268,-0.7681885465,0.3425053649,0.3703989683,1.4341229855,0.5922381581,1.0134286957,0.7942209204,0.0527948547,-1.5946895999,-0.2141324563,0.1602027932,0.7569684854,1.3312436424,-0.3235979457,2.8826180751,1.0923250434,-0.3586046008,2.0085512386,0.3348277213,-0.4381671662,-0.0273327816,-0.6122371593,1.6881810854,0.5036571731,-1.5378072952,-0.2913209685,-0.4005131945,-1.3002227621,0.1604777135,0.0468376338,0.1944997527,-0.4777071283,2.445012231,0.2546493839,-0.0534767714,-0.5841536184,1.0492415613,-0.1266401547,0.164959782,-0.857099653,0.3917068145,0.4029696115,1.291758773,-0.4769092406,0.7087012705,1.1398808326,0.863800165,-0.1070201986,-1.0461910216,0.6093518671,-0.3162768503,0.9460298777,-0.5378449807,-0.5592726689,-0.7021303465,1.5757102656,0.323523552,-0.2983134029,0.8236244221,-0.3973536666,0.2130394823,2.4551871765,0.872184302,-0.7600778371,-0.6444426791,0.6898864461,-0.9961252,1.1250495372,-3.2335003293,-0.0735732778,-1.3194999888,-0.8226578198,-0.9310216762,-0.8497535663,0.8221984017,-1.0750083774,-0.4777820206,0.3270790472,-0.9165597497,-0.0347076747,0.1244370972,0.6254918445,-0.2222564945,-0.1017731539,0.4132827295,-0.1965453205,-0.2780697415,-0.2053595041,1.2767564809,0.4406761902,-0.2675948911,-0.1842807623,0.913630341,-0.8273677747,2.2552974655,-0.1721384833,-0.4359089364,-0.4333830408,0.5161697358,-0.5926105266,0.6605585787,-1.5190441919,-0.3043208556,-0.4862367025,-0.1418309268,-0.4837853908,0.0256545686,0.0154944509,-0.1604884819,0.2499640879,0.0484384554,0.9526110118,0.0807202852,0.1350994719,-0.1339815882,-1.0104181548,-0.4664654804,-1.005002327,-0.1659648977,-1.1310780495,-0.7989909713,0.6771182568,0.4992968847,0.3127361533,-0.092921457,-0.8262250569,-0.1186571823,0.8599020736,0.3150627583,0.5964089727,0.2866894278,-0.8882546384,-0.4818081241,-0.3083235744,1.2008367803,-0.9433693056,-0.3586837213,0.5797717073,-0.1897549433,-1.196110562,0.3642422399,-0.413460924,-0.0903828487,0.5723580517,-0.3354669319,0.2959015093,-0.153779823,-0.9223731974,0.6381508061,-0.9022602356,0.2253956998,0.893736134,0.8565966767,0.4729557829,-1.0947910431,-0.2892072346,0.1961390747,0.0986667252,-0.4160595945,-0.3580713254,2.6825650239,-0.2743902168,0.6949013384,0.6177490987,0.1507259909,-1.0380710913,0.4827975966,-0.7532543724,1.4760125271,-0.6898328992,-0.2890830202,1.0002922126,-0.4076273999,-0.8823007488,-0.2601707325,-1.7799081681,-0.2336759441,-1.1225987656,0.7259401902,1.5683913561,0.8841417513,-0.020758183,0.0814076071,0.7618076901,1.0348691704,1.0602887515,0.2828623636,-0.13593426,-0.4560631713,-0.2473628272,1.2757741139,0.7529649031,-0.0922268721,-0.2719448092,2.364518665,-0.2750281457,-0.3685444279,-0.4835090449,-0.9662316081,-0.0348719732,-0.4440779322,0.2971183368,-0.3094266061,-0.1186831851,-0.3677771101,0.0144563886,-0.9241968721,0.4736378194,0.7207039437,0.6324453253,1.2905452933,-4.43032947,0.5983438215,0.7360289272,1.4055222585,-0.6106246138,-0.5639765466,0.6158325072,-1.0444634563,0.5999087739,-0.6419474846,3.5178267624,-0.6602681906,0.729269127,0.4738301688,-1.0106210306,0.250556253,-0.5310493823,-0.8026042064,-0.3621198559,-0.1355324399,-0.702611202,-0.404889541,-0.4178479673,-0.2986259594,1.5888690141,0.0050611582,-0.2330970714,0.6499162626,-0.1147053596,0.0273634724,-0.844343396,0.6746294045,0.3049434882,0.4460568381,0.0124294471,0.0811591434,-0.4555672523,-0.1120349071,0.0095807356,-0.3404700505,-0.4724494137,-0.6361850614,0.437988545,0.120924398,0.6802161484,-0.8855448123,0.7384666406,0.7360488161,0.7316963419,-0.2840132326,-0.2949063508,-0.8742966668,-0.7573718964,-0.3362525897,3.8093047555,-0.324071154,0.7005539767,-0.5855744088,0.2864234434,-0.651829084,0.8905329725,-0.6640317079,-0.6792592143,-0.272136874,-1.453973977,0.3379134289,0.1742313751,0.3741466382,-1.2535156348,-1.0132412154,0.8844568843,-0.8182772263,-0.1196582383,-1.6943439969,1.510150546,0.4524221613,0.9974210032,-0.1372751112,-1.5896242193,-0.2757520351,-2.6163106866,-0.0058614885,0.357950681,-0.2217547368,0.3858932959,-0.0171341113,-0.7392297128,0.0640898954,0.1039479703,-0.0006983322,-0.4186354133,-0.5080402426,0.1034085699,0.0291944522,-0.4017038427,0.2974526489,0.0166506759,-0.02676997,-0.1725666877,-1.2899611282,0.5676230447,0.8778188538,1.2909815715,-0.6737351011,0.0709292213,-1.4385530387,0.4077952081,0.7998477833,-1.0882522963,-0.4376190694,0.1163489162,1.7672129074,0.9814702325,-0.0170128594,-0.0470213793,0.3760176363,0.5315274446,-0.109297976,-0.030370253,-0.9821378985,-1.7207512166,-0.4717300639,-1.2448601234,-0.0368539428,-1.594167778,0.5680286305,0.5784482409,1.5242068176,0.0491626915,0.2751936707,0.5559992054,-1.9398950675,0.9662132513,-0.3709220148,-1.5812391757,0.4730817379,0.3870472644,-0.8829197787,-0.6886475437,0.1335706833,0.4642937458,-0.5170916611,-0.147191778,-0.0703815405,-0.8064306719,2.1649710457,-0.2773489512,-0.2019581144,0.091556198,0.8686653591,0.6215166567,0.9418408338,0.0386890225,-0.4427565625,0.7512004853,-0.2824934378,-1.083299001,0.6468841912,-1.500771503,-0.3586605055,-0.066024716,1.5396840867,-0.1535647294,-0.9299909313,0.2571734999,0.9369029415,0.6669748434,1.0069210368,-0.1306850465,0.5532258033,0.2115779434,0.5530231823,-0.2456032317,-0.7239913186,-0.7757740989,-1.3276130199,0.1934210662,-0.5347697665,0.7422588132,-0.6825745314,-2.1934630942,-0.8710254171,-1.3991974356,-0.4462429988,-1.1061876703,0.0087051966,0.4177116597,0.9725178081,-0.6974774921,-0.492593736,-0.0336659141,-0.4114198347,1.0348893625,-0.393317159,0.4543150632,-0.0041881633,0.6614232057,0.4472935667,1.4510693125,0.0868654106,-0.4977483424,0.3834100064,0.0841355703,-0.4584582711,0.5083773186,-0.3863678006,1.9092267916,1.3421903373,1.0171942578,0.2311267376,1.1194655729,-0.443774971,0.5616004805,-1.8043049838,-0.8899270693,-2.7004604136,-0.6025466646,0.2820773956,1.0425737574,0.1001012379,10.4685112175,1.904321497,-0.4273278398,-0.9236942789,1.074075554,1.7892429122,0.6686936165,0.3773304762,-0.5217752352,-0.0469176866,-0.5905114196,-0.6231907654,0.6468247528,0.6601001384,0.3588281524,0.1431531208,-1.0549339372,1.9553286626,0.3776767372,1.1258265815,0.818815853,-0.4063369958,-0.8197679408,-0.8350389426,0.0904193909,-0.3328799843,1.7617380425,-1.4983294492,0.6722003493,1.5986753993,-0.400683439,0.7707951727,-0.575893994,-1.5753368116,-0.6540047633,0.4746863274,-0.7780094749,-0.3337563133,-0.8523466478,0.5857041977,1.3989502257,-0.895956507,1.0757538635,-0.2021204028,-0.4510141282,0.2935095318,0.1674323728,-0.1626546757,0.5586188035,0.6011444679,-0.5174417139,-0.1797768848,0.6350904538,0.9900657274,-0.1728244144,0.6056697487,0.4295311533,-0.0283372673,-0.6244872075,0.6165066268,-1.2033417473,0.3776728656,-0.6252395676,0.1770800614,0.5891096196,-0.6363889204,0.5782497382,-0.6886281272,0.8297662498,1.0806136932,-0.5219163069,-0.0377458663,-0.8391068973,0.289027705,0.037273164,-0.3289183586,-0.1827428735,-0.7264155361,-0.5165425863,-0.1861653924,-0.7832631955,0.9684262119,0.8857573736,0.4012757417,-0.4557267603,1.6130541808,0.5051810218,0.814939689,0.4565636137,0.5496195393,1.1896833703,-0.094600049,0.719928075,-1.3707322693,-1.5164014876,-0.5972506254,-0.5078353573,-1.2335163513,0.5044471224,0.8454067235,0.210628982,-0.5389859022,-0.2701013524,0.0738036095,0.6178441509,-0.7070704042,-0.4408156112,-0.837028709,-0.1681885892,1.0454500185,0.2387317622,0.4422433125,0.8686380934,-0.8492460458,-0.0162522965,0.5333215363,-0.4718547513,0.2065290625,19.7873513837,0.1196437423,-0.5140844414,0.6943761838,-1.2124112627,-0.2159554782,-0.0918022006,-0.0351537492,0.9226611758,0.5996699344,-0.2132547346,0.7835833151,0.6802216557,1.3123676313,0.1680828971,-0.9688312335,0.3019656825,-0.618768664,1.2421139714,-0.3403624523,1.0547559634,-0.7034743661,1.0350053601,0.704832828,-0.75347465,-0.3030293012,-0.2599464266,-1.4732662286,-1.8309749712,0.8669091265,0.9165700785,1.0436596879,0.7073544317,-1.1769286675,-0.2162420884,-0.139593514,1.1122201423,-1.3594507035,-0.1243336962,0.1632625425,0.4291707373,0.501748293,-0.9014760077,-1.4518529297,0.2330191457,0.1910523542,1.7468990697,-0.7884217187,0.5543232952,0.0136473099,-0.2955733741,0.6266101119,0.498634322,-0.5860190443,-0.2620024044,-0.0098435442,-0.5710922052,0.1298342106,-0.2298517187,-0.977426599,-0.549806626,-1.2548898157,2.0511198667,-0.9925810102,0.769416029,-0.3271898825,0.2162586143,0.1877527349,1.2665082861,-0.0118792966,0.9781350414,-0.4143282133,0.3708806971,0.5340727997,0.153859911,0.2958493032,-0.4938883023,0.8512176196,-0.8412597254,0.1856246074,0.5185631211,-0.3325855958,0.9755841396,1.1413807642,1.0740413971,-0.0326266417,-0.3757408842,1.3300324036,0.794433378,0.5335908494,-0.3602314204,0.6308195716,0.0421093623,0.3198999697,-0.2928864826,0.2053577441,1.2828749036,0.1035021499,0.2838091583,0.1110324835,-0.0417491504,0.6511116778,0.6399323485,-0.46395195,-0.8255511035,0.1714014578,0.9002757313,-2.2273396042,0.5158818881,0.1250269318,-0.3782128438,0.0416913664,-0.0793071793,0.600569547,1.4797930458,0.6989417503,0.9193088392,0.3519262928,-3.8683980069,1.3668508169,0.6153885634,0.3898364035,-0.9447312307,-0.758594348,0.3150472306,0.5487284193,0.9894230295,-0.2404843484,0.00125911,0.3926854089,-0.0805079197,-1.449168749,0.7744141343,-0.3726654178,1.376978356,-0.0392967562,0.9409862717,0.890772388,0.1972774717,0.111147754,0.3662421874,-0.8566884215,0.0560149226,1.0488328178,-3.0119760837,-1.1579675077,-0.7414333219,0.4387746001,0.8608068573,0.6262750396,0.5030427165,0.3812928493,-0.4096529057,0.7416082224,-0.087782068,0.1089171988,-0.3366870316,-1.6116364353,-0.048167342,0.9803756131,0.0470925713,-0.1393484964,1.6703375565,-0.6157437067,-1.5767224304,-0.1275801469,-0.4136383389,1.0249368841,0.4909484125,0.0350345193,0.306669798,-0.640181706,0.230594218,0.2527101062,0.1933893222,0.5079391353,0.4088280125,0.9788552219,0.4373949066,-0.7334969946,0.5768711891,0.9041703623,0.1231741002,-0.612447469,-0.2344544568,-1.7715003426,-1.7834954821,0.1341181283,0.3680445014,-1.0208614679,0.7868831475,0.5776525633,0.8680685611,-0.1004688664,-0.8453950398,-1.2498353222,0.1142655849,0.5057993822,0.3712429751,-1.0209443571,-0.6311958606,0.0144797247,-0.0180614462,1.1527798985,-0.3364959202,0.2494460619,-0.936220133,-3.2700370256,0.5808407035,-0.5839570809,0.8796974905,-0.4027894293,0.2900702601,-0.3680075205,-0.9081357712,-0.1384508288,0.4624992384,3.0130297288,-0.7036584442,0.3585193428,-0.6036367739,-0.3647375592,-3.0151839255,0.1556212318,-0.2344167125,1.2183482099,1.6483540226,-0.2785577376,-0.1409472986,-1.0893335807,0.1134589188,0.374424179,0.5808483772,-0.7693011314,0.4040250491,-0.1921132525,-1.2681096761,0.8429820923,-0.0109559661,0.1295941413,-0.0460861518,1.2909257957,-8.6799661639,0.1289761055,-1.4684736273,-0.6085570624,-0.8102605475,-0.4583829521,-0.524609844,0.1140719678,0.3337246639,0.3131316243,-0.2584813353,2.1348180107,-0.6061249229,0.2069169944,1.6452041431,1.3132299285,0.1989062611,-1.005914905,1.0176988165,0.9925355948,1.3129382052,-0.232478513,0.4711069797,-0.6672039651,-0.6189433262,-0.7317578997,1.1862025865,0.2167605025,0.2402903236,0.7005074304,-2.525380344,0.4427729278,1.146299203,-0.1481641571,-0.3944221481,-0.9872881189,-0.1241078439,1.247568616,0.559749733,0.278760392,1.8591199564,0.2841557301,-0.6867956314,1.79219689,0.1573007439,0.3685827567,-1.5517763656,1.2286007544,0.6216489625,-0.4764239201,5.8506421439,0.5915033415,-0.0192741093,-1.0982047356,1.1977395498,-0.2519514581,-0.7547285217,-0.1086271944,0.9900505301,-0.5313166655,0.4732376854,0.8827140417,1.5467045463,0.0298224343,0.5688643554,-0.9370939554,0.3804274022,-0.1000535233,1.6460807624,-0.7017722322,-0.7145256209,1.8541279567,-0.1208973605,-1.246227062,-1.02523508,-1.5598943091,-0.2177525807,0.7674836755,-1.0003052144,-0.5748222023,-0.0914664728,0.2817791742,-0.9920012778,-0.1679550433,0.0114258977,0.2430966157,-0.6149585813,0.6151598643,-1.6099484594,-0.4315189076,-1.1150481322,-0.4277953451,1.3118585171,-1.9110518244,0.7620128785,-1.0519800734,0.4525801413,-1.2989400375,-0.6115243242,1.2554266772,1.2136242856,0.3498165354,0.4332920366,1.1384809798,1.7159399401,-0.4439208541,0.1367077164,-0.8989986447,-0.1108444781,-0.2225905332,-0.1114220352,0.0477613805,-1.3358753904,-2.4051085228,0.272132811,2.1113387691,0.6382113635,1.0503540584,-0.4299328498,-0.0424374139,0.5164079527,0.4843613161,0.2659741916,-0.6348124498,0.3506053691,-0.1789290264,-0.5119363948,-0.0832447463,0.5503167584,-0.1169167639,-0.4113121441,0.2355792972,1.0082421273,0.3223034048,2.4881690498,-1.0277098366,0.5704102884,1.445520934,0.6215388312,0.6297908888,-0.1830706724,0.0504144698,-0.6439730564,0.5221058421,0.425311467,0.158405051,-0.0767322065,0.7832626056,-1.1185456013,-1.2959060182,-1.6385240204,-0.1757991205,1.0772692954,-1.3045779573,-0.7575408451,-0.9447216242,1.0657775944,0.3273177414,0.1636515156,-1.2659968352,1.2242863554,0.5397978642,-0.226322226,-0.8323651511,0.2525139877,1.2078554533,0.9689696566,-0.5321835496,0.4454841765,1.0526168481,2.6717088403,-2.237053498,-1.3239872081,0.3619852154,-0.0471855236,0.1327583537,-0.4976091416,-1.5066991211,-0.157843136,-0.1044974158,-1.5467887337,-0.5356652006,-0.8628686158,0.1864495332,-0.5583236628,0.2832687098,0.6850682579,0.6566459921,0.7611647811,-0.4933950438,-0.0416824411,-0.142780088,1.4835732267,1.6123566632,0.7156067962,1.0733667036,-0.2960217476,-0.0515244333,0.1845631396,0.0817472229,0.4724767322,-0.8384153603,0.4035541514,-0.473283633,0.1407529007,0.7769794729,-0.4084843227,0.2995866955,0.3733829894,-0.5076378643,0.1201643445,0.011411331,1.5570357136,0.9618677062,-0.0171393427,-0.3095586001,2.1927386198,1.1910342524,-1.1393019598,0.202527474,0.180895189,-0.7809469138,0.3745010227,-1.3315372815,1.8293093084,-1.5209499023
