encog,BasicNetwork,java,3.3.0,1,63587518270457
[BASIC]
[BASIC:PARAMS]
[BASIC:NETWORK]
beginTraining=0
connectionLimit=0
contextTargetOffset=0,0,0,0
contextTargetSize=0,0,0,0
endTraining=3
hasContext=f
inputCount=16
layerCounts=3,10,15,17
layerFeedCounts=3,9,14,16
layerContextCount=0,0,0,0
layerIndex=0,3,13,28
output=0,0,0,0,0,0,0,0,0,0,0,0,1,0,0,0,0,0,0,0,0,0,0,0,0,0,0,1,0,0,0,0,0,0,0,0,0,0,0,0,0,0,0,0,1
outputCount=3
weightIndex=0,30,165,403
weights=-0.349567633145287,-0.614542219977962,0.493628296159966,0.890493008818823,0.20817828667731,0.652470337670516,0.499578209034902,0.0496972502906328,0.0128730965372515,0.0558733019772327,-0.0744222880920499,0.262979538065837,0.639553930279591,0.392418650856437,-0.160375003148976,0.496751728396281,0.87871889221888,0.783608323956657,-0.193135220950067,-0.486144936241277,0.00864947876655462,-0.673202856405267,0.576689891206422,0.869362067739997,0.171951421264536,0.41954603961834,0.123806548010468,0.74729794449699,0.0516869012711975,0.232014639990411,0.112708888995978,-0.00156045862371589,0.443865142612432,0.616509697010163,0.722353788425789,0.979155290643291,0.144705785977983,0.355565136424925,0.7095888287869,0.655080946515296,0.1,0.1,0.1,0.1,0.450278713437858,-0.719925957273658,0.33093918773855,0.270115579024011,-0.186013153036946,0.021174156372945,-0.636960576712485,-0.604305033599052,-0.0855506111754246,-0.0353988560779573,0.152560632124804,-0.128,-0.128,-0.128,-0.128,-0.437520403533019,-0.628859140623761,-0.644170589194712,0.713236676025897,-0.807138657962316,-1.40487458587613,-1.00710355817466,-0.237030076012565,-0.197876134898456,0.623452591256915,0.309056275672585,-0.148,-0.148,-0.148,-0.148,-0.847049565800954,-0.521934497213426,0.667380686313091,-0.437906645190393,-0.160943176597274,0.0301651251661428,-1.0589151199115,-0.544344100430582,-0.969423765083972,0.109422021276863,-0.868341921736124,-0.133,-0.133,-0.133,-0.133,0.458983058299861,0.928587115171639,-0.202787741479831,0.297205415015782,0.128940294994665,-0.46446163571368,0.411173100520355,-0.825393037979953,0.276630836730069,-0.785370251830374,-0.373515673627851,0.00625,0.00625,0.00625,0.00625,0.368119538837052,-0.148,0.00625,-0.00625,-0.148,0.017,-0.148,0.202,-0.148,0.148,0.4704448,0.852,0.852,0.852,0.852,0.596055841930237,-0.37024,0.073,0.202,-0.073,-0.18604,-0.37024,0.00976000000000004,-0.073,0.073,-0.3157952,0.927,0.927,0.927,0.927,0.333798502154089,-0.073,0.073,0.00976000000000004,0.05,-0.00625,-0.073,0.00976000000000004,-0.073,-0.05,0.202,0.927,0.927,0.927,0.927,-0.275308822051766,-0.05,0.05,-0.364,-0.05,0.32704,-0.05,-0.364,-0.05,0.05,0.058,0.95,0.95,0.95,0.95,0.328743978859272,0.406061441204539,0.482943486025065,-0.240765007239191,0.926464431116574,-0.829346366915547,-0.430768210012824,0.307988830810519,-0.946589138974598,-0.42394090294824,0.892852604668053,-0.44039162003174,-0.60864964355838,0.58864,0.58864,0.58864,0.58864,1.28789777600112,0.338885002914297,-1.2977483483617,0.323011240127967,-0.73635568210406,0.322414477648407,-0.351151713191137,-0.384601122013629,0.477169768109475,0.614713607576021,0.292082585047853,-0.184596025022141,0.0337928603391829,-0.58864,-0.58864,-0.58864,-0.58864,0.182197108497898,0.773900114057073,0.69799463080568,0.714388637833013,1.06771593072532,-0.464688604506985,0.490746672900741,-0.823795947027708,0.0904970315208738,0.597737328098555,-0.344580515041286,-0.608835625338757,-0.575045812735821,0.067,0.067,0.067,0.067,-0.453893528834401,-0.125720209416803,0.464578633496807,-0.232462601760618,-0.907705380168723,-0.644314866909089,0.314526588706428,0.604843016422281,0.381481211236902,0.764596173322571,-0.72144794436606,-0.223481947049201,-0.0871677346411384,0.32024,0.32024,0.32024,0.32024,0.812866873540053,-0.452091005344219,0.721523344418511,0.182525813052792,-0.588378722733878,-0.93512113031413,0.370082362115538,0.13532361221811,0.0890808870924829,-0.992395327185502,0.345852577984265,-0.794508118788017,-0.8429731854,-0.00625,-0.00625,-0.00625,-0.00625,0.70816815500819,-0.545385830721532,-0.259313838109055,0.452243083004022,-0.707651030250662,0.0441441008812487,1.02905020107657,-0.180496031870875,-0.122974684887598,-0.46017905569229,0.584734755098081,0.121542021877701,-0.855164776765501,1.1422912,1.1422912,1.1422912,1.1422912,1.81390441810987,-0.178391366295103,0.600293230598594,-0.385214661532051,-0.742804699134456,-0.553896014047738,-0.582503634918716,-0.461464279087011,0.691699844634952,0.354897644995198,0.687170424676114,1.09931125528799,0.0605815498878162,0.364,0.364,0.364,0.364,-0.0228488508215402,0.0888229685322489,0.104294998806573,-0.634990244281474,-0.718076537510881,0.378871730891928,0.0623627158176912,0.303910010974403,0.0569135047421016,-0.623600657981113,-0.168281620929265,1.01051546166384,-0.682102120350279,0.37024,0.37024,0.37024,0.37024,0.647872485738784,-0.0716805207760448,-0.146597379968314,-0.191421084440044,0.942757967285699,-0.303767572380028,0.560503977530405,-0.0622526437693149,-0.412551471446488,-0.57228774228426,-0.329008479127199,0.676075701613946,-0.0284016563922174,0.05,0.05,0.05,0.05,-0.867727653830185,0.144108043334683,0.342054520176935,-0.185323537198325,-0.0608785912052161,-0.407817257762615,0.0183659116517593,0.799714374669173,-0.472328287828457,-0.22813892381045,-0.194170298443255,-0.946488152996864,-0.417172532089601,0.1,0.1,0.1,0.1,-0.021092100218447,0.182,0.182,0.032,-0.06304,-0.06304,-0.06304,-0.232,-0.232,-0.232,-0.232,-0.232,-0.232,1.092,1.05,1.146,1.05,-0.509680422562957,0.182,0.182,0.032,-0.06304,-0.06304,-0.06304,-0.232,-0.232,-0.232,-0.232,-0.1,-0.232,1.092,1.05,1.146,1.05,-0.0436498321097576,0.182,0.182,0.032,-0.06304,-0.06304,-0.06304,-0.232,-0.232,-0.232,-0.232,-0.1,-0.232,1.092,1.05,1.146,1.05,0.241053103278881,0.182,0.182,0.032,-0.06304,-0.06304,-0.06304,-0.232,-0.232,-0.232,-0.232,-0.1,-0.232,1.092,1.05,1.146,1.05,-0.123322119365131
biasActivation=0,1,1,1
[BASIC:ACTIVATION]
"ActivationTANH"
"ActivationTANH"
"ActivationTANH"
"ActivationLinear"
