encog,BasicNetwork,java,3.3.0,1,63584525936316
[BASIC]
[BASIC:PARAMS]
[BASIC:NETWORK]
beginTraining=0
connectionLimit=0
contextTargetOffset=0,0,0,0,0
contextTargetSize=0,0,0,0,0
endTraining=4
hasContext=f
inputCount=400
layerCounts=401,101,51,101,401
layerFeedCounts=400,100,50,100,400
layerContextCount=0,0,0,0,0
layerIndex=0,401,502,553,654
output=0,0,0,0,0,0,0,0,0,0,0,0,0,0,0,0,0,0,0,0,0,0,0,0,0,0,0,0,0,0,0,0,0,0,0,0,0,0,0,0,0,0,0,0,0,0,0,0,0,0,0,0,0,0,0,0,0,0,0,0,0,0,0,0,0,0,0,0,0,0,0,0,0,0,0,0,0,0,0,0,0,0,0,0,0,0,0,0,0,0,0,0,0,0,0,0,0,0,0,0,0,0,0,0,0,0,0,0,0,0,0,0,0,0,0,0,0,0,0,0,0,0,0,0,0,0,0,0,0,0,0,0,0,0,0,0,0,0,0,0,0,0,0,0,0,0,0,0,0,0,0,0,0,0,0,0,0,0,0,0,0,0,0,0,0,0,0,0,0,0,0,0,0,0,0,0,0,0,0,0,0,0,0,0,0,0,0,0,0,0,0,0,0,0,0,0,0,0,0,0,0,0,0,0,0,0,0,0,0,0,0,0,0,0,0,0,0,0,0,0,0,0,0,0,0,0,0,0,0,0,0,0,0,0,0,0,0,0,0,0,0,0,0,0,0,0,0,0,0,0,0,0,0,0,0,0,0,0,0,0,0,0,0,0,0,0,0,0,0,0,0,0,0,0,0,0,0,0,0,0,0,0,0,0,0,0,0,0,0,0,0,0,0,0,0,0,0,0,0,0,0,0,0,0,0,0,0,0,0,0,0,0,0,0,0,0,0,0,0,0,0,0,0,0,0,0,0,0,0,0,0,0,0,0,0,0,0,0,0,0,0,0,0,0,0,0,0,0,0,0,0,0,0,0,0,0,0,0,0,0,0,0,0,0,0,0,0,0,0,0,0,0,0,0,0,0,0,0,0,0,0,0,0,0,0,0,0,0,0,0,0,0,0,0,0,0,0,0,0,0,1,0,0,0,0,0,0,0,0,0,0,0,0,0,0,0,0,0,0,0,0,0,0,0,0,0,0,0,0,0,0,0,0,0,0,0,0,0,0,0,0,0,0,0,0,0,0,0,0,0,0,0,0,0,0,0,0,0,0,0,0,0,0,0,0,0,0,0,0,0,0,0,0,0,0,0,0,0,0,0,0,0,0,0,0,0,0,0,0,0,0,0,0,0,0,0,0,0,0,0,0,1,0,0,0,0,0,0,0,0,0,0,0,0,0,0,0,0,0,0,0,0,0,0,0,0,0,0,0,0,0,0,0,0,0,0,0,0,0,0,0,0,0,0,0,0,0,0,0,0,0,0,1,0,0,0,0,0,0,0,0,0,0,0,0,0,0,0,0,0,0,0,0,0,0,0,0,0,0,0,0,0,0,0,0,0,0,0,0,0,0,0,0,0,0,0,0,0,0,0,0,0,0,0,0,0,0,0,0,0,0,0,0,0,0,0,0,0,0,0,0,0,0,0,0,0,0,0,0,0,0,0,0,0,0,0,0,0,0,0,0,0,0,0,0,0,0,0,0,0,0,0,0,1,0,0,0,0,0,0,0,0,0,0,0,0,0,0,0,0,0,0,0,0,0,0,0,0,0,0,0,0,0,0,0,0,0,0,0,0,0,0,0,0,0,0,0,0,0,0,0,0,0,0,0,0,0,0,0,0,0,0,0,0,0,0,0,0,0,0,0,0,0,0,0,0,0,0,0,0,0,0,0,0,0,0,0,0,0,0,0,0,0,0,0,0,0,0,0,0,0,0,0,0,0,0,0,0,0,0,0,0,0,0,0,0,0,0,0,0,0,0,0,0,0,0,0,0,0,0,0,0,0,0,0,0,0,0,0,0,0,0,0,0,0,0,0,0,0,0,0,0,0,0,0,0,0,0,0,0,0,0,0,0,0,0,0,0,0,0,0,0,0,0,0,0,0,0,0,0,0,0,0,0,0,0,0,0,0,0,0,0,0,0,0,0,0,0,0,0,0,0,0,0,0,0,0,0,0,0,0,0,0,0,0,0,0,0,0,0,0,0,0,0,0,0,0,0,0,0,0,0,0,0,0,0,0,0,0,0,0,0,0,0,0,0,0,0,0,0,0,0,0,0,0,0,0,0,0,0,0,0,0,0,0,0,0,0,0,0,0,0,0,0,0,0,0,0,0,0,0,0,0,0,0,0,0,0,0,0,0,0,0,0,0,0,0,0,0,0,0,0,0,0,0,0,0,0,0,0,0,0,0,0,0,0,0,0,0,0,0,0,0,0,0,0,0,0,0,0,0,0,0,0,0,0,0,0,0,0,0,0,0,0,0,0,0,0,0,0,0,0,0,0,0,0,0,0,0,0,0,0,0,0,0,0,0,0,0,0,0,0,0,0,0,0,0,0,0,0,0,0,0,0,0,0,0,0,0,0,0,0,0,0,0,0,0,0,0,0,0,0,0,0,1
outputCount=400
weightIndex=0,40400,45500,50550,90650
weights=##0
##double#90650
   1.959184315,1.539392315,2.2711151264,1.5955758085,2.1274969878,1.6710628997,0.9731863007,0.8828225251,1.0298054972,0.6611400083,1.1662822531,1.9315215688,1.9461466562,1.0036106295,1.140519363,1.971574651,1.4913360118,1.1667008751,0.8799539088,1.8706779797,1.5002836233,2.2898397079,0.9424615629,1.6103739117,0.1894826274,0.6337275065,1.6642020549,1.1713757175,1.8438487836,1.4623228925,1.9215579544,1.9172930558,1.4568835332,1.532446433,1.4372938889,1.9890749109,1.897664711,1.9467720794,0.9268973506,2.1564187873,2.3561816761,0.5498131497,1.6639887044,0.7981215872,1.8240633713,1.8116561454,1.5145169195,2.3972191572,1.1200628304,0.5549364171,2.019374733,2.1159906858,1.8576338385,1.3118366215,2.1461931786,0.2376096016,2.3985592307,1.85253605,1.5571553213,0.4360365617,2.2636112231,0.2482424556,1.5656358646,1.5288468378,1.7305067321,2.4152887039,0.8870225801,1.9264781886,1.6380291125,1.623011559,1.6371269347,1.3320607134,1.5335484247,1.4577500612,1.8399129151,1.3811081181,1.5024065924,0.9755021656,1.4878407751,0.2596066911,2.1453401917,1.994342965,1.4128655017,1.6791651137,0.8684066046,1.668790641,0.1648989867,1.406757859,0.5716634862,0.4723097884,0.937786519,0.4455928149,1.0813211286,0.9280745402,0.3236937,2.0877578568,2.4729851618,1.7029656617,1.6869676621,1.367454904,0.9372658,0.5763225464,2.0538015768,2.064383872,0.7010660018,0.4186649974,1.5591195463,0.7898878726,1.2435821356,0.3380088276,0.9157544721,1.6862562891,0.407089658,1.9456692354,2.0184658057,1.3625394554,0.5746177753,0.6279931581,0.8666667748,1.8609982262,1.0009508349,0.6568676377,1.4592380388,1.4184687099,0.278804168,1.0167667236,1.3743035266,1.9104755634,0.5090525839,1.208754882,0.7618918815,1.2796467548,1.4734286877,0.7411437099,0.9476858237,1.7920154525,0.2898490847,1.4410154572,0.8763490079,1.1955408724,1.4997098433,2.1781083092,1.9094923054,0.640164762,0.4286182196,1.690090168,1.495214031,1.919654752,2.3211058176,1.4469006114,1.4363411391,2.0880764678,1.3999156557,1.9116507402,1.3672539046,1.9179764368,0.7594022538,1.3144996472,1.9494674254,1.6802161621,1.4656081625,1.9562069074,0.2538576033,1.2524561936,1.1049107949,1.8564938857,1.6997347986,1.8800653395,2.0485627411,0.8994390826,1.5795078191,1.736333984,1.7140819354,2.1434238041,0.3506628406,0.3166079787,1.0530351099,1.4360623126,1.8797799862,0.9148441026,0.8525770487,1.8565340672,1.0970011367,1.7155008521,1.7457310349,1.0223989409,2.1237192796,1.3709398306,1.7672134047,1.9618277212,1.2557871867,2.1456693932,1.8529136912,1.3411309192,0.5428251684,1.2000042522,1.0054236327,1.744059504,1.3280242417,0.6602658844,2.215617575,1.3643625675,0.5363659413,0.8562445376,0.8803788867,2.4408765755,1.3398427561,0.7044458632,0.7381872214,1.6798397207,1.4453471383,1.3307714684,2.0254751445,2.3215147139,2.0459114373,1.2725569425,0.1126901755,0.9103832239,2.2036348403,2.0818802148,1.9788513574,1.7018683251,0.9164344078,1.0880333644,2.0804196086,1.6137685885,1.8243835632,2.1861467271,1.6403454737,1.2008206179,2.2296746944,1.8891459248,1.7781136155,0.413049657,1.4195980292,1.1980395084,0.4409327208,0.2143980935,0.7376426407,1.9995649927,1.7002701771,0.5536681332,1.671287675,1.8090087602,0.6003498321,1.8478753251,1.8942473194,2.232653958,1.6969487572,1.1880837285,1.5656167657,1.7212765727,2.4343413816,1.5707241024,1.070931995,0.738300784,0.8042577361,1.1528599228,1.1097751797,0.8605369763,1.8780956241,0.6913008478,1.0905440268,1.0046370974,1.8667571527,2.3146670336,2.3865609871,1.2927608944,1.6769025389,0.8349746871,0.7041489827,1.196816199,0.7861823873,0.4157523216,1.4999218729,0.7026211808,0.2897231939,2.3923527322,1.8965488832,1.1884580159,2.1244702684,1.66945763,2.1089659037,1.1573938341,1.8298693123,1.7672759816,1.4412604346,1.6636305561,1.7530772224,1.1338926603,2.2594523712,2.2500651288,1.2474598312,1.3438121259,1.6877663396,1.0700894591,1.5918395237,2.4726129876,0.9479192883,0.1773159215,0.7386298031,1.807872451,1.4686435395,1.0477161402,0.7960201128,1.5376289768,1.2156983354,0.2987927749,1.7980675528,1.7971697197,0.2046206966,0.19346435,1.2607449615,1.9012719965,1.895053584,0.7149152637,0.3676512708,0.3032169377,0.6672665544,0.2274453668,1.7733019505,1.3165227774,1.6830294232,0.8727717687,0.498920072,2.0882027303,1.3316859022,1.6502311691,0.523505456,2.1462620557,1.8714348281,0.768978006,2.0890798545,0.6025179627,1.2498376775,0.6369508522,1.0603876329,1.629269717,1.773200006,0.6259403147,1.2950411696,1.3211901199,1.7232107173,2.137584771,1.8539076111,1.1339441587,0.5684909822,1.2188995579,2.1536055189,0.4360755469,2.1961636576,0.9714151811,1.0848030617,1.197966001,0.2985595912,1.5862094962,2.1302170437,1.6462469541,0.6896914982,0.6083581138,0.7228523337,0.5059297319,0.4520498022,0.371926169,1.6891708707,2.2194902883,0.4502635609,1.8351247994,1.2414953998,1.3439710413,0.8172785527,0.5603421723,0.3048763963,1.0046195872,0.9618113852,0.2633288652,1.6085923069,1.7537472112,1.8942133332,0.6855404664,2.1323651853,0.7737985871,0.6391968953,1.8289103488,0.4367012297,2.355214141,1.4138892108,1.9963626894,1.8438310005,-0.0975334444,0.5159119015,1.5137627429,1.5614325988,1.8962199649,1.5864228218,1.7579831731,0.8733906726,1.12207751,0.3399424367,2.1517357766,1.5329173456,1.7563694273,1.9754536016,0.8959041758,0.7502233769,1.614150851,2.4154889458,1.1541921458,2.5322034495,1.1563934776,1.0749131142,1.3412702711,0.9670379605,0.6419353016,1.8178942252,2.5557848593,2.0730554167,1.2170132825,1.7799142714,0.5226312727,1.3020479794,1.0617534265,1.8671321828,1.8408264958,1.448050512,1.1755571402,0.6901770697,1.585245979,1.039088378,1.4247157852,1.0556230814,2.0050608299,1.5649490488,2.2764311661,1.2304238224,0.5243218038,0.064891823,0.9071757867,1.0829059853,1.8913994121,0.7105952694,1.2124423757,1.8661640541,1.9893261145,2.4831995112,0.6015790487,1.5188514483,2.5194441458,0.6455700733,1.932932772,0.4316659262,0.782639588,0.9559269792,2.3442542705,1.0440570683,0.7302566939,1.6833408886,0.6677247366,2.4797818051,2.2692501195,0.6278479804,2.1071980497,2.022185216,1.700499646,1.1204674167,0.554758071,1.5305344622,0.9126540959,0.878922927,1.1166705348,1.1697598904,1.8829491262,0.5969225491,0.6497648014,1.3763943873,2.0286640569,1.0530930615,2.1332055142,1.3167907689,1.6110153451,1.2471283255,1.3203418152,0.2508176638,2.1641850116,1.8388632315,1.7444045866,0.9594516678,2.2316229469,2.2057425998,1.1986596159,1.5657801197,2.3101042735,2.5844946286,2.3500282685,1.6788848219,1.4714236587,1.9020090786,1.0572466411,1.0688926515,0.7796003341,1.3915809635,0.6224778686,0.4012881882,2.0510760009,0.6599628782,59.0691260861,-0.3000000953,-0.4866903004,-0.2564373553,0.7038107621,-2.2136115639,-0.3551289085,2.0034785402,-0.0237921257,-2.1853844681,-0.6243356004,-1.4612082212,-0.4378115073,410.2856896534,2.0299595929,1.5468026878,3.6415642514,0.0544696185,0.0729499258,0.8728950581,0.3218630361,0.0088031915,0.3624597831,-3.7194083687,1.7767923631,-0.9671240354,-0.2047879533,2.2111545526,-0.3056378917,0.7129979832,87.4996726407,3.7394269211,3.2956780502,2.0187245471,-0.0006253389,26.7933448294,0.0851108218,0.5886641601,4.6459482712,3.3235338193,-0.6550138152,76.4802362763,1.502875224,13.6140459177,0.9038375041,-0.0566483422,1.5242351245,0.3155142538,75.9564208673,-0.5268030241,0.7718546619,51.7112029516,0.0651056554,0.2621923891,0.654501701,3.9737086632,-0.0360877418,-4.4730301525,2.5137058025,-2.1063597665,0.7276111116,0.6523278138,-3.9032553141,0.2529086189,0.9959725921,1.1324905461,4.5043351773,1.1900657529,-6.1846873023,1.0256484387,0.6308222756,175.4977285962,68.3512248426,30.0536451287,8.7131891574,0.956641901,0.4295881362,0.0043724739,26.2237911959,0.8187052681,14.3834442017,16.1899241849,0.5491935005,-0.1879212097,-0.0325038337,5.0780204176,23.7194634002,0.185524242,0.3849352839,0.30107423,6.3518571362,33.0028516947,0.5707430676,0.8491473382,0.6002199473,-0.0867692978,-0.3061920361,51.3034656763,1.1628035342,0.4535508885,-0.0083707626,30.6038142216,0.84359415,0.6849398144,1.2525155996,1.0861445193,-0.4368362444,-0.4422882107,11.7962803564,-7.0892569417,0.6160437014,0.1444474661,0.0655106145,0.0801933257,409.8707858607,1.3573460429,15.7225959728,102.3572743646,1.0843697157,0.0551038764,-0.2586086789,0.2563989972,0.2255281752,-1.7612935605,-4.3161722269,8.723535342,1.2049696028,1.183622253,0.7940193323,-0.4048889312,1.1007170775,357.0535964966,18.8926644863,1.6116841183,1.5589079029,1.04444588,12.7295765845,0.9470921589,-0.16346685,4.4446508747,3.2712276608,0.5490586646,0.0459400938,10.1868451544,125.3446928044,2.2191588458,-0.5012631749,-0.1753801905,0.4290363029,144.1648018877,0.2305881241,0.3092985039,35.0375392285,0.5909821311,1.0043178606,0.8840966268,5.749711758,-0.179242447,-7.0558496028,0.9830429809,-0.2346906891,-0.3765564301,-0.1923163305,-6.3654305912,0.103325102,0.1188683466,0.7026465252,9.736224496,-0.4619797722,-2.4795834079,0.9548027087,-0.4202993376,12.8724622101,275.5465837542,85.4302147507,4.3137442302,0.6933779452,-0.6086953937,0.1679429427,13.6597756729,3.2290314471,42.2852959125,-1.8472041383,-0.5214588264,0.4547500024,-0.4940158915,6.8634929714,96.1792539991,-1.1850092992,-0.5395593707,0.6754907426,5.8151766676,101.2826671656,0.2408835155,-0.3617730894,7.8995053212,0.9972519208,-0.4652980039,926.9393415201,9.8743401744,1.112019847,0.0276731554,41.260279799,0.695123952,-0.3498522779,0.9685113874,-0.1194856465,0.2771396662,-2.0628228497,1440.8132632104,-0.9182611179,0.3435506938,-0.4259814642,0.8793749976,-0.1073107627,562.2995676739,1.2273500812,33.4405676703,0.8901783025,0.2178175321,-0.1643964953,-0.4068932688,-0.0255775582,0.2519514677,0.5396016882,1.2596428066,62.2497616814,0.6242679117,-0.0674265064,2.6477299853,-0.306873516,-0.3324516142,1.2569629482,-0.032821821,0.8327540823,1.3517325701,0.5132233093,28.8076315378,0.5238746299,-0.642567646,2.7964868433,66.6399040365,-0.9549373759,11.4662445603,13.8012209297,-0.7698830567,1.3594890497,0.1042136464,0.8859628886,-0.098671688,2.2005703633,-0.5251117321,0.513668582,15.5739825708,0.9391775883,-1.1326959464,0.8911121172,-0.5948266694,0.5988942037,-6.6246678199,-5.7732523427,-0.6598246041,4.6877963205,1.4116077616,0.608217465,-0.6087915863,0.1392778505,-0.1887175631,10.3668742662,0.9141379337,-0.8714150981,2.8494268603,0.385053358,13.4134179781,210.8115180105,1541.8983112335,1.501281998,0.7527692893,0.9550796392,0.5710771738,46.8096334574,0.3532053363,5.2983082201,-10.2882194475,-0.4559029116,0.2556952308,1.122769615,128.6067145469,11.5550414759,-0.8248289229,0.9487286787,-0.5401790069,82.5997567937,2.8410445466,0.2795744236,0.7017779604,59.6856493631,0.5456956306,-0.1480163942,332.3929736295,2.3790472823,0.8232472624,0.8464387042,0.5469612445,-0.1193518815,0.4260807075,1.0762844336,1.120160404,-0.0639636539,-2.066669851,2043.2971966838,0.0050021905,0.0354689679,0.858283726,0.107260334,-0.394905386,105.3286777453,1.9548350067,28.7747602962,5.9186133758,-0.1049553775,4.5040495878,0.8526212037,1.0227727215,0.6827850373,0.2947883605,-0.9378447312,9.8783827496,-0.6394092572,-0.3383592618,3.5913194071,0.53745923,1.0814668511,323.7492145886,2.9005833372,0.9683006811,2.0044995979,-0.9467824291,13.3021808089,-0.5192232168,0.7410805217,19.5706693452,5.0314861935,1.3723142807,15.7562767343,18.8544271598,0.301931407,-0.4048229037,0.3426663173,-0.7733179246,0.7567191857,2.0495737289,-0.7576602903,-0.5184283013,835.1202456127,0.9625860829,0.5672486796,0.79064452,0.9222622834,0.9858846775,-2.726032889,-0.0152510339,-0.3556812697,-0.723018334,0.6771097402,0.8761016775,-0.7900893973,1.1151599214,0.2110986576,91.5058987737,1.0641375982,-0.6818527348,-0.1235238477,-0.4342477315,116.7002040084,48.8577177363,362.8021235012,4.0797526043,0.6410979166,-0.5627217404,-0.3314779632,16.7697276056,1.2118285409,0.2166346008,6.9147875968,0.6494159928,-0.2057890521,0.3426554436,46.9179595074,1.673027552,-3.8432286676,0.5957719033,0.471834873,21.8286661725,23.7075826537,-0.9816949414,-0.2001867949,19.9664272819,-0.4259372421,0.2802411011,12.8486147716,23.2835064045,-0.3294250548,1.0162675525,0.6931655225,-0.1928812754,0.7012620802,-0.2855837626,0.0850357412,-1.5537139689,-0.3915600541,1743.1330826537,-0.9948413738,1.1714941155,0.9606344573,0.6054468054,0.179601241,9.0755330566,-0.0086115485,0.1151642603,-0.0848693441,0.0102402258,38.4008575624,-0.1158307969,0.2546116299,0.5886020924,-0.6044885942,0.0946648842,21.8129005763,0.2081895201,-0.0527191538,85.874893308,0.3494801345,0.0419281271,1.173823608,5.2649735834,1.1270156428,1.7454725559,-0.9984355072,4.1744818358,1.0093946919,2.8307461603,3.4873839653,29.3648630175,-0.4057821755,0.6955881379,34.9693029152,1.6590274694,-0.4079943192,0.5542974831,0.1181237634,1.0665461197,0.9217020415,0.2741743934,0.3362440906,667.2070333032,0.0421743173,0.4808069468,0.0309451112,-2.6437253767,-0.3056240147,2.2478259536,-0.3766515106,0.9433182033,-0.4710174674,-0.3276852081,1.0877333266,1.242345286,-0.0978767414,0.6744176903,5.0198918522,0.2345463873,0.6509414653,1.1171595015,0.7532003482,0.7449946695,192.8167507034,1059.9818701417,3.6499823164,0.0604598417,-0.2179016241,0.5798599411,3.3055333812,1.4924982277,0.5208728749,0.9933286108,1.1264820129,-0.8278179057,1.0456081227,329.0698213588,3.233923248,-0.567980499,-0.3084655593,-0.4585128974,2.6316696534,9.0943992654,-0.7629916821,1.0969937603,47.1891063154,0.2096227682,-0.1145897041,90.8549710415,73.7388137413,0.1795083794,-0.8086199013,2.5787208029,0.2525639612,1.1223845708,1.2747994925,0.8295292658,1.0929859782,0.9170307795,974.560213892,-0.5161009484,0.2214651786,-0.1806970458,-0.4302237831,0.0122543384,20.8239495042,3.2183633872,74.4880031635,-0.7438456321,-0.1675633921,0.8169376918,0.3641041954,0.0471399647,-0.2535509051,0.6155007352,0.4409089356,35.0073640122,-0.4147339496,0.5495873287,63.3231998226,0.5796476641,-0.4283220877,1.7075982762,1.7337788774,2.0627883907,0.4387770266,0.49475595,3.434268269,0.8645757624,1.2190948745,41.5673545734,134.26982727,-0.3697749907,-0.610817726,13.9394586608,1.4878380501,1.0500844431,0.7130154661,0.4077215904,-0.433911828,26.2975432379,-0.1746245199,0.92653586,883.5168531072,0.6201568874,-0.033019517,-0.4501089458,0.7703120414,-1.3319835765,-0.9071877026,0.1948059928,-0.1687650252,0.2278800153,1.5325093838,0.138433074,1.1998905616,-0.1814688891,-0.0579835485,34.0646586042,0.0510978292,1.1449197853,0.5080886332,0.285361683,-0.0093610148,444.8830917333,66.0244013443,35.6548289445,-0.6181672098,-0.2581879536,1.039690023,149.1647099843,6.0027108671,0.2509390654,0.1135920254,-0.3178994259,-0.0520788671,0.8170104538,373.6091756418,2.4304386261,-2.1736041599,0.6865014083,-0.0336228962,1.4700143457,251.3494369667,1.0154470898,1.170979039,107.1175905718,-0.6616838586,0.0342041228,1.7004169138,18.0980707961,-0.3267399153,1.0167661115,0.8401172426,0.2758168363,-0.729821783,0.5127794655,-0.3861885591,0.8974699256,0.565636136,41.8122530619,-0.4188529501,-0.5736559558,-0.0805469294,-0.5582317402,-0.2382226555,7.7525439112,1.3130763188,54.5794395804,-2.4150988985,0.0394827686,3.4602054703,0.4887907823,0.9694509826,0.4224654893,-0.6823657211,-0.3096678455,32.1649510131,0.1789086347,-0.4929793401,41.900112008,0.5441283304,0.361824424,0.4716479849,36.8281431519,1.581809252,0.9027110755,-1.3369300976,6.0647876562,0.8567057004,0.7565750703,12.4169316223,14.9312555963,0.5374209794,-0.3209720909,159.3854171815,1.8444422345,-0.1667584886,0.9648025158,1.3499269407,1.0464285674,1495.869946514,0.957939984,0.1044890859,883.5781568228,0.0534070115,0.3002546232,-0.2479008799,0.6321869061,-0.673859405,-0.241382056,-0.2351819346,-1.2119957358,0.8776149405,0.2982252731,1.1765706564,-0.4046365255,-0.6207097439,-0.6998603284,3.1233090433,0.9327946441,0.9667248511,3.1767283792,1.1778670456,9.0072322819,394.969464822,22.1080576044,5.7400563277,0.5501422576,0.8514929468,-0.2339870918,9.4026310991,123.7956541062,0.4938952908,1.1271584008,0.0948613016,1.0517383936,0.3769650751,454.6132812971,39.1527820162,-3.8062187364,-0.4282482746,-0.2781558348,47.7758916793,0.1261933604,0.3055918869,0.640673295,3.0755915743,0.2889910579,-0.2326884307,895.9418886991,144.2323119474,1.1518158543,0.5608206578,0.6837680066,0.4264893759,-0.7971565696,-0.6429838442,-0.3865087655,0.6418386646,0.4364099857,1264.1283994819,-0.686126371,0.2807364384,-0.1790051306,1.1963870712,0.9655197769,231.5557738196,0.2001988654,29.671917891,1.8700346904,0.1742026403,0.800560449,-0.2219359816,0.5293994994,0.1868389905,0.2651157759,0.2856059448,14.809274192,0.6378823834,-0.4687619662,22.2247874456,0.5283903202,0.7350640275,26.5690720811,1.5085115431,1.3812066124,2.8432784205,-3.0801548397,3.6102954838,1.0190501451,0.3706167721,12.8528021092,33.8613468035,1.1539164593,0.012555209,13.6649133832,0.6947178539,6.2146297313,0.9720335052,0.0559406769,0.1901857099,11.7052480761,-0.4762718341,0.6732319853,606.7919866736,0.5823753541,0.0969122792,0.6041855334,0.6271978109,0.368116952,0.5323292392,0.5587496769,-1.0342794622,0.6532027524,3.4979938961,0.3314232062,-0.1857639333,-0.7598740611,0.0943353751,67.1001547209,0.0703232171,0.059530438,0.8436819038,1.1196488372,55.033954033,194.2387313879,68.3821964289,6.2280663357,-0.1004717984,-0.5124072961,0.9199543201,12.4441462408,4.4181675403,-0.2849747021,-0.0242586474,-0.1845138268,0.8665341957,1.3474219305,116.7888862365,1.3863497595,0.949209698,0.133729578,0.3139011133,9.874994886,-0.7196057894,0.3941272463,-0.0897045573,114.7889100291,-0.580293163,-0.0066329225,526.7543962835,90.1211712641,1.0967678094,-0.0601904899,0.2917381387,0.5360318694,-0.0803410383,0.3870893639,0.1091518195,0.6694689048,-0.7599842809,29.1116945049,0.5293382091,-0.4912316264,0.2020978359,0.2004460905,0.8609940552,26.0838354605,1.5846643554,15.2024403031,-6.1520533665,-0.5231636102,10.0687178716,-0.5981562173,0.5516097457,0.1544557483,0.4209248322,0.7893994793,4.0336047824,0.4100301603,-0.3124774542,93.1219764011,-0.061146064,1.0220380216,98.3547143941,1.4085483397,1.0565794085,1.3262335803,-1.0547146798,5.5312418994,1.0253972686,0.0757780206,4.6840855314,0.6130275521,0.0542396706,0.0165153639,361.5833912171,9.9313242994,0.9017149254,-0.0309333535,-0.6454226593,0.4278467497,25.7943566288,-0.012819137,0.2781725389,1038.6067477532,1.1498288577,-0.366781727,-0.0431178544,446.4238308719,0.5696750908,-1.1799248959,-0.3589050264,0.0833910005,-0.3750750019,1.0095952372,-0.572798408,-0.3241277024,0.7433610425,-0.6809553789,63.9855913112,1.1662714279,-0.3170852058,0.8794345675,0.2879155256,1704.8464781452,98.8954181402,326.2190181434,4.7113276914,-0.2773256729,1.0591689947,-0.0473828826,3.0328377377,22.5700983033,-5.9436450721,304.3171637808,-0.4871812359,0.2013297396,0.1116594678,352.914549695,35.3409850803,-0.7781247992,1.0372785321,0.2797217622,19.4810280193,2.6226044785,-0.1867330113,-0.3608808928,3.9338853932,1.0121832371,1.1691243872,343.5219096217,4.6315567955,0.8914467406,0.9721071974,-4.3050038733,0.4667754928,-0.3924017578,0.5414911645,0.3286706348,-0.6757648806,0.2231601895,1514.2484241814,0.0652969938,-0.2190531423,0.2185305425,-0.589249282,0.8869746457,5.379107929,-0.3254386478,10.0618343625,-15.7860829398,-0.4029637338,2.4665642949,-1.0609000348,-0.5291478862,-0.0049384419,-3.8071498831,1.0171884708,11.816847082,2.3994691908,-0.0336002087,8.7234799405,0.7108110653,-0.5792218566,134.8490534608,31.797114001,0.8529177345,-0.0372703757,-0.6476565344,8.1077015523,1.14493179,-0.0156676808,1.7402491033,126.7996550837,1.0663931506,9.8494254252,1314.6518136588,1476.4771640875,0.9067983781,0.4847613023,45.8029184878,0.861895266,7.0933234453,0.9248025831,0.0381604863,213.6098381656,0.0229724385,0.0854508379,1.2114185959,4.5595852267,0.1693852242,14.4986597785,0.5868729803,2.0575130955,0.3554065275,-0.5629208267,0.369408816,-2.6347699771,0.5256268568,0.9468988766,69.9334775962,1.2042434673,0.9232749243,3.9068214515,-0.3108684427,618.5021049887,47.3174365526,2.617308285,2.8826906414,0.6994807811,0.2875237568,0.1070421463,1.514524979,0.8347061525,883.9376185235,31.822901525,-0.711266228,0.6142272123,0.8223900912,39.0680063485,4.9945291644,0.7310541145,-0.4831664956,1.5730891543,1.908394436,11.0783103129,0.7666309327,0.0704359191,39.2790423984,0.8213872396,0.6992600517,208.7196722825,245.8033948396,1.1418036222,1.2165393886,-0.6485176451,0.904466567,0.4586145883,0.8511859636,-0.6280238976,0.7367666801,0.6588632482,266.1244239936,0.2601451703,0.0887864833,-0.4742645001,0.3072942056,0.968424529,47.2598884274,0.8219425766,7.9978629419,1.8053951192,0.2847110948,0.9553329281,-0.4513834524,0.6217588743,-0.4312517508,-0.6333841634,-1.8938883135,18.6816278139,-0.2075183087,0.1393194666,5.9020744956,-0.5189818043,0.1934076078,59.4283868893,6.2103078497,2.0236376813,2.0842495977,1.1887610336,29.4652777375,0.7319674075,0.6314973482,14.2334246625,67.7210807136,0.2120879793,-2.2667781132,342.8957157623,62.7056730193,1.2413046172,0.2278033033,61.4892587102,0.772694674,7.9144401966,-0.4378244299,0.8902889711,3.9297027811,0.272026773,0.1753401455,0.0811682456,62.5249780316,1.1544459221,18.6558307212,-0.9308415731,-0.1201454612,-0.0768683029,1.8785866949,0.8142459392,-2.1000874712,1.1229030203,-0.5076916818,66.4163503751,0.8852519396,-0.2354295878,2.2357919082,0.4292546634,569.6259869167,104.4293211331,249.127594345,24.4792655214,-0.193231081,1.0303911085,0.9031762898,10.0614428748,2.1417945664,1754.9655078034,1180.427931482,0.3559885391,0.3747962045,1.1068249679,181.0272389098,15.1820422541,0.3541490971,-0.6541124144,1.8308416428,8.9973502247,14.5855342531,1.2587026534,0.9965454648,9.8806293628,0.8565381878,0.3929503854,56.9826034441,32.251413337,-0.167601052,-0.479830855,-0.4054327376,0.4340832973,1.0478558074,0.5134431004,1.1475460066,-1.2745700009,-0.3207553689,129.635304285,-0.8181621808,0.8186089602,0.6428947153,-0.3257031636,0.9648527197,26.1273010375,0.6060117988,4.2286931218,2.0756608098,0.8216391579,0.6995054488,-0.3380157834,-0.2624651694,0.5427732278,0.1193405918,1.0747219027,3.631462157,0.1734193946,1.2871757001,19.8286617927,-0.46343654,-0.2365731247,6.5723445952,6.4583828193,2.9074676599,1.5266557618,-0.0890484623,37.6286610272,1.649523741,1.2275478574,4.1404956954,35.177186423,-0.9707165275,16.8138067272,142.8220455661,59.1217113102,0.4041381166,0.5102982203,16.7506444903,0.8645762555,2.3536177744,0.3563992006,1.1889128104,41.1024696623,-0.3421781401,1.1991053684,0.5860216442,367.1989406706,1.2449199054,117.9249052147,-0.9475273979,-0.1390147308,1.1005429423,-0.3124506944,0.7049743474,-2.162489156,-0.4495437715,-0.1496904205,9.9502717381,1.1868576348,0.8774198457,0.589770805,0.4775283832,934.5423012686,441.3992797545,37.8979923005,3.8557992836,0.0852732713,0.6936914262,-0.031568827,12.7382809559,2.1509909121,883.7319252489,1465.3980742606,-0.2303683061,-0.3913865666,-0.5466596334,75.5766323647,8.637158727,0.1805158544,0.7705443791,3.0312099555,17.2959154823,16.9954917216,0.4561713833,0.6248224191,4.5551288674,0.5873818701,-0.3903964805,77.3235725774,47.2676634827,1.2671811577,-0.291106078,0.6586017842,0.9882098834,2.5135302651,1.3570623314,0.7351744748,1.5369320801,1.1097382244,2.0885240517,2.0670170288,0.6940361462,1.1401010918,2.2172343026,2.1099659449,0.923196085,1.4884578671,0.6351170624,0.8142969362,2.4521707264,0.9382347522,0.4398104129,1.5433759316,1.0926630904,1.4358340865,0.7803684934,1.3538790889,0.3719108057,1.4810204711,0.7823149433,0.901939729,0.8175904311,0.8044312272,1.609258344,1.3614480412,1.1843894757,1.0653027647,1.5439223726,1.9523266566,1.4296885132,1.7543969557,0.3713895901,1.8623160618,1.7636491792,2.1969824692,0.5177152161,0.4247042816,1.1285468505,0.85625882,1.7845519811,0.7522147448,1.8056234411,1.3675306009,0.4757018853,2.4613290721,0.8111509332,0.6936480203,0.3712777727,0.6935836912,1.3666860981,0.7315375372,1.9983802174,0.5934209228,1.2869986281,1.1080188238,0.639157874,0.7711006782,2.2411025916,1.1356891937,1.4261794444,1.6843186775,1.3100021699,2.2254058285,1.6935817055,0.3369023613,2.1239971246,0.6453036002,1.6694980535,0.6813115083,1.7139141412,1.4016050551,0.2782485493,1.0835355527,0.8967777837,0.6493477473,2.3244947459,1.6090702807,2.1091177825,1.7292511126,0.9326404665,1.2256441945,1.4392149755,0.5759617807,1.3201214085,1.2399874961,1.6800346199,0.3538589253,2.1717277881,2.2691415143,0.2664569662,0.8471258433,2.0993185056,1.8342840981,1.0584153314,0.7764468918,1.5362195837,1.7263344629,1.0000346579,1.7653583791,1.2811170004,1.7071079218,0.2113797907,0.7582476088,2.1484840123,1.8904585153,1.7579619813,1.1188107622,1.0347443838,1.3155833376,1.3549129538,1.2685917931,2.1058042347,2.1456544612,0.7766851331,1.8845545241,1.8927062099,0.2001093188,0.959876819,0.4528610405,1.1789530113,2.0735553456,1.2911665093,1.4827232676,1.8505978248,0.341752099,1.6560200075,0.7361123737,1.9672752518,1.2862579157,0.5000344444,1.864033867,1.50861556,0.7179902683,1.6791634308,1.5806598251,1.0736004105,0.9445009827,1.4373065295,1.9608919743,1.0455963169,1.1160502645,1.1823276351,1.296544537,2.2647332328,0.6168049418,1.4484594025,1.5530037814,0.7492016773,0.6864915809,1.9830916143,2.0747717369,2.3072268109,1.379122797,0.4641816915,1.2719614185,2.339241044,1.8784936521,1.0255300763,2.2212783427,2.1532519693,0.8315153751,1.5751844333,1.1674435339,0.5353090115,1.553725681,1.571114971,1.7819054414,0.4406212622,2.0533407416,2.3983920732,1.9353887328,1.4898190924,1.2973284289,0.4461464397,1.4042703496,2.1768819692,1.9098083713,0.7636022703,0.3376688353,0.1251600438,1.8830952939,1.3013518991,0.968422831,0.5796705999,1.1572224369,1.9774225228,1.5013745799,2.0822530752,1.7203116706,1.6991912331,1.3215942845,1.6209432459,1.2285260146,1.6830260986,0.6275539168,1.9534542497,1.8663474248,1.8716063659,0.7182707046,2.0181109437,2.1850122547,1.0717300749,1.2522527532,1.8414088274,0.9387409404,0.6963185216,1.6813134868,0.2528450357,0.9423683424,0.9184390506,0.4419436817,2.1203214714,1.2584156604,1.3839450371,1.2909951525,1.4822854888,2.3075081634,0.264134487,1.9212750829,1.2713356329,2.2870879046,1.0555628056,1.6257735546,2.3528717061,1.1944077774,1.668256548,1.1836323982,1.5446957603,1.8738412221,1.7876122497,0.6299128248,1.5641606505,0.5102385037,0.3596094827,1.5213827598,1.5431694263,0.7410529981,1.9272075492,1.9062489624,1.6806441443,1.5611011197,2.2658353022,2.1065665642,1.6407097622,2.3184280529,1.1181879326,2.321694718,1.5756574757,0.9155227166,2.1298191275,1.0144004092,1.7712717783,1.2654447907,0.9934981534,0.4378983994,0.2544906987,1.4431024612,1.3607678203,1.0920347317,1.2768535025,0.5379385698,1.8667163058,2.2024213745,1.6971994459,2.1776752707,1.8771967393,0.7338602257,2.2228888523,1.2009698283,0.874955813,2.330356411,0.6435843841,0.7126639125,1.3703458751,1.3187967785,1.7312021132,1.9233663148,0.6920387582,1.0141275624,1.1179454955,0.5199864851,0.3631229409,0.7614047691,2.3750546354,0.7326738874,1.4773011443,2.241248845,0.8370415946,0.3886812554,0.6607670062,1.0688963846,1.4831173529,1.8722950365,1.3453405926,1.2374882407,0.4059246361,1.0133642165,1.6874283059,1.5605984823,0.3141126268,0.9917400025,1.8072384779,1.0465622073,1.6008923031,1.6267562648,1.8937115843,0.2466453042,1.8239451345,0.3560945093,0.7888257967,1.2399663697,1.0733455496,0.5164797384,1.2668564977,2.1944803696,0.3993983203,0.341193647,1.3602899414,1.1200154175,0.7203671162,1.6298774169,1.9275678444,1.5881963712
   1.6519061392,1.4042030944,0.3565190836,1.5814883743,1.3714736375,1.1118304524,1.6678248481,2.1807182439,1.1004166689,0.8920162564,1.6829908157,1.1179053497,1.7057250231,1.2729791676,1.6460249729,1.1045998123,1.2182420041,1.6993671171,1.2976499075,1.6204562373,2.0841244589,1.4420128582,2.3253290628,0.9712437123,1.1323005825,1.3117618844,0.3283427264,0.5959561011,0.6311650569,2.0143813949,1.9668956154,0.3759851652,0.5131408341,0.2263559355,1.9461661397,0.9386508774,2.2566168879,2.4188625732,1.2430765243,0.8639342846,1.4604452229,0.9755807579,0.9808259733,1.4599339894,1.9397845547,0.4002994384,0.3522092882,0.9817275634,1.088652034,1.9661266554,1.3607908279,0.6781271957,0.6793986215,2.1265167696,1.7028990295,1.3429062976,1.5600449042,1.6188463259,1.2412918308,0.6003705701,2.0157186456,0.6400708221,1.3644143796,0.6481775054,1.8096082095,1.3322964495,0.2479507933,1.9928758617,2.0112244973,2.0719486111,0.3916217469,2.3673019198,0.8405685803,1.5156925036,1.9599972173,1.137239577,2.268383656,0.6652816129,2.3884746612,0.8254687791,0.7557055271,1.6926424978,1.0606203598,1.5578461773,1.1591440185,2.2255835834,2.1479265264,0.5634201725,0.6571337479,1.7566405177,2.4382550236,1.8945261611,2.0060180269,1.4911952241,0.9874303924,0.6142260222,2.3065695551,0.2015699512,0.6023865318,1.5907227369,0.8636600619,1.6845645783,1.9493898313,1.944032245,0.5766928047,0.8682396038,0.8687524226,0.8366722041,2.0039278164,1.3631150395,1.2315246926,0.2208887865,1.7230961999,1.591213664,0.6412052345,0.9758385209,1.8749435005,0.6432734635,1.9997188637,1.7930815842,2.3734845429,1.0145578193,1.8457941088,1.9563824778,1.8846230592,1.8780567638,1.3536329501,1.6239674836,1.0227610522,0.9548913591,2.2787639948,1.965903205,0.721455894,0.3930876869,0.6947865803,1.2612201635,2.2588873592,1.1598987679,1.0075665467,1.441313136,1.7818340287,1.5422823019,2.0456747597,1.0291670073,1.1084964196,1.5526006622,0.5212663235,1.2255627737,1.056554753,1.0410024185,1.634801655,1.5410641548,1.8859293681,2.1234949904,1.8339449509,0.5501972627,0.660890127,2.476189325,1.9471978067,2.0738497683,1.3687965319,0.7377123456,1.7331299018,1.0226911215,0.8875669565,1.6818438936,1.1737042039,0.8367355218,1.2707377745,1.3059971554,1.4885344994,0.339693457,1.6407103408,1.6748927338,0.1914912113,0.4717415915,-0.232565426,0.3848858188,1.1237871973,0.0471962418,-2.0291670469,3.2289806414,-0.1690958262,-0.0402570398,-0.3495307952,0.0695881549,-0.1446945819,2.6615878696,1.9682933577,5.0820630838,27.4189975362,-0.1078583888,2.5388306176,-4.7087178631,1.2327653838,0.2537623302,0.6029496523,0.8138952755,34.8204788325,1.7960747283,0.4218477957,1.5584957755,0.4903920429,0.9650490682,1762.8576883859,1.0861898375,2.1103385774,2.3760135038,-1.3070347492,2.1248001341,-0.1800658396,-0.371951324,15.2433345535,20.4043714675,0.4018910078,0.3713442137,35.7769580455,1.1095105254,15.7548100022,1.204759308,16.0373973606,1.2966906854,7.1076910812,0.3740888338,0.0996027135,150.069015337,0.9421871434,-2.3644726769,0.0054875356,10.3178631871,1.3872059018,4.8474261218,0.5406393867,0.9698558824,0.7816396567,1.5045333574,-9.269686805,-1.1939259582,0.4907292023,1.3480536957,26.9879522224,-0.376282085,0.0676942743,0.8051501338,-0.2613320525,614.7740008512,2.4568321151,426.4354134884,8.0828287906,1.3280125261,0.9649360101,0.6703741384,3.7031525209,6.0456189621,1754.3459491156,189.8302466066,0.9561809212,0.4441107795,0.2291225884,78.9394675444,3.1730277662,-0.6845290892,1.3181312466,0.9649433614,85.010864179,3.5569549558,0.6904321094,1.235632868,14.9735992277,-0.1258406196,1.0224597201,10.5349340625,3.475163396,0.2549655368,0.6636292588,0.2463739501,1.0073532778,0.8285866512,-0.5372520952,0.0181837325,1.0027664701,-0.7527223991,73.556299889,0.0702132111,0.5162137458,0.3274821612,1.3298735613,0.0224958048,7.3077124463,2.3710368317,3.6981761211,57.5297164907,-0.4226790014,1.5701343604,0.8621227222,1.6116113373,0.426877717,2.0025732677,0.2780534409,2.8335195723,0.6816730781,-0.0563905132,7.4870614695,-0.2706936415,0.2807019574,1463.8234067488,0.540988458,2.3418188793,3.5513427411,-0.3564550884,10.8096282048,-0.4483349502,-0.5961623069,26.7002526682,10.9476599786,0.0094861879,25.8913214156,3.72884274,-0.0930009494,5.514957661,-0.2178151061,1.2260790473,-0.0249646808,22.0201327626,0.9195552346,0.121005269,15.229506974,1.1530660042,1.091909193,1.2347929966,87.3520372531,1.4824912075,12.9447948867,0.2840934245,1.7696660248,1.341710148,1.960654529,-0.2846133362,-2.7626083622,1.1730267925,-0.3328204077,10.2300552227,1.2533800965,-0.0252907549,1.2536787762,-0.0794197154,1236.5941165615,6.2386560893,149.8077582694,17.351687098,-0.471230465,0.6740038568,1.3365570524,11.5237811276,45.3402931165,1173.9025321151,31.2286459779,0.0006759204,0.4940669062,-0.3969280629,49.4572501911,3.096683329,-8.6282839056,-0.1332685931,0.3218093745,20.229626754,-1.5450274633,0.4843394142,-0.3896652816,17.1388244433,-0.6460665351,0.9200984651,32.40963835,1.6811415697,1.1048718235,1.3050021289,5.3802020978,0.4784712883,0.3698105527,1.4065972254,0.8917162299,0.9280159084,-0.8689021818,128.9212643249,-1.6185664244,-8.0411923928,0.9519645173,1.3407920729,0.0887025977,72.8314088747,1.8321583202,13.1759141898,63.4168276694,0.259519665,5.5871378905,-2.4411937304,0.5777848229,1.0600011199,0.3206592181,-0.0895945738,9.8947940843,0.0133080961,1.0873469927,20.3850669577,-0.3108484873,0.2721539276,192.9462783381,57.1053713149,2.2504760192,2.2867255933,-0.2237396261,2.2169824474,0.8215687394,0.7923957896,3.5183878575,15.7974612548,0.0957664343,-0.2482665409,17.0023773427,1.8529941356,3.0840620209,-0.3451160048,3.621319211,0.5457372524,19.6694836476,-0.4504431208,-0.4734898584,7.5512541265,-0.0191584428,-0.7041996013,-0.3524111856,0.4633924618,0.5186641933,3.9898165007,-0.2912112553,0.7436513237,-0.0504606648,1.7218869112,-0.3163775134,-0.1141415008,-0.1666029189,0.371655722,38.8150076778,0.8021901194,1.705935215,-0.119665137,-0.1049801837,1943.2208584597,14.6032226804,261.3300544732,6.9402712125,0.291498881,0.5995574487,0.6435618136,16.960953467,67.2828948995,38.2925966807,882.1382640053,-0.2685036951,-0.1342494088,0.5477560007,197.5634741853,90.1708319449,0.9922026626,0.8151748188,0.8969006564,1.3558610596,13.09895992,0.7058084111,-0.0353667224,20.7128762629,1.1885187262,0.6942817288,190.1720700401,16.9703843327,0.1007881749,-0.2649417989,9.2076189213,0.7261477328,1.1454292078,0.0731894288,-0.3718255932,-0.3767372253,-2.7760530457,102.3763945203,-0.6469005803,-0.6597211005,-0.7184646802,-0.5960852721,-0.038287597,516.2981442708,0.1963205243,4.9494155083,2.2835494012,0.4546182911,0.8443137786,0.5872813175,-0.7117015335,0.6026399074,0.2505282916,0.3929853502,1.1156306681,0.8298169963,-0.3304352958,0.3345385964,-0.5906568989,0.6179251504,944.3215276546,4.4496205195,1.1297767618,1.1261372761,0.5881877584,8.8306928843,-0.4921983353,-0.7257628801,5.4222644211,282.4197748958,-0.396009628,16.114350996,2.2111194482,2.726576663,-0.4502183847,-0.0592954824,0.874423139,-0.3840123783,241.369949285,0.2132568672,0.5136808301,39.8935350183,0.0810115627,-0.4950911676,0.6551012693,24.2565352948,0.9516850917,-17.4612441812,1.217334158,0.2816665106,1.2715760656,1.18426298,-0.7622141212,0.3517136784,0.1411591893,0.3798204373,1.2048353291,1.0621645431,0.0317632408,2.1650558338,1.0102111984,14.4374752191,428.662164663,224.9130807918,6.5057454955,0.8435765197,0.8458760425,0.4690213323,8.0318499853,0.5687860062,9.7371467736,-4.1112286477,0.8576282559,0.6552162438,-0.7241447581,36.5578498108,16.5834891501,-0.6635791699,-0.5009581551,0.5356388462,56.3452732692,-0.1466954773,-0.4296508779,0.1416461659,1.5581656977,0.6757220826,0.8687142037,581.1788298448,8.9918503539,0.7685813842,0.6999843803,5.6251605166,-0.6127503118,1.1077368146,-0.6689870589,-0.0681527631,-0.2904985775,-1.2263710497,879.4521544028,0.6069459237,0.0697378613,0.1125465989,0.0097596354,-0.7219867733,589.4926061286,1.3138206078,24.4918932315,-2.5541484014,-0.418389504,0.7372571801,-0.492151739,0.6190743502,0.4976570053,-2.6125228812,0.0921335615,2.6523161087,-0.2121839193,-0.0604903784,4.7064126381,0.5469801473,0.3654600186,43.2166549518,11.7762292933,1.6493713418,0.704234894,0.4219475986,160.159177216,0.0769250493,0.7504687507,9.7984105439,890.8443707912,0.2696861308,-0.8903156306,62.5679485642,1.5448341212,2.1002589559,-0.1908136066,-0.3888186177,-0.1646111292,137.951136289,-0.0989978351,-0.7747000302,108.8536252981,-0.4459568995,-0.2018615541,-0.2748085888,35.6361625193,0.0794635604,-7.350351869,1.5325538415,-0.6702442611,8.1247653353,0.8757361671,-2.4591574209,1.1026130805,1.2106523299,0.1382325483,5.822167093,0.7579612214,-1.0564195031,3.1585362514,1.1206459394,6.6628330414,60.2058215201,27.3084542648,18.5190303118,-0.1016765922,1.0183286436,0.4438016515,164.2925707677,2.0341622093,5.2396013632,-1.2643145098,0.5656368787,-0.4280379756,0.3500734321,18.1973461316,3.6685165247,-0.548825134,-0.0090962957,-0.3849697869,28.5613874674,-1.0463252473,0.9231645698,-0.1272680761,3.8929962108,1.0457563468,0.5485526937,1173.9607353215,57.8817304495,0.5543475037,0.8775797038,1.3796672242,0.2627271664,1.2872351529,-0.2461931063,0.2179689003,-0.7011690262,0.0318764249,1755.4011854256,-2.9420464238,-0.2059498239,-0.3821141872,0.3302571164,0.7594558609,137.0229464338,1.1938972777,10.5099344952,2.6172222582,-0.2017423646,13.0630715928,-0.204370188,1.0254997832,0.7651209233,0.0669208259,0.2600514004,25.6841159368,-0.0187427538,0.0086667443,30.6986784748,-0.4910644495,0.1539682543,111.8984910165,2.8138857518,3.6257631426,3.5301690317,-0.2226042602,35.4483661261,-0.4269809769,-0.013576716,6.4142122594,32.5677863329,0.940192084,-0.2678229154,22.1057255131,0.2721043314,3.4004182655,1.2219396033,-0.1528036825,0.2643261972,17.0807623458,-0.8150433827,0.3651143395,838.0472469086,0.8472799776,0.7916295665,0.8345088684,0.7921193681,-0.3554795141,-8.3686184027,0.9689740803,0.7914564756,0.8352311002,10.2393650201,-0.4404019504,0.343347375,-0.1564565812,0.9477594818,31.1906921586,-0.4854085849,5.2205010388,9.2330553468,0.5590695776,6.1038766379,527.3600693332,23.013303174,5.0786082704,-0.0333458439,-0.416061499,-0.619059648,170.5447579494,1.6286577579,1.9384841721,-1.6647599509,-0.112408119,-0.6550788773,0.6139794991,6.3711176316,13.5612270185,-2.5836107217,0.3444767113,-0.3427192845,34.9806323985,-0.8850482479,0.9667307843,0.1809783733,175.4803005747,0.5939456391,-0.5438386029,794.8717775681,36.9128261568,-0.2152264364,0.8811954466,0.3586697222,-0.1186634633,0.594538204,0.8608052177,0.9316493898,-0.5756542721,-0.6936569293,233.5271279388,-0.3820866278,0.6450616359,-0.1998119021,0.532176266,-0.3434145406,323.1071507567,4.5590700578,44.4250033084,4.7427184763,0.3146823202,0.1213216349,-0.1181887956,-0.8125795832,0.8718889232,-0.3091646522,0.6019800831,3.4460044394,-0.3888559936,0.2251576927,24.3486512779,-0.673928897,-0.8211722599,37.4965517977,7.2182708386,0.7812524256,2.6465353113,-2.589178382,0.4988911173,0.6100126017,-0.4035512898,9.9527287863,306.8805001507,0.5848112782,13.0957873609,46.4753810726,1.4390208998,1.0778226835,0.7379851098,-0.4141365686,-0.0512821743,183.4213211338,-0.4240832149,0.6427181922,109.5188671193,1.1709539662,-0.7349165014,0.2487541668,0.9798696319,-0.7889463676,0.4291907661,0.6649485775,-0.8473161146,-0.1504696633,2.1412564375,-0.3527425235,1.0241542364,-0.4795500182,1.1200253553,7.5899998466,-0.055344673,0.7682914588,17.3438241793,0.4617648021,0.9486143366,153.3413380516,236.6789346745,2.8611415391,-0.0396187927,0.5369228788,1.1072681144,74.4436629536,4.8200265621,-0.3370317917,0.4468759992,-0.766175452,-0.0661426075,0.9942336253,1994.4645391647,59.0725388053,-1.5395655134,1.0197322174,0.2628207187,8.0760586862,-0.7838674147,1.0524879202,-0.2065264619,17.0035755264,-0.6894880825,-0.5377170021,15.8429652271,12.2392918591,1.0245875053,0.331836075,1.4671119417,0.8334354747,0.9344664813,-0.3255983624,0.9212033545,-0.9809148521,0.4371789523,-244.568961842,-0.4219782873,0.9693510145,0.5320958918,-0.2233667062,-0.4873259741,87.4774890348,1.5569534451,5.6586768438,381.6959789075,0.1790707902,1.8810989913,-0.0057930383,0.6373001545,0.8596496253,-0.1315868875,-0.3387014126,2.0336376534,-0.7868262081,0.2113903227,38.2474293695,0.8212297361,0.5473144587,0.7895598722,61.7130095021,1.1256674582,3.1963478527,-1.3726684745,4.013787128,-0.5662563114,-0.4794226022,1.5506699675,76.0868676132,-0.6263938142,-0.4945883767,583.4655238158,0.2795795558,0.0913148305,0.1351350199,0.2678235986,0.6268267494,1280.1607050103,-0.8371721682,-0.3092237149,184.0246520364,-0.3879142103,-0.0297338592,0.0710990321,-3.7447001703,-0.0563644689,-0.097075486,-0.4313567273,1.0406552569,0.9733495475,-0.0881172691,0.3372866672,0.1165053167,-0.1818647977,0.3967901672,11.4672266881,0.1357194863,0.154621443,50.472445096,0.341255619,0.6893414924,444.2837112425,35.1220652858,0.7612370012,1.0639172227,-0.4097969186,0.775948219,1.8331930385,1.8513880474,0.0628303491,-0.6401429945,0.5740821317,0.0013975812,-0.461896959,33.1424933638,452.6067705358,-0.8313554217,-0.2602715179,-0.3016258675,1.4989725416,-2.2307497198,0.5266588126,-0.374573461,3.2623230681,-0.1052325081,-0.7807361519,-88.3362262072,42.2893202185,0.9138511076,0.9297064944,1.1064337684,0.5122230569,1.0191257981,0.4701943281,-0.847748441,0.622651972,-0.7576466165,71.135415953,-0.148829962,0.2837606563,0.6487306885,0.3808263627,0.653288176,612.1506681632,1.1103550233,27.7159532424,442.424365003,-0.1669515454,10.5766862018,-0.3583669352,0.8043578122,1.0179718059,0.2032233518,-0.9356779324,0.5005223445,-0.1601679533,-0.4263905635,155.2279954313,0.9676405022,0.4393863715,13.9797609634,45.0369165666,0.4825005088,0.7349307525,-0.8127798434,2.2553276739,0.197060697,0.0835787583,2.5791440276,510.1986781607,0.3464936618,0.701855934,43.8650392928,1.6767907271,0.9335967718,-0.5105094009,0.3145803178,-0.7197202546,254.2977048842,0.0606261191,0.3123391429,13.9916986528,-0.5262143273,0.8530639461,0.1199862472,-0.8644204108,-0.4218034017,0.9508535931,0.8429081175,0.2398817738,-0.6331590534,-0.6543427849,-0.020485713,0.275189073,-0.7151287117,0.774159878,18.0256411804,0.4623446116,0.9410788353,18.2066703811,-0.5301463522,1.4184941943,685.2148378093,87.2697515437,1.1438486698,1.0521882359,0.7284623021,0.0340578974,9.0462876711,29.801012583,0.3379155244,-0.3808928161,0.3095706104,0.4686607512,-0.3067632624,22.5706734847,62.6032339934,-0.2672467761,-0.3235421132,0.5329686221,22.0170172749,-1.7467810943,0.5217836836,0.4300605631,44.0874422003,-0.5107994795,-0.6444798706,388.3947956852,128.5810301569,0.3484430493,-0.2794705015,-0.5099320536,-0.2221080253,-0.5020375021,0.8059761619,-0.0858576541,0.0716067888,0.9713325261,-9.5851321032,0.0254395142,-0.8470744833,0.1663861943,-0.420502949,0.3512988819,107.5158872298,0.4835019658,0.4852417808,691.5735933549,0.4267177312,1.9967180389,0.8626172459,0.0597254777,0.8354328393,-0.3087148673,-0.7608331483,0.6243255955,-0.5858178791,0.3536667072,299.2088373383,-0.3300267624,0.1794603654,0.9090763039,20.9760608416,0.8095671385,0.7795386441,-2.9847342685,1.1035708737,-0.8617855045,-0.0954871977,31.4950075724,362.646359294,0.3802913233,0.7040694894,1456.8048102574,-0.3834919772,3.3966340915,-0.0111312094,0.2588671148,0.094285536,423.3669560603,0.5306712915,0.3119889896,305.1554839993,-0.4333366716,-0.1291842364,-0.6762508538,0.4662364083,0.1834006622,0.0526839018,0.8849520246,0.3573131728,0.4606575231,0.5314956153,0.0554560393,-0.5365690928,-0.7135212713,1.0702815804,1.8211633178,0.4610124534,0.0425915153,60.9962649886,0.120908832,2.7897938698,364.3319314337,8.5448686771,6.2236421212,0.2745967284,0.2163376917,-0.2009218227,1.7177606305,49.1271663122,-0.4166248451,-0.525544372,0.1139548524,-0.3773506523,0.302531093,6.8777550251,88.9955731401,-1.8544665556,-0.3422356435,0.5008252807,30.9068516083,-0.8200668857,0.4343737579,0.2262493531,0.8178120156,0.0934207499,1.0120328961,1139.2897973722,398.5181508903,0.717049867,-0.7646027837,0.0827304504,0.6669265189,0.9113253464,0.2609693733,0.2600035868,-0.5556756846,-1.950074227,645.117329686,-0.5950675508,-0.2604006201,0.1098400932,0.099367302,0.6844775541,138.5792951669,0.5806689263,34.0162880585,112.8205276893,0.4915732343,1.6213160543,-0.7934030607,0.0442157571,0.0079529974,1.4773962652,-1.2040296492,24.4738996099,0.041850682,-0.2923390798,16.1418565776,-0.7457528183,-0.3938499102,12.2004001872,22.1652126166,2.2047632402,-0.3304179264,-5.7644394481,1.2166979394,0.5515247922,-0.0057488372,11.6020792663,12.7370001095,0.6984268717,-0.3104672459,37.4433522845,0.9374877534,6.2396778334,0.2987231577,0.136368531,-0.0825789353,26.1942514416,0.297385744,1.1438491387,1108.4489492374,0.5278446413,0.3798676111,0.0627926694,0.9730098342,1.0578052283,-0.1608100505,0.1398146946,0.3146831207,-0.3859217466,2.1843415712,0.8195960229,0.7271889896,1.075923181,-0.525811805,14.5538098029,-0.5531800588,0.4192894807,23.1230464154,-0.331720245,1.126761989,108.0995649966,131.207520922,1.2518808603,0.1694145955,0.5438425596,0.4851362751,0.8213295503,128.3274720327,1.9669659442,1.8763867593,0.6222078395,1.0600369108,0.0156057185,21.0972479327,14.992475362,-0.5471520334,0.2747275348,-0.0343699758,0.1729714391,-1.9147523701,0.1687134991,-0.5645447264,0.3650028174,-0.4287738154,-0.7453860066,825.5125161874,128.1330766416,0.2868305807,-0.7329158882,-0.7339118113,1.326902849,0.5545755497,0.4405214876,0.0576954087,-1.1515416019,0.3422706765,1293.6134093942,-0.3551511921,0.0482720171,-0.5304678714,0.0770133165,-0.4438887516,209.697481383,4.5756967211,15.2188525834,35.6545811226,0.0982733639,6.6264142966,0.0473567391,1.0740204148,0.2878109194,0.6008301708,-1.2379020226,11.9887327202,0.3450253285,-0.6624787871,13.681067692,0.6315053005,-0.7705401307,1.1255861191,11.2884553357,2.5153378308,1.306492471,0.0576471429,3.5804526065,0.8361962174,0.7105344967,34.1727836517,477.2258223059,0.7229582231,12.1981214973,818.5940736013,-5.1335377787,3.8914932263,-0.7624345991,0.8845774703,0.4282476984,83.5743789788,-0.4097042694,0.586728269,38.1620350399,-0.180084427,-1.284724567,1.1191784949,4.7413270507,-0.2519554469,3.9265977605,-0.6792977615,0.6433433221,0.3962470382,5.6238757951,-2.388035725,-0.4930252624,0.0003869479,-0.5266247325,34.5107846774,0.5728358297,0.6290803999,4.3627763708,-0.0412181951,16.046340718,70.5513133495,36.0606038907,3.9909641139,0.7492024962,0.1462876081,0.5511950735,8.974362647,94.606192875,3.5254682415,8.4305380664,-0.0786720865,0.2226609191,-0.0040062529,23.5329985864,243.0152537506,0.8680865762,0.532786168,-0.3221548353,5.7927497155,-0.0571271188,-0.504228675,-0.4432521691,7.7053855736,-0.0427670945,-0.5912396881,1357.2266071135,52.6731583199,0.9639277402,-0.1374252444,-4.534787616,-0.0765074963,1.0224046711,1.0139531094,1.0851261425,-0.9020022001,-0.2861718427,1464.347216358,-0.2223649097,-0.4113114238,-0.4305488,-1.2830418584,-0.3544031944,8.1944015401,0.8476701075,28.0350702885,8.0128739066,0.1969595749,0.124231442,0.0698632193,0.1307516182,0.191445444,-1.0572562704,0.4831798347,37.1018440712,-0.0724258202,-0.0586388053,35.7718339415,0.4864891045,-0.4408148979,42.456743166,4.7784153645,0.9133029733,-0.5407185377,-0.4167145188,0.9641225686,-0.7942599844,0.7537110895,1.0566668391,1817.979725618,-0.0848785014,23.5533056717,2233.6456644044,-27.4853157602,0.7310070807,1.0690547224,2.605354501,0.139461712,3.2231123867,-0.8420463939,-0.1860780822,1588.1883297526,0.0088467171,-0.2386454387,-0.0050635644,0.2999125202,0.4080714,2.8046843435,1.0733640398,0.418265444,-0.4386735597,2.672463394,-1.8293339335,-0.4576793036,-0.0834099237,1.0967926496,110.2202248985,-0.0824664953,-0.0806553718,12.2514007815,0.2142549685,119.0089460674,3.7691570631,58.6592529925,4.7704506057,0.0501334329,0.1099678353,0.0057858257,8.6897366775,3.4863486158,4.7671879181,78.342290344,0.9989756123,0.1033931147,1.0230476715,86.2493854755,21.07753044,-0.7493273258,-0.025277564,0.4220830123,78.2025554449,1.5878917577,0.4878191142,-0.1474304496,69.1227083088,0.127275141,0.9599427932,330.7804094355,127.3576190836,-0.1149216075,0.7398968423,-1.1470677372,0.8801406587,-0.9094254138,0.1056871217,0.1722259843,-0.2372614566,-0.324410825,948.9406474954,0.2004852543,-0.6370232644,-0.4336385459,-0.0717762443,0.5803435794,128.4854690787,0.6978847594,2.5911846104,25.040021587,0.1572860417,-0.1780713656,0.4143018784,0.3969315831,-0.696466319,-0.8234006277,1.0198074604,12.8704321092,1.407747906,1.2368247009,35.3721775487,0.0607263112,-0.0139087516,7.1758918386,3.2041790026,0.8590114687,0.8045759543,0.5154481365,10.4266719869,1.6678433245,0.9242499861,5.1545291409,52.8862332474,-0.7354332864,0.5803290712,1513.4513237659,-0.2857504428,-0.5804103476,0.9129769569,-0.0147278695,0.4974946495,66.3027748888,0.1140358371,0.3434845444,710.0642818539,0.3236724887,0.0682011647,-0.6427307136,32.5549199488,1.0730024086,10.3781246949,0.2268219549,0.5462199006,0.2640543668,0.9201217754,-0.3480770014,-0.7655147422,0.3624885595,-0.2970452859,33.3234842639,0.2525101807,-0.2471718256,2.3857560901,0.0907548099,572.833533443,7.8391988239,44.1135322558,2.1785469975,-0.4185758511,1.1481564469,-0.4835774784,5.5155349609,31.8416898346,108.7291176098,82.6206515701,-0.3856086363,0.3239911386,0.6517487478,72.90530693,137.8673709642,0.2747131283,-0.632447387,1.5486204236,35.0460192257,-0.6623283457,0.1732117986,-0.1187526555,6.3338627801,-0.2173995169,0.5307498103,438.614215313,9.8741980679,1.0137393723,0.4914291439,-1.5548816478,1.2101173771,0.3602408128,0.6530358355,0.3648304239,0.4572145107,-1.0500820351,69.4210608967,-0.4927882204,0.7762543655,0.8771853298,0.860009596,0.3002899999,115.0624194383,-0.2868480089,3.7748769367,24.7025607838,0.3994426497,1.3288314383,-0.8801184213,-0.4797693862,-0.2664139402,-0.2213807811,-0.3900817882,0.5069024457,-0.4012648835,-0.7628559942,3.0696578657,-0.3745523625,0.7395064391,106.4569880583,12.6708347161,1.2298250472,1.318481005,0.6139722205,8.0723107581,1.4885406941,0.6015233781,5.5290265117,47.3839174519,-0.1432101589,-0.5210547969,192.4101109907,11.3702940044,-0.7497706235,0.5771485339,14.2533857966,1.124139664,49.6705405125,-0.6363968407,-0.5643991002,91.7327776298,0.7568459556,0.1050359588,-0.5135327965,33.3530333013,0.5704421457,15.7032567927,0.4724762256,1.9259705093,0.1485154313,0.8694432451,0.857118362,-1.592150742,1.2062580364,0.9480696233,0.5317048522,1.0054343912,-0.3546116373,0.3932224172,0.7750405725,75.8609315567,4.4523299603,22.3264973314,3.8765481328,0.0230715054,-0.5967237602,0.2358552306,9.9328907564,5.8187671738,506.98083536,12.7660214137,0.7897225988,-0.6934996823,0.667100084,45.1064185916,23.1917660046,-0.6150033421,0.8644606178,2.378986428,179.7373775945,-1.1629769536,-0.6683268184,-0.7293778464,2.1780442725,-0.6524635914,-0.2097853867,237.6070207683,40.2765294777,0.3455269135,0.5204358496,1.7322881973,-0.6077210664,0.693460256,0.0597582655,0.5005227208,-0.4276928651,0.9600999666,198.3468141891,0.4721479017,-0.0809792398,-0.546358482,-0.6817767562,0.0244703919,7.3384983045,0.2834924748,15.2415962741,0.3277208503,1.1017816791,15.9090662215,0.3143212096,-0.3225658012,0.7213951388,0.1740459153,0.0627130935,5.8427144524,-1.0675718326,0.8245543672,22.6638316129,0.71826078,-0.7814946972,38.80038967,1.6797170105,1.8817648162,0.1759835435,2.0747172951,12.8034865111,-0.0970835231,-0.3263054435,7.0976491369,19.4261765231,0.0007824285,1.8916396756,44.4162426477,502.7590320365,1.0935716295,0.9174417572,9.0100733859,-0.4973976786,14.1163926387,0.4267669847,0.2544148014,239.4038771345,0.3420110559,1.3701403022,0.4695498576,113.2456835953,1.096181262,35.8748491999,-0.3694188437,-0.7593130118,-0.4377184881,0.8537354242,0.7534112065,0.7686144322,-0.1221201038,-0.0405655634,10.7178874159,1.0311897025,-3.5498137699,0.78190085,0.7237665563,291.0621007444,53.9832234463,96.9097089103,7.4653692387,1.0204911935,-0.2707788144,1.0321359964,36.2931593118,6.0446676712,1654.4216945399,92.8927282597,-0.5992485466,0.2403368006,0.612839509,111.4068040307,10.749779103,0.2311396579,-0.3856746124,-0.6922174536,86.7851372472,7.3137472704,-0.9516583711,1.002587787,49.648046156,0.724795453,1.0003370893,229.1526551289,0.9592097953,0.0191776653,-0.4290913724,1.056582428,1.0032193493,1.613891772,1.9646501961,1.5661290397,1.8725587436,0.9969032075,1.7074771754,0.9261858504,0.4843821834,0.8399128714,1.9446509153,0.9410793198,1.7919638872,0.5936568033,0.2746714084,0.6459105371,1.6342613806,1.1460226609,0.3887509295,0.6671516604,0.6603226403,1.2083793923,0.8915004911,0.7027747662,1.4179940807,0.8575645013,0.4355909965,2.2510911613,2.3990934681,0.6370687291,0.3222330334,0.5619959671,0.4799885226,1.9642115169,0.8763339765,2.1598925533,1.0413593561,1.6114109423,2.1218657093,2.0868645161,0.7414294391,2.0169549944,0.4347576258,1.1244347594,1.6298701817,0.7410131696,2.0175959696,1.4457093828,0.6123872774,0.2831860772,1.9165580672,1.6324830707,1.4390291436,1.7621990766,0.5560038874,2.2178439354,0.663188033,1.5915893993,1.6919466627,0.3388667806,1.9089402341,2.0197996378,1.1657975032,1.2888915202,2.3639374052,0.1081562384,0.8692200292,0.290843891,0.2660543724,1.8887341387,1.2820536853,1.742303713,1.2103749193,1.4358571845,1.3394592887,1.2131737142,1.9533064441,2.0962368073,0.191681074,2.0968834813,0.8079634896,2.0485162094,2.0946818897,1.9260550424,0.8651563547,0.7485174816,1.6255853416,1.2470129815,0.5447872115,0.24044252,0.7074114251,1.3400477754,2.3318778671,1.0411031872,1.6775374299,1.0897626725,1.381850883,1.1307145406,0.5650448086,1.425011441,1.0406894148,1.2653546325,1.8925202441,1.9577385992,1.1707960875,0.5801215518,0.4259801061,0.3753159559,1.3657026762,1.7063090371,1.785071126,1.2116004252,0.6183584539,1.1301655755,0.4091595418,0.2013101001,1.3751305319,1.2239506762,0.879255998,2.0122287776,1.519376063,0.1879366385,2.2104393165,1.3390397789,1.0022330444,1.8709039677,0.3750139499,0.3012184967,1.5111922987,1.6310493972,0.2657796899,0.6851983827,0.4537437053,1.1247580658,2.0343825351,2.1544761388,1.1510600657,0.6888649382,0.6769582516,0.1783939879,0.5614966622,0.1722933799,1.8291362641,2.0636417968,0.56207559,1.6525311468,0.1332380043,1.4437166044,1.0290409712,1.5251909293,1.0068731806,0.700345387,2.068355421,2.091290568,1.1753050718,0.4223661992,1.8750403359,0.7834654207,1.5692837981,0.8812129473,1.9118687528,1.6127358263,1.3542358075,1.5977236449,1.7736281951,2.2474719394,1.1791084281,2.1148066777,0.7626381733,1.797534579,1.4476402795,0.493714352,1.4361362519,0.4152873355,1.7506185951,1.2841330861,1.1616854668,1.4785166636,0.7955105531,1.578011071,0.8906388864,0.5462046824,1.6087750581,0.6070537811,0.7048353188,1.2076867262,0.9130575369,1.7050509954,1.3899458643,1.1467599808,0.1707583806,1.1856246899,0.8691231919,1.4663855118,0.5839717807,1.6415025412,1.8804165985,1.7189958112,1.0478852086,1.9169911951,0.7121759186,0.3963397258,0.5980276712,2.0565817581,2.1006823985,0.7087645023,0.8520356999,1.9677425676,1.0688881217,1.6650853667,0.8459495302,1.190336609,1.6695488598,1.922373538,0.8650963738,-0.1047086841,0.7182309211,1.8178053029,0.9948696286,1.6032729749,1.2667448366,0.7185949893,0.3709700936,2.3052200529,1.7844272086,2.0860625244,0.8770696811,2.4625439377,1.0671638076,0.8802713031,2.466593726,1.2640445182,1.696322317,1.8134702383,0.9328089961,1.9668982408,0.4840382106,1.8074841537,1.5851802434,0.9246481553,2.1438603895,2.0682735087,0.6419427472,1.1417164472,2.0701681303,1.6542768206,0.7241356955,1.4589813516,0.7395581859,1.3943227759,1.1631311472,1.9236078785,0.3266991704,2.3702727839,1.4164955112,0.926272431,1.6269361792
   1.030425036,1.4798059425,1.2561153358,0.3747716622,0.9688044064,1.2672131467,1.3825321094,0.3984412718,1.2689582499,2.2454914369,2.0946298428,1.9253007119,2.184131746,0.1598407896,2.0367903301,0.8895566048,2.1520336103,1.2252076068,1.7389370952,0.9500756372,2.0586317304,0.5024037085,1.0963030769,0.6696798115,2.2119060185,1.1834479445,1.8401732259,1.2543156285,0.9368062491,1.7478340648,0.6978829745,0.817549551,1.6165462285,1.1963697847,1.547824565,1.8522871123,1.0645392996,0.6578282756,0.1899946339,1.1907517759,1.8998904816,0.6442759682,0.5992202507,2.1026220026,1.8615159533,1.4569181566,2.3769318381,2.1503415548,2.3466331543,2.4598992592,0.6735178404,2.3572198668,1.0723500864,1.289656583,1.8671581038,0.5214525325,1.0935711681,1.459213388,0.6323829437,0.6091484471,2.1221882396,0.6715813405,0.5729307434,0.8972341675,1.8722400145,2.1255715864,1.4946840628,1.7933354062,1.5385139658,0.7732712662,2.2512720276,2.1830049783,0.5673827859,2.1706833553,1.7313040951,1.6231215521,2.1397074472,0.7454048523,1.9011765126,1.3761669293,2.3726486865,0.6074034129,1.9488025961,0.2440333846,1.261344089,1.34897554,0.6566739878,0.823230191,2.4429914191,2.4084367914,0.6420825054,0.2163166758,1.4762440164,0.6408267154,0.5825844774,2.1065557266,0.7197786481,1.6260971287,1.6097865225,1.7533085188,1.2083393622,1.0012579399,0.5438138167,1.5531386667,2.0881181734,2.3037944588,1.9340283123,1.9564569678,1.2611525988,0.6594216949,1.6436925847,1.9081925837,1.0429457274,1.3380547444,2.0183630332,1.1479442313,0.8243299272,2.3050650352,2.1500696458,1.245610293,0.9886321832,1.5168998613,1.095190929,1.6934021246,0.7122355593,1.5262705487,0.7660369347,2.4071845173,0.8576795576,1.158217279,1.3060802545,1.6870342333,1.7774146088,2.0440089462,1.3400328009,0.9411898326,0.6886078657,1.0254905267,0.6056564706,0.8607193677,0.7438571253,1.2227864673,1.7560686227,0.971161419,0.9741803069,2.2123385987,0.146223024,0.1762705085,0.9320306123,-0.4249855281,0.2524894606,0.5973090655,0.8494435861,465.705514018,0.4261665225,0.4136184958,0.2134661667,0.9390105592,0.8789551461,48.6346032594,1.658628178,13.8762236969,1.58914098,0.203636764,6.0776623887,0.581458613,0.502731506,0.7551210271,0.6169319697,2.8927059216,1.1761335058,-1.2105089616,0.9416507923,1.3655383232,0.3754397957,-0.5399658903,154.4638094547,0.8577020742,1.7097168521,1.7018891984,1.2382002197,14.7931198644,0.4412940566,0.2851952424,13.1195246586,16.9233725752,-0.11905057,37.7987524869,965.6536881248,-0.3137884656,0.3217968174,-0.2174443594,0.1939148019,0.286890318,46.6290199553,-0.4928918244,1.0661423524,106.1608563873,0.1438636379,1.120196223,1.0968541134,0.7743165308,1.1730551845,17.0046959748,1.0371279815,3.945321088,-0.9469601543,1.2017041546,-7.0982156858,0.0632725012,0.469214167,1.1311206081,32.4084413703,0.4519060858,-2.9282300554,1.6438758806,-0.017312966,-3.4133000461,25.438342444,221.351426812,21.4491197218,0.9706766259,1.081247459,0.9509892378,44.0614635224,3.0541328504,-0.2394180446,1.1472740054,0.627341828,0.7546136008,-0.4640151435,278.3620180857,22.8263578659,0.42711169,-0.5989215389,0.2043116663,62.0065015221,2.1049192682,-0.5155952396,0.3125094471,4.5720736959,-0.2081148412,-0.5746100359,31.7670737864,19.1897045167,-0.3968686087,0.1330300899,0.0631036457,1.0556265882,0.6637773012,-0.1042924914,0.051424662,0.3223385139,-0.5078699387,1663.8995143714,-0.1026977831,0.5678345216,0.4091654419,-0.2084276043,0.3128362531,142.6982016009,3.1011708853,4.4739405748,24.7744605067,-0.324636222,138.7336201593,-0.0693773661,-0.4577668004,0.1546554151,-0.0259466454,-0.2276153245,3.4819190286,0.9691027789,-0.64328771,14.1786102608,0.7084359066,0.7634077817,7.4232748176,63.1199645055,3.6686079737,1.3983196762,-0.0966534853,14.21176438,-0.5651838555,0.7674147643,23.7218188263,859.6212952746,0.9069308729,13.9487058056,75.8847667826,-6.142947244,0.0490630442,0.3234313996,1.875001994,-0.1818049104,27.4171365173,-0.2299777216,-0.5854142908,109.727785399,0.5041947309,-0.3864499288,-0.4056004832,12.7297318873,1.1578212552,3.0812120163,0.7683140408,0.5817661889,0.234217195,2.4757236126,-0.645929993,-2.1683240825,-0.1296045646,0.9449005649,26.0977823229,0.157799626,0.6148703224,3.1674927214,-0.3636437101,-1.762259011,20.3845337166,365.9461458922,6.7709505554,0.696542344,0.9710213526,0.2354273357,62.8689728353,5.148242426,0.5870759603,5.5563490533,0.9957594593,-0.4873324091,0.4035132747,96.9502627188,13.6423034826,0.6579714745,-0.1370987899,0.7088874021,1.1991915545,-0.4505318112,-0.115320115,-0.056706565,9.4511374922,1.0416618905,0.4344743311,722.558170655,11.9201974595,0.1596121422,0.9243940861,0.5134346073,-0.0118403444,0.2991858936,0.4135770801,-1.1695301624,-0.6567439246,0.1421057995,1051.6617525807,0.0002037384,0.5142221027,0.1537982032,0.6636244449,0.9867954356,121.5456987558,1.9918067516,36.7769267477,21.9420924203,0.7920738217,-0.3870289929,-0.2670738056,-0.4754183802,-0.0514774745,-0.7021393236,0.5487247834,0.7708643068,-0.3287956485,-0.4626228348,78.9998761621,-0.2216520875,0.1355128788,15.8388408573,1.7091455482,1.9731403445,3.1262709198,-0.9860602494,46.2055836269,1.0751707495,0.6189201169,9.6943216551,53.1536097956,-0.4268699628,-0.2906892305,217.585682817,-5.8675685205,0.5827818224,0.9815932608,0.190649661,0.431579836,198.7381916229,-0.0078374553,0.6395873799,921.8382671697,0.8098469841,-0.3294302586,0.2579582781,5.5073764765,-0.6663969402,3.0846990281,-0.0189529616,0.6263714078,0.7888025733,2.4362908022,0.6288512411,0.1719926381,0.7373962983,-0.5231984213,229.9374707464,-0.3695858483,0.2341600908,1.3004539329,0.8218197342,1.1011481265,20.977727,175.1736701079,5.2229216436,1.0199831226,-0.5534702102,0.9945042553,6.9775480521,2.2401540502,0.5136490137,16.9924998175,0.2985430308,0.180289537,0.0879171131,114.2109202058,17.2878974863,-0.618371083,1.1349042764,0.7868340595,31.9020393842,-0.3815194821,-0.7912278939,-0.6100897189,55.0274725519,0.8993760279,0.0979607287,681.2234621697,38.0132738168,-0.3673941476,0.4456161598,1.027955617,0.7875786917,-0.4573549695,-0.3008346129,0.0610081427,0.8800087137,0.5604808463,2044.2178472615,-0.1635016551,0.2551316996,-0.3866630849,-0.1080555827,-0.8855544046,64.3383462289,2.0761365991,3.1016538252,18.3170645531,0.9982782318,6.9160722286,-0.777409135,0.4724432233,0.971931693,-0.3412486296,0.3021855776,2.0252641917,0.0556557919,0.6267887048,27.9660086913,-0.4160352314,0.7106551197,4.5409255498,33.3672871526,1.3531215223,2.9549945032,-0.622907972,28.0692189971,0.4174177046,-0.2796268996,17.392917018,216.6191320081,0.1394089118,-0.5450545527,15.4944990223,-0.2586904099,0.2827630738,0.6475299297,0.969557394,0.1014096788,1319.4458331672,-0.2759495404,-0.2128326655,106.950089035,0.0017814065,-0.0682392105,-0.0259119094,-0.570488873,0.4831314514,-1.2140821306,-0.3257436873,-0.235291487,-0.7272860634,-0.4990433566,-0.0386041892,-0.1476954294,0.0192686561,0.8323842925,0.9557232581,-0.5386714181,0.6008644099,32.404042478,0.9289823497,0.6754109884,9.9970794554,2.6046093201,2.6610274136,-0.0866678198,-0.1975383586,1.1089221879,7.4046623688,6.6896272125,0.6635996066,2.7410587564,0.5021514822,0.37736838,0.6501647835,31.0210112411,947.8492797755,-2.9145441989,-0.2090032567,1.0101360207,41.3172873312,-0.8194123192,-0.4587876495,0.5727463528,13.8921467552,0.651021239,-0.5865743954,887.3252027681,3.7384950445,1.1484806972,-0.5171840053,3.0108403588,0.4905141916,-0.4855916629,-0.1589462415,-0.5475565585,-0.2719621823,0.6905796765,886.3327984367,-0.5101172802,-0.3339885392,0.3139835992,0.0831027716,-0.6074654629,51.6244958657,1.0269272582,11.7637063147,5.4367860041,0.0980479288,6.8582477625,-0.3821757824,0.2538410392,0.1461834571,0.9950327618,0.7077221547,36.2566884974,-0.5166362283,-0.4372888129,-0.3724258401,-0.1787687782,0.5387419228,1.1647530826,73.3276688923,1.4785098468,1.5692131197,0.5300028814,-0.5715939611,0.3335185237,-0.8416135926,52.8198041923,1055.1130417207,-0.7862091514,0.8609571521,-0.3716163909,-0.7371248864,0.8735794511,-0.8154694056,2.1745481115,0.4827148214,1374.9375425467,0.4032610511,0.3816887697,105.7918108295,0.2727088565,0.4440595201,-0.693349054,89.5457461196,0.8324961,-0.1661925008,0.6128118971,-0.3332276104,0.7731275654,0.9664738498,-0.8693724116,0.5709547031,0.8715429585,0.8178223575,109.6536396248,-0.2214392887,0.2830857998,21.3130960995,1.0027067035,0.6874808595,70.833257326,4.0620583602,1.870064674,0.5089226535,1.0664406737,0.706298191,10.4211189761,2.4442855134,0.5036749172,0.279092983,-0.2306060232,0.5888998523,0.197194069,4.9659325785,1384.2645422756,-0.8731378803,-0.2684410505,0.0148935973,-0.5166073178,-0.392646481,-0.1279221469,0.4950229681,252.7056646882,-0.7396128055,-0.2901437453,1471.9172405034,1.3337613677,0.490153915,0.1993319658,0.0004167221,-0.8063355343,-0.0822058744,-0.1192304103,-0.0948385879,0.404584697,-0.1226906546,37.1469545538,-0.273212703,0.0634469268,0.6766349041,-0.2177194838,0.3919317827,195.4361411557,4.5801863568,2.0598532073,1.8888729126,0.2096603229,3.4517428129,0.4524092656,0.8937660243,0.4354368725,-0.4308197659,0.378991073,1.0672531096,0.0535121147,1.0393794612,51.9294598345,-0.3158691381,1.0145487235,105.6609404955,6.3884422845,1.2181120768,1.4823267461,-0.595836623,-0.1007477892,-0.0303730127,-0.1145932111,2.6562463817,130.6412599598,1.0853312884,0.3405249026,198.785720816,0.8709255835,6.4604050467,0.3069253643,-1.0691105417,0.2115705492,37.0347648586,-0.3100513439,0.8635055468,885.7583819539,0.3297548948,0.1372289104,-0.9134780991,1.1080545117,0.8802665289,-2.8223229774,-0.8189853169,-0.3589264679,-1.1557764737,0.9041654089,-0.3859837166,0.2830374094,0.3231950939,-0.4917326282,1.2686107161,-0.7842453831,-0.3303274016,8.9809363014,-0.0584944795,-0.7133293544,26.0864794707,1.9290567181,0.6711792138,0.7428770992,-0.4982213527,-0.5510782161,-0.1746192508,2.4414803076,-1.3938384258,14.4674039048,0.3963170547,-0.7894541023,0.5027176544,70.4755811437,74.0966977209,-1.327267975,0.0944360345,-0.5177571477,3.1639616144,-1.0324448848,0.7228927835,-0.1660711389,6.6730764404,0.8952810241,0.7734053368,598.186628408,0.7820407101,0.2923066572,-0.7069824362,3.6165516545,-0.7366832385,0.637724821,0.0501653401,-0.1747755031,-0.1235464714,0.253074623,-1.2141406073,0.4899160902,0.0177084578,0.970460559,-0.826841512,0.4303206269,-0.5336094436,0.1111790568,0.601802126,0.6951770695,-0.0728666464,-0.5071298181,0.9238373796,-0.7926757902,0.1378364369,0.517957515,0.53667802,0.4290283799,0.9884774251,-0.0638110636,0.6151632134,0.6143994996,-0.6432729643,9.4914943475,-0.1982531349,0.2196885351,-0.3269323613,0.3185398281,-0.1276996631,1.0715732011,-0.4293282619,1.5267601941,-0.8707492072,-0.1743634176,0.4802795736,1.1467672201,5.5281911836,0.7881496205,0.1615001692,-1.0956669382,1.004961372,1.1723872085,-0.1732021506,-0.7628324669,0.5337992407,-0.5433360055,0.9107988828,0.1132063542,0.7728953485,-0.0559862379,0.3637685842,0.2167501411,0.1744986835,0.3049532595,0.5660360204,1.0853552097,-0.432122513,1.0457217215,0.142550792,-0.6254216834,-0.649630069,-1.1550413045,-0.3705819481,0.9959816286,1.1825130748,0.1359757444,1.3793994338,0.1141573907,-0.6548580806,0.9072496699,0.9007461858,-0.0657081024,1.4420816384,-0.1954415977,8.1137932309,-0.3359650859,0.1781924843,-0.2918117494,0.3844439051,9.5863217498,0.469635627,0.5751136739,0.0319398627,1.1406529022,-0.8705715384,0.0836415744,-0.4752382188,0.5241336777,-0.1968255956,-0.771887477,1.205987316,-0.0301506136,-0.3087704412,0.0960759869,0.7500689095,-0.1619389363,-0.3288979725,0.8656883688,-0.7845217619,0.8030374108,0.6546697677,-0.1180736323,0.2161699105,0.3187495211,0.1588145565,0.8404235629,0.7292032327,-3.2332300027,-0.3967986058,-0.3444183063,-0.73835029,1.1265553008,-2.0192239242,0.9593952064,0.1247106662,0.5853037673,-0.3826688498,0.4431459309,-0.8708189876,0.0363126957,1.0126469463,1.0744366581,-0.4362126087,0.540663701,-0.2238554532,-0.0947933298,-0.7481204596,0.1473327154,0.0520802245,-0.4452766856,0.684138781,-0.5826936994,2.6680820805,0.0625279908,-0.6756824474,0.9098308705,16.8576839906,1.2405453555,4.2753257602,0.048797903,-0.1834354729,-0.7832705072,1.0979341688,-0.7060366024,-0.628020883,0.9797772977,-0.459681571,-0.547258177,0.8187620025,0.19678004,0.4610633295,-2.1364618918,0.3670175502,-0.0508306337,1.026113404,0.792275336,0.384364684,0.0182618745,-0.0011971281,0.0277735346,0.581388308,1.0205788887,-1.3242706824,1.0668867707,0.0582667233,-0.1548419688,0.6307033903,0.3374143096,-0.4380225925,-0.40188974,-0.6722662586,-0.5358859572,-0.394641535,1.1603370277,0.7342627242,1.1632298604,-0.5830053497,1.0432599732,-0.2024183794,0.6205094219,0.9786206049,-0.7375244752,0.4091872486,-0.5055300131,0.5237775134,-0.186160887,0.5191531015,0.2701268297,-4.5484416288,0.8922231545,-0.7208066481,0.5658652119,8.9950110773,-0.2194310617,0.1204066544,-0.0744502596,0.7187039874,-0.525406837,-0.7940630315,0.3877803191,0.0679372343,0.1655591517,0.0628117535,-0.6838184779,-0.490301103,0.0951584165,-0.3645044629,-0.0940482559,0.6231649862,-0.1549659507,-0.3513167226,-0.6702267833,-0.7149422226,0.7348155246,0.3750823354,0.4316332509,0.9526621431,0.6273570808,0.5574100397,-1.0364670228,0.2416373922,-0.5046828162,0.8913484112,1.0667387007,-0.4448180945,-0.75188776,-0.6663687111,-0.4637380314,-0.7468895751,0.5936742877,-0.2552323539,-0.3498827135,-0.0842732894,0.6427766117,-0.097446918,-0.5690406563,0.2628083977,-0.0972923923,-0.040698267,1.4685828029,0.5772630518,-0.7566706927,0.0472738217,-0.0853799683,-0.7880829394,-0.6420765644,-0.5574884799,0.2686830593,0.3359711032,0.9751201382,-2.1592434769,-0.3123599912,0.5984568899,-0.011454791,0.5407139631,0.259336579,0.9314752167,0.5364867773,0.6634434293,-0.0261046165,0.5892448582,-1.9494558498,-0.7214635307,0.6898631437,0.4309599313,0.2099164805,1.002030492,0.3690216663,-0.8345448268,-0.5533036921,0.8312012795,0.7031382783,0.4279031886,0.025589636,1.1011706865,-0.1279453437,0.8024175976,-0.5781713042,-0.1871548593,-0.4305019874,-0.4162545493,1.2574609895,0.1806212007,0.8210624617,0.139888609,-1.1221745656,-0.3708217485,-0.6652364266,-0.2737358186,0.5719541741,0.8753644397,0.2186731976,-0.351563603,0.5735473133,-0.6860779122,1.0249604336,0.0406082134,-0.3153349938,0.4987725481,0.1306167381,-0.1316382013,-0.6718052637,0.5704010484,0.5059631473,0.2272704638,0.319033006,-0.812297502,-0.0446984963,0.9412167378,0.6787044388,0.5715229372,-0.471157234,0.7784494857,1.0425933153,0.7473470186,0.0756722753,0.5019585323,0.6097486172,0.4107901547,-0.8678258264,-0.2376623003,-0.31791646,0.0558960038,-0.2673206353,0.5947928455,-0.9728536611,0.3892072561,-0.1362179377,0.381879645,0.2799077288,-0.073857438,0.4370676917,0.3713363125,0.8592891492,-0.4289543291,0.0396254965,0.4385766684,0.2526450127,1.2420017783,2.3369719724,-0.6684590443,0.9477581771,-0.2153324664,0.1595331611,-0.6010997544,-0.0207467306,-0.3960708085,-0.1313500471,0.5219537357,-0.0051321166,0.7295956704,0.6972653913,-0.5948292438,0.5141654053,0.1070500035,0.9757705894,0.334139677,0.2611376474,0.9373638696,0.5395269223,0.1760464392,-0.6484379794,-0.0077097068,0.1974068442,-0.7794798072,0.2259827663,-0.4573428932,1.2250483569,-0.1115787501,0.1522121201,-0.7145690713,-0.4288438946,0.3883422865,0.4339610136,-0.0444305867,0.5367969823,0.9041800024,3.3989895153,0.5649776611,-0.6063833273,-0.6124214687,0.0993814541,0.4756470235,-0.6910404552,-0.6773880857,-0.4494581867,-0.236892539,-0.4980327533,-0.5138583553,0.926511809,-0.8150519327,-0.2419883334,0.6909462884,-0.6420347331,-1.2526899774,-0.9605427998,-0.0562254041,0.5675147527,-0.0004021308,0.7025641324,-0.37349476,-0.6429479568,0.7700253322,-0.672319742,-0.508057971,-0.2477848545,-0.3177348626,0.4477639404,0.8712055899,-0.5001501178,0.4566020646,0.6467936174,-0.6894793733,0.0085689274,0.5542563175,-0.1837583055,0.1833646626,0.3971989226,-0.8547740089,1.1272541124,-0.3504158053,-0.1865795712,-0.4034921915,-0.5131267765,0.1610383277,-0.7724160592,0.5512922226,0.2881339551,-0.9147935922,0.3123371249,-0.8588336467,-0.9634993166,0.7313713056,0.7652729785,-0.5644201429,0.5065202603,-0.5614434456,0.6951772165,-0.4902832222,0.0918172596,8.7671072433,0.7858096129,0.6772544241,-0.5751456783,-0.2636152712,-0.0534743578,0.8593333222,-0.9183284106,-0.1403072249,0.9305012221,0.8868505827,0.0818990263,0.5002322974,-0.7841696685,1.2929378124,0.2389758975,-0.0840635538,-0.1461969742,0.3792172114,-0.0266154174,-0.8558870815,0.7872057463,0.8743820301,-0.7603880138,0.6894553245,0.5743326131,-0.2135196263,-0.2717692254,1.978508057,-3.0230169465,-0.553051057,-0.4214171044,-0.191739543,0.4593176101,0.2975661823,0.7697732612,-0.732098012,1.5657620154,1.5303101367,-0.7851822311,0.2941135128,0.4373698667,-0.0503510835,-1.1731159305,-1.5362321251,-0.7468315471,0.0039910359,-0.1487624299,-0.2909871035,0.9689983203,-0.7703542629,0.6668651761,-0.1728105078,0.9049720407,-1.714283233,-0.1374229813,-0.5763065721,-0.1574555269,0.2634174401,-0.0946875639,0.9205436681,0.6986201201,0.8704631409,0.7528695012,-0.0906885919,0.2191825349,0.6682181996,0.046158991,-0.8500965096,0.4694618567,-0.0217048357,0.7153824911,-0.2232261438,0.3942392448,-0.2415302706,-0.3076383878,-0.3379848078,-0.2513157763,-0.0535420554,-0.0402796105,0.6178629706,0.6302741242,-0.3461563058,-0.5785046333,0.2261962779,-2.6860785457,-0.7453421809,0.1795025612,-0.1199958111,-0.0713880155,0.1036927092,-0.7693462558,0.6185627622,0.240571497,1.0225739804,0.2780146038,0.668607481,-0.6748329085,-0.0249575832,-0.1675184039,-2.0567652746,0.5118114508,2.9076916121,-0.7095388068,-0.1362300133,-0.8825467596,0.1428093848,-0.3400828413,0.0952837315,0.7093042841,0.6578726923,0.0846437751,0.4993850214,-0.4758336623,0.1481154623,6.1779524622,0.6276734495,-0.57048228,-0.5245117914,-0.9870656482,-2.5128050969,-0.3211122213,0.422733817,-0.3021925042,-0.6105251293,-0.8422634166,0.0177455813,0.7323210496,-0.5115648255,2.5121545464,1.0970298694,0.0977259546,-1.1180320817,-0.8474139953,0.554709338,0.9066658564,0.5998091749,0.5448869923,3.0198379771,1.8663138955,-0.2472469139,0.7818240283,-0.1693371818,0.1268971332,-3.0914762981,-1.3606344954,0.3013441287,-0.2253021504,0.3282001973,-0.1611535805,0.4978605437,-0.6548563229,-0.8550007197,-0.2791526224,1.0201587219,-0.2354275017,0.8950824783,0.7732409712,0.4045619012,-0.5897395026,-0.8101508542,-0.7072154614,0.9788749226,0.5744177639,0.6367952513,0.2807849616,0.8856672043,0.9197901512,-0.6154137085,-0.5851520083,0.3369876579,-0.8213227131,-0.6289321628,-0.094767782,1.0665161238,0.8535373135,0.0543644716,-0.560995852,-0.416961246,0.7853352406,-0.7748779981,-0.7440422995,-0.6538485127,-0.3401243594,0.9421830245,0.5554344699,0.1636766328,-0.1822970332,-0.8674844606,0.2780336599,-0.5698852715,1.202201292,-0.6004173128,-0.7869743086,0.9391804399,1.1401755204,0.9634966158,0.9766223428,0.8705897519,-0.4182048372,-1.4903500037,-1.554487017,0.2589079999,0.9517576513,-0.7044621266,-0.5814291623,0.3341443412,-0.4345652618,-0.1117563424,0.6596247477,-0.431396393,0.7291499689,0.0611478969,0.3555199263,-0.0545717907,0.6938065938,2.7309351945,0.4751442646,1.0893291598,-0.5937133678,-0.6952231988,0.3903160535,-0.1946832426,0.3028685316,0.3515382554,-0.3101523015,0.2363353371,0.2072567976,0.0838835217,0.3572707342,0.8378518252,0.7591109385,0.4195008122,-0.7806220189,0.5448721858,-0.0638107803,-0.3064931918,-0.1444247497,-2.1589117301,0.9147785224,0.9423552402,-0.7899799391,-0.3506848069,1.0632072552,1.485635316,0.0487499656,-0.7210995879,-0.1630588895,-0.5538148063,-1.0190046474,-0.5142740949,-0.0288142154,1.0151424463,-0.2782604988,0.6688307501,-0.5709467537,0.2650198841,-0.353313569,0.9158286879,-0.8294773754,-0.8985163577,0.7873432055,0.2625385645,0.4970410647,0.547918348,0.3836740622,-0.7319780534,1.7173767611,0.6333071971,0.7153342826,0.7192294705,0.0149041047,0.9566253995,2.2160809656,5.1933224056,0.3871237001,0.7281265488,-0.1376727525,-0.3881518183,0.3850336862,-0.7014612729,0.5446377943,-0.5235060683,0.696771651,7.6998890951,-0.6825507298,-0.7977043689,-1.2631357722,-0.7126401154,0.6798318698,-0.5888192435,0.4699904577,-1.3451392034,-0.2411761279,-0.2461277705,-1.852544734,-0.287594275,-0.1406269477,0.0318723102,-0.2767020163,-0.7745195977,1.0943573401,-0.0731356348,1.5535832176,0.3768681639,0.9634001126,0.8052451394,-0.804702048,-0.4018774459,-0.5891776399,-0.6867900282,-0.2898107651,1.1260901531,1.0694379014,-0.2584106482,0.6293103431,0.6398326752,0.9942731249,0.6095426327,2.4382803985,0.1603575727,0.7549102666,-0.2715134503,-0.1308392853,-0.2795292326,0.5801082547,0.5391846417,-0.7227230251,-0.7412880818,0.8931484746,-0.2613651704,1.9118702004,-0.6844066047,-0.4067176481,-0.0824180198,-0.5030605375,-0.3042747628,0.4882217802,-0.8114181135,-0.4149730423,-0.4350928765,0.4839115843,-0.0084801842,0.1696476314,-0.4801140018,0.9032394821,2.3250687396,-1.1046644276,0.9867285034,0.003411225,1.1793558674,-1.0003267074,0.6368123238,0.9541741607,0.8622265159,-0.092346289,0.4354333133,-1.9160598773,0.6072013135,0.8982882818,0.4339167848,-0.1117885511,0.1408707372,0.3463943905,0.3826665896,-0.3150914916,0.9948689403,-0.6720310941,11.1419049271,0.6437821674,-1.1316735664,0.3206608758,0.544496458,0.2703438759,7.9256905697,15.1438088651,3.6052494494,1.0218287826,1.1131420184,2.1708970433,-0.1533008806,-0.0878482799,0.029216832,0.9968395006,-0.4722518306,1.1300424063,0.9936508177,-0.4725745591,13.5159002716,0.7419422928,-0.2502260991,0.6750608205,5.2962474516,38.5228543448,2.9692830198,0.3647171496,-0.2580812775,0.3816861051,-0.3963747719,15.0902404425,2.4403605831,-0.025110016,0.6013535676,6.1034050801,-0.4631776804,0.8385317394,0.350728424,0.0803499201,1.0357346161,24.5078789527,0.8576041471,0.0377508781,4.5037430746,-0.0387617653,0.2135277553,0.2034316011,-0.8092469158,0.4545531565,-0.1665957066,-0.5485290971,-0.3004119439,-0.6617727996,2.5143573105,-0.5636501066,-0.5010457792,-0.3504715352,0.3858884175,2.1269609689,0.4970254362,1.0009036195,27.0610574376,0.0274493347,0.8733175856,-0.3935012938,11.0616021214,0.3910211087,-0.2407701016,0.6417584039,-0.7638334284,13.1485316409,2.8424502351,0.5537196401,0.5353632435,0.7993237654,-0.5631781865,0.7952127722,22.7013048733,33.7325171352,0.0411286583,0.8708837574,-0.305988793,2.7204706806,-0.3505992168,0.5588720898,-0.5451866984,1.0916124237,-0.7300778698,-0.6259036598,9.554291182,-0.1233006546,-0.0051406472,0.7349406233,-2.2209803129,0.373683821,0.2142277459,1.1828590164,1.1014180603,0.0343269657,-0.7291622117,231.9275301482,-0.3118526003,1.0020559752,-0.1188878965,1.197071589,0.1731471504,94.6755533422,5.0409257218,-0.1370806855,2.4218413057,0.7096300873,3.7168428806,0.1681423548,0.5011714473,-0.4624465316,-0.7008827191,-0.7295913639,0.9124205667,0.705173528,-0.0833450787,0.589369509,0.6868123982,-0.2063961832,0.3758410553,40.3482515041,2.3101416971,1.4925398179,0.7511011808,0.1378139715,-0.4584430299,0.7687568338,10.8355630745,165.9296523464,-0.1273931146,5.4735671768,6.2950522291,12.5619985013,0.194340178,0.6130760176,0.413859996,-0.6201093861,7.6652967256,-0.4814001498,0.4324132028,13.3117044374,0.1358501153,-0.3600791822,-0.0893236466,35.9032063231,-0.0618797435,-0.8847531603,-0.1664078836,0.2002318058,-2.8704805516,4.4796730548,-0.7547378641,0.5801162127,-0.5025878219,-0.0759017206,16.2199043481,0.0700912002,1.1801160951,13.5546243338,1.0698789998,0.6609969022,10.3545601261,24.1920635392,0.6995544812,1.0718047429,-0.2215636394,0.0517863306,0.9533061138,-0.1504320474,0.023417635,2.0486703503,0.033470289,-0.6295728727,0.0313365743,21.20321176,1.9291075895,-0.2064518571,0.5840438897,-0.9436820054,281.9090820194,-0.7775775686,-0.3146139939,-0.2795482198,0.8944265349,1.1688686284,0.4710240427,92.1884709292,1.2865447628,1.0015176047,0.4621583879,-0.0238976904,0.4764330728,-0.2826975582,0.357083961,0.2234388107,1.3025402225,-0.315928996,41.5503002372,0.735137945,-4.3205630205,-0.5269765095,1.3593119622,0.494678119,0.1779351349,0.8372986175,1.8077049634,0.7335747341,0.2687980837,2.1748983029,-0.3482223976,0.8704944062,0.0902419968,0.3772656212,-0.4402055925,1.0632990898,1.3428823596,-0.394375837,11.2869761731,-0.3521103025,0.278405606,110.4292101852,1.1871679778,1.006718033,1.1399020396,-0.0948614893,7.2414426553,2.1293417847,-0.2025400242,2.1913554103,1.827970121,0.8063806317,1.2491257501,396.4053109125,304.2481038364,0.3410872367,1.2855285116,23.2293729545,0.3169650567,5.1382253744,-0.3847933681,0.2714220863,2425.1569077161,0.3923406299,0.4911025196,0.3650626394,158.7278645664,0.6616038007,50.4757749809,-0.3848575218,0.4861629383,0.3627476729,0.4441159595,1.1117870656,-1.208905636,0.689367797,1.4192732387,3.8422060707,0.571020951,0.9161466092,-0.2250681947,-0.3352989878,43.5495659271,1.5374345122,119.4456867377,1.9775192977,0.1579800131,0.6447706944,0.0418138705,-0.177324414,3.2218327702,2045.2665586365,6.1198361981,1.1704356402,-0.0007080839,0.012216217,66.6689806119,8.1198915732,-0.4424907179,1.4035335777,0.5256922216,2.5000099554,5.2548355352,-0.3361411321,-0.3193026266,3.9881347162,-0.2526520263,0.017546906,606.8082191015,2.6786391406,0.4240989877,-0.2897204643,0.6559218664,1.7068704476,2.0822083985,1.8889969733,1.6326026635,1.9634750671,0.5901000502,1.3808952585,0.1818355573,2.0367973083,1.3421317957,1.8602161602,0.8389536118,1.7306861168,1.5564407998,0.7787996627,0.2155700503,1.7670198994,0.0798807085,1.9651627707,0.9145453054,1.3736387637,1.2258275024,1.852314635,1.3972436894,1.3951066058,2.111099788,1.8525362367,0.8880199244,0.4816655377,1.0760533097,0.6177608736,1.6232430612,1.8799185106,1.0661118426,0.6650547918,2.0259104154,0.6776975526,1.073136,0.8572607854,1.6115416882,1.0567563003,0.4795502377,1.0221394742,0.4248361831,0.7285264258,0.6895612509,2.036883153,2.0009603416,0.8391962257,1.2449980681,0.7050812191,0.7429203327,1.9512221717,0.3368544505,0.4721597788,0.3725971227,0.6243609621,1.7142440786,0.3521874483,1.6354415489,1.3490001313,0.4489136049,1.4182839772,1.5499372487,1.5505756387,1.801287225,1.6789560789,1.1138888993,1.1664635153,1.18175553,1.9766750968,1.0738049955,1.364359316,1.0197819267,1.5811097804,1.152753454,1.6623262349,0.768638097,1.1034420873,2.089327191,1.5397459142,0.9133274501,0.3077271656,1.6686472658,1.6820133345,0.1138620122,1.3468377503,1.8912247919,0.5423461666,1.2841038048,1.2440686554,1.4270145182,1.8256601539,1.8105179216,0.9443297753,1.2852511912,1.3923756542,0.7266979041,2.0962201578,0.773704039,1.2021976135,2.4324476927,0.7557116174,0.6959361867,1.0307600877,0.6002185451,2.4645058051,1.5897469963,1.7008367768,0.8621745283,1.9248003188,1.8252754436,0.574110663,1.2580148948,-0.009759002,2.0163605108,2.3523157624,1.3299933968,1.2808947997,1.6753353616,1.9714493995,0.9255329227,0.9691291066,2.4401641091,1.5890841984,1.9038226438,2.1323760694,1.410517481,1.4381202179,0.6459239409,2.2085215597,0.9639920011,1.3263291084,1.300009653,0.5698933186,0.6308399192,2.2806893823,1.9957461638,0.4120726926,1.0953019128,1.7471127147,1.2282557364,1.1601689109,1.869036371,1.8699560557,0.54910069,1.8800828139,1.5269905142,1.6014065693,1.8711584938,2.361110505,1.4515129587,0.6811886025,0.8235803177,1.2304699074,0.6241699378,2.1256096691,0.5100878136,1.1281890671,0.852124658,1.4806205834,2.04504038,2.3321547502,1.4103136955,2.1432386304,1.2767041109,1.0699533517,0.7305603358,2.1182155518,0.9845611511,1.7875348768,1.4133461971,1.0599655767,1.7365763882,1.674894999,1.3413632604,1.7869248316,1.8319501449,0.7205734265,1.2675646007,2.3665242943,0.8733904907,2.2642674151,2.4584666215
