encog,BasicNetwork,java,3.3.0,1,63587582457202
[BASIC]
[BASIC:PARAMS]
[BASIC:NETWORK]
beginTraining=0
connectionLimit=0
contextTargetOffset=0,0,0,0
contextTargetSize=0,0,0,0
endTraining=3
hasContext=f
inputCount=304
layerCounts=3,55,130,305
layerFeedCounts=3,54,129,304
layerContextCount=0,0,0,0
layerIndex=0,3,58,188
output=0,0,0,0,0,0,0,0,0,0,0,0,0,0,0,0,0,0,0,0,0,0,0,0,0,0,0,0,0,0,0,0,0,0,0,0,0,0,0,0,0,0,0,0,0,0,0,0,0,0,0,0,0,0,0,0,0,1,0,0,0,0,0,0,0,0,0,0,0,0,0,0,0,0,0,0,0,0,0,0,0,0,0,0,0,0,0,0,0,0,0,0,0,0,0,0,0,0,0,0,0,0,0,0,0,0,0,0,0,0,0,0,0,0,0,0,0,0,0,0,0,0,0,0,0,0,0,0,0,0,0,0,0,0,0,0,0,0,0,0,0,0,0,0,0,0,0,0,0,0,0,0,0,0,0,0,0,0,0,0,0,0,0,0,0,0,0,0,0,0,0,0,0,0,0,0,0,0,0,0,0,0,0,0,0,0,0,1,0,0,0,0,0,0,0,0,0,0,0,0,0,0,0,0,0,0,0,0,0,0,0,0,0,0,0,0,0,0,0,0,0,0,0,0,0,0,0,0,0,0,0,0,0,0,0,0,0,0,0,0,0,0,0,0,0,0,0,0,0,0,0,0,0,0,0,0,0,0,0,0,0,0,0,0,0,0,0,0,0,0,0,0,0,0,0,0,0,0,0,0,0,0,0,0,0,0,0,0,0,0,0,0,0,0,0,0,0,0,0,0,0,0,0,0,0,0,0,0,0,0,0,0,0,0,0,0,0,0,0,0,0,0,0,0,0,0,0,0,0,0,0,0,0,0,0,0,0,0,0,0,0,0,0,0,0,0,0,0,0,0,0,0,0,0,0,0,0,0,0,0,0,0,0,0,0,0,0,0,0,0,0,0,0,0,0,0,0,0,0,0,0,0,0,0,0,0,0,0,0,0,0,0,0,0,0,0,0,0,0,0,0,0,0,0,0,0,0,0,0,0,0,0,0,0,0,0,0,0,0,0,0,0,0,0,0,0,0,0,0,0,0,0,0,0,0,0,0,0,0,0,0,0,0,0,0,0,0,0,0,0,0,0,0,0,0,0,0,0,0,0,0,0,0,0,0,0,0,0,0,0,0,0,0,0,0,0,0,0,0,0,0,0,0,0,0,0,0,0,0,0,0,0,1
outputCount=3
weightIndex=0,165,7185,46530
weights=##0
##double#46530
   0.5972236594,0.2703893651,0.2919063195,0.1387154325,0.3009509665,0.1717002365,-0.5274557842,-0.6676549603,0.0871077963,0.1516655273,-0.2952483472,0.568592599,0.2207318091,0.2118767131,0.1934975331,0.2727586618,-0.4984629923,-0.0651357459,-0.6217902597,0.0293629715,-0.3113782483,-0.7839023764,-0.4698957729,0.2635836366,0.5619947884,-0.3459181045,0.7007089077,-0.0616718837,0.5274977803,-0.133231626,-0.5407404169,0.4773729296,-0.327466439,-0.1321659564,0.6402340093,0.2162315261,0.1282284895,0.3183739291,-0.6718429864,0.192342048,-0.0739321493,0.5302448227,0.2816330047,0.5142005414,-0.4841144567,0.2694113613,0.6302415442,0.7810003427,0.3362173216,0.0499474449,0.3253135723,0.273019791,0.9542106621,-0.6369052422,1.5039171042,-0.4493700238,0.4252885641,0.0631150844,-0.1465379589,-0.2676294357,-0.1373449528,0.4019365303,0.1926734789,0.8331452975,-0.4828332072,-1.0158718979,-0.313739107,0.0751220861,0.1166753962,0.1413491511,-0.5036010855,-0.2713369528,0.4054173331,0.634821389,-0.5964446975,-0.232094626,-0.0020939384,0.1689398823,-0.6933647763,0.0958174206,-0.206933454,-0.0525822693,0.2357401718,0.1523333122,0.3140543664,-0.6292531663,-0.2502601844,0.0795273235,0.165446649,-0.4032027272,0.2485079443,0.6839070395,0.1884531925,0.3303855293,-0.1790981456,0.2992407611,-0.6268872676,-0.3242574472,0.3042462463,-0.0148270851,-0.061736791,-0.3851444873,0.5926919397,0.2553386163,0.4439731959,-0.5080391009,-0.9210793943,0.5602515963,0.5210031061,0.7108947075,-0.5883336545,0.2066133971,-0.3111892942,0.1337835644,-0.5661438779,0.8311513418,-0.2430544428,0.6334000932,-0.3438245635,-0.4942989854,-0.4426899447,0.595904532,0.5757308809,-0.8915292188,0.811425112,-0.8023599106,-0.2184046146,0.7033645094,0.2996147423,0.9798742645,-0.0480773812,-0.3754717306,-0.6299426235,0.1848870402,-0.6276849573,1.0630690242,0.7812223726,0.842699159,-0.961781919,-0.4972853582,-0.2359507575,-0.1437939393,0.3155717039,-0.5722707331,-0.9199205852,-0.5826780124,0.0232186212,0.444003095,0.1832587764,0.2801723612,-0.7697060514,1.6352309957,-0.3979188421,0.4136355774,0.6731123881,-0.0606173526,-0.8843187274,0.6534297173,0.1860060662,0.0011305155,-0.1893385288,-1.0160475325,-0.9116487127,0.0338203938,-0.0267700777,0.2130630762,-0.0254035075,0.0618369639,-0.0529459563,0.3148482534,0.7497422292,0.0907225665,0.5548758164,0.3850499791,1.0880145347,-0.6980761745,-0.4818921036,-0.3999699918,0.4472279343,-0.3434944165,0.8140373655,0.6835803578,0.1664218023,0.6883373766,-0.9847398418,-0.0683314919,0.4099146353,-0.4162697425,-1.0351262547,-0.4940544453,-0.676659657,-0.0988812281,-0.3260450256,-0.0590134866,-0.7445620801,-0.2460440097,-0.530024679,-0.4056568598,-0.9533861516,0.5254263131,-2.0076383194,0.0432314361,0.5945132543,-0.1771851012,0.5759654969,0.1739505846,-0.5652844928,0.1915683139,-0.0214458479,-0.8756084833,0.237745572,0.1975550267,-0.5698582442,0.3232057901,0.0296752985,0.1310931893,0.1924152205,0.0752718242,-0.0688261822,-0.4095316221,-0.2348161139,0.9683984563,-0.7064565607,-0.3564116115,-0.2610337582,0.7284640132,0.5150466566,0.7505917362,0.3270096867,1.1452829098,-0.3514450269,-0.7299741717,-0.0114653937,0.6427513966,0.007608157,-0.0197682183,-0.6031196952,-0.2435440781,-0.4858010652,-0.587882336,0.0214387775,0.1143834195,0.697717526,-0.3938288206,-0.1416676883,0.2108402419,0.2651574545,0.4323273567,0.5024320181,-0.6852585145,0.4853613968,-0.0557709246,0.9310361025,-0.4486541341,-0.3147894846,0.728100261,0.0607649224,1.2976240101,-0.3482886646,-0.263562269,-0.0169196941,-0.0348709109,0.5862813202,0.3286447148,-0.4455706496,-0.0282763813,0.8304458371,-0.3525599936,-0.4362516111,-0.2132931785,0.2962511552,-0.1527405488,-0.0762473013,-0.0664530754,0.6632549377,-1.1526794525,-0.3849032491,-0.2053661065,0.3391787975,-0.0266135519,-0.1123873543,0.4732310638,-1.0472927612,-0.6100775357,0.4296270486,0.061514309,0.3941724344,0.0036311764,-0.0617005938,0.2113514019,0.250817938,-0.0044618923,-0.0060474723,-0.0931307757,-1.1970224884,-0.2859978539,-0.8787000958,-0.1283328341,-0.1152830981,0.3011153676,-0.3823570504,-1.1166283878,-0.4025433131,-0.7151848694,-0.5708444469,0.1152234185,-3.1576227863,0.1805332647,-1.1658509666,1.9532914734,-0.1469250898,-0.6929963602,0.4143786297,2.6756734196,0.1506424649,-0.1444565852,0.3897904876,-0.594303867,-0.5080831737,1.1419290332,-0.2818831523,0.0306468175,0.6078284705,-1.1051869992,0.5586116443,-0.4576475666,-1.1289869921,1.0963114045,0.3913229234,0.9965709235,0.1371116334,-0.7994319127,0.2411976218,-0.4891730143,0.3053267404,-1.4797579909,-1.281525511,-0.4465580699,-0.1853069645,-0.1900246445,0.829092822,-0.4109090687,0.4599742681,-0.2793314941,0.4105504102,-0.1228770731,-0.1073247054,-1.2790392681,0.0922993545,0.3279155937,1.6472919399,-0.1337143889,-0.7716390736,0.7536350398,-0.6821612284,0.9955972882,-0.4040383445,0.6743822594,1.2654259387,-0.0898050104,-0.9946318629,-0.3686556115,-0.8139810636,-0.9089343059,-0.7622371861,-0.1718918774,-0.7089186513,-0.3733016903,1.0828429612,0.6537830928,-0.2313793968,0.0531288642,1.5838353109,0.3903708339,0.5972058411,-0.1699696802,0.7207429112,-0.2054433976,-1.3269105307,-0.7149681607,0.9925435606,0.9727466605,-0.739643283,-0.4454571927,0.1622810806,-0.56279115,-0.2602485502,0.3156424338,1.212924815,-1.1684565899,-0.2292631214,0.7998930067,-1.0094874453,0.5388756081,-13.1966262404,0.5255585099,0.6393010994,0.6243765428,-0.4250715351,0.3664574952,-1.0702159087,0.3062080417,0.0325256588,1.1233893543,1.2930054255,0.0205310048,-0.7831237918,0.5702408648,-0.0172482525,0.4400014935,-0.8673003321,-0.9510610127,-1.5269319321,0.0478346102,0.5853417367,-0.9023831068,0.8313035767,-0.7276275721,0.067844975,1.0178120797,0.5612824955,0.5869973738,-0.0174278602,0.7017813994,-0.2757749024,-0.720176894,0.7268281643,0.3421125658,1.1274245894,-0.0101635033,0.2623660254,3.3197467504,2.2339419967,-0.0295977648,-1.2626311676,-2.4874442213,0.6980510238,0.4058279423,0.7793994451,-0.0002854716,0.4749523219,-0.1503850265,-0.8417695175,-0.2880221448,-0.5353861999,-0.7844093525,0.9658689881,4.7773738226,-0.4207410871,-0.5498946701,-0.8284199442,1.8408111388,0.556809678,0.7179699093,0.4308364821,0.7849822296,-0.5732223505,0.4432037981,-1.5234577533,-0.5630615043,-0.7211228936,0.3282112284,2.2270577405,0.454707617,0.8257174494,-0.6145688691,-0.5470152446,-0.5591429495,0.0372665618,-0.8160940628,0.9188347267,1.4042415306,1.2038356482,-1.057772186,-0.7849251518,0.1930301182,-0.7860335523,0.807115114,-0.6451544068,1.5274998246,-0.6471500178,0.6657344221,3.2627816934,0.8532152729,-1.6749070738,-0.1295870833,-0.3073243774,0.7128897809,-0.1184548013,-0.0357820123,-1.4343028487,0.2892842807,0.7830325753,-1.7559571006,-0.1270281716,1.0187404591,-1.7497154709,-2.280670204,-0.6368761604,-1.3964675123,0.5291783244,-0.3397397564,0.5704565045,-1.3558315919,-0.7204279131,-0.6931388415,-0.5355414919,0.3867457204,1.3277472768,-0.8767015222,1.0278871336,-1.6578213852,-0.5576234677,-0.5059685011,0.8723492344,1.1041201723,2.049374518,0.016035105,0.7556268741,-0.1260054869,1.3263941524,0.4413467309,-0.3160897539,0.1890917335,0.1022575557,-0.693099145,0.3502287055,-0.7351158876,0.7512311995,0.7941387125,0.2763004946,0.3539938834,0.8668941068,0.9604616914,1.1228606984,0.6019931934,0.3991516859,0.7487547198,1.7779379167,-0.3627380551,1.1153542951,0.1512469413,-0.1004492825,0.1568806781,1.2212086658,0.1903791438,0.3417020547,0.9756827787,-0.2611803283,-1.5806165834,-0.6374099223,-0.0656312346,-3.739277057,-0.2284964962,0.050707704,1.6404365875,-0.3836615552,-0.1375283113,-0.4931054288,1.4175651203,2.928137069,-0.5580494899,-0.1241960126,-0.9822774137,2.6914625905,0.5473189086,-0.2966361369,0.5298798313,0.2466919018,-0.159692287,0.5786934418,0.0522293292,-1.1061320941,0.0037863471,0.726145103,-0.1684748684,-1.3319051268,2.0941902903,0.3317431735,0.0402838994,1.8031479538,-0.8948207785,-2.105446623,1.0886486116,-0.009802007,0.1242889919,-0.304317962,-0.0682622852,-0.4381912434,-0.6748941394,2.7300464333,0.0896364164,-1.06467258,-0.5504699063,0.5229702465,0.3572555311,0.2132313995,-0.9375262415,0.5720775476,0.6028945334,-0.5201366936,0.2440676137,0.1127835388,-0.7132765502,-0.2629002904,-0.5167118938,2.0053373949,-1.3691063198,-0.5634968506,-1.0432750458,-2.6281985641,-0.7732146001,0.7317167953,-0.8122175961,-0.1964756921,-0.1309197742,-1.2237042992,-0.7035648518,-0.1107895167,-0.8068886302,-0.1853995887,-0.1843968478,-0.3780412084,2.2976056852,0.0331554304,1.3498107278,0.6550807077,0.091664703,-0.3181103592,0.3883240468,-0.1653672828,-1.5313085718,-0.2554698836,-0.9738504791,1.0599836155,-0.2457966379,0.766359153,-1.8989362753,-3.8586787794,3.3404642519,-0.6705929609,-0.5257121226,1.0736118486,-0.3420051136,0.835244426,-0.9641696745,-0.9466265071,-0.5365828575,1.1858662045,0.2319618606,0.22079729,0.1477108523,0.7008835891,3.1594150595,0.1066343614,0.1246518596,-0.1486410282,-0.4794887374,-0.2551049777,0.6983240342,0.3980099765,0.7728296528,1.8329328066,1.3371447906,-0.3541784862,0.1366146295,-0.8188703264,-0.6447060396,0.4342472281,0.0776503049,-0.4763918345,-0.7555706298,-1.2971692125,-1.3142596477,0.5384629163,0.3948419948,-0.3079163498,0.7912744535,1.7254041258,-0.8566769628,-1.1509809048,-0.0757566018,0.1987403342,-0.4499971138,1.0488300944,-0.0943052063,0.4696261967,-0.4730491697,-0.2717322526,0.1859820385,-0.053545972,2.2361662268,-0.7712678135,0.6827241778,0.4009052569,0.6251753959,0.3465336734,-0.3447966788,0.1790860487,-0.7155917023,-0.9395755255,0.3264103288,1.2469174009,-0.0136376268,-0.3208757996,0.0821026224,0.1425330632,-0.5374218743,0.0586160433,-0.2508725958,-0.7130683502,0.3827114316,-0.1160278728,0.7192455054,0.0955046939,0.6775196019,1.4236253827,0.1288704033,0.4749528487,-1.2528803276,-0.6497983929,-0.0662535953,-0.6689872003,-1.3215884289,-0.6867066167,0.5805860751,0.1786809234,-0.7670702132,-0.3096027312,0.2777897153,-0.6709654622,0.899476448,-0.2525127356,1.0237532409,-0.0257525036,-0.1500765056,0.5841467494,0.090687765,-0.1810567246,-0.6298994481,-0.0665212117,0.3361823449,0.0155389243,-0.1206555108,0.6410130254,1.1379777459,0.3067276346,0.0491882484,0.4177277741,-0.8306672036,-0.8599196874,-1.0277226173,-0.5143445608,-1.4491810888,0.7002592483,-0.0457462023,-0.1827902118,-0.3742619978,-0.0762997897,-0.2795633123,0.8133881599,-1.5530493695,-0.2082546985,-1.6288678204,-1.1834363484,-0.309146109,-1.8200173217,0.6747907797,-0.2859549556,-0.6287794289,0.6419595415,-0.775654804,-0.9841665132,-0.6962269597,0.4368934715,0.4739908551,0.7838327695,-0.6623352929,-0.3891879362,-0.923683816,0.3731647944,0.4776880904,-0.673263695,-0.6997424624,-1.1848342127,4.1918777069,0.3097662833,-0.272456837,3.0644836378,-0.3872814428,-0.21398879,-0.3657392043,-0.3129452513,0.0767598461,-0.5510234379,0.1892106434,0.2354856184,-0.8433447495,0.1295845234,0.2428468936,0.7868222746,-0.1575291239,0.862923543,0.2022468293,-0.4475522371,-0.5956069117,-0.4421546265,-0.3176631382,0.1309686835,0.2519412763,-0.2968975427,-0.53996417,-0.4532760015,-0.2037708799,-0.0643605449,-1.1500439364,2.4788666731,0.3111460221,-1.7709153718,0.0243627239,0.3908337,1.1981993638,1.1012116802,0.8322890038,0.6289778844,0.4808367664,0.6867974493,0.9620539329,-0.257044548,1.9788340457,-0.6935140526,-0.3789838939,1.4912050382,-0.6635228589,-0.7829063914,2.4244151978,-0.4242140057,1.0444457092,1.6495523278,-0.4021349847,1.4572559655,-0.2496694407,0.4342377071,0.1672430635,-1.7897413721,-0.9877688656,-0.7940015252,-1.0713138952,-0.21372891,-0.2428699676,-0.5099078072,-0.2073801773,-0.4117377192,0.0629406565,1.8523928935,-0.4756114569,-0.9633080585,-2.7428962889,-1.1247589837,-0.2958970162,0.0372818833,1.2196723215,-0.1630922402,-0.2919194903,0.403977022,1.1317498564,-1.5926295581,1.035567025,0.2311208505,-0.4943996772,0.0932562552,0.7367118236,-0.6761533196,-0.6401781469,-1.4196311472,-0.28639547,1.0670023493,0.5596884025,1.7311007155,-0.7891830683,-0.718966813,0.3576356418,0.6884390862,-0.5019816925,1.0135767947,-0.5410767344,1.3747444748,0.9925104404,0.0647121887,-1.4372008552,-1.7377369352,-1.3944278751,0.1453803091,-0.6779094579,1.2278823242,-0.0178463427,0.8904100243,-0.3363467138,-0.2493189589,-0.1400124087,0.3731099916,0.6345394301,-0.130751904,0.1135341495,-0.1114084343,-10.6656068907,-0.5199409707,-1.7759870309,0.2661868628,-0.1969808786,0.5750146218,-0.532348224,-0.1831561268,-0.4755429947,0.7071825695,-1.6420929492,-0.5047217819,-1.2618531538,-2.2047020256,1.1459970476,1.0598763582,1.0400021599,0.9443824994,0.6650544677,-1.2599148623,-0.5643320658,-0.5765168704,-2.4557660576,-0.2479380613,0.7709245591,-0.6358515134,-0.2375161907,0.9293080391,-0.2316181324,0.2059144448,-0.8790161228,0.8065931417,0.1854764157,-0.6912059459,-0.5618030624,-0.0696133214,-0.0328514085,-0.3438120909,-0.0797111925,1.6603385225,0.5526591987,0.8836261679,0.383108754,-0.2992346902,-0.6201617872,-0.1752474972,-0.2647783535,0.9057282844,1.1951005695,-0.6276202559,-0.3429711466,-0.7567436748,-0.142506371,-0.8981913809,-0.9134163784,-0.0365176652,0.8879135174,0.1658993784,0.4575278179,0.1940744528,0.0341321946,0.8826509807,-1.5843543992,-0.6173595578,-1.6085032646,1.2502229863,-0.7150981266,0.6391530011,0.111145445,0.4558413294,-0.2500222279,-0.4857477122,0.2484745712,1.2776138125,0.2598760463,0.0155207102,0.0253846136,0.2808617894,-0.0749544274,-1.4628289667,-0.6772745957,0.4304928285,0.3991933671,-0.3108792849,-1.2591997187,0.9824291823,-1.1942758006,0.2940650527,0.1113043655,-0.3344405819,-0.3346501405,0.2206262388,-0.7801700639,-0.8833013773,-0.4866256458,0.2350415405,-0.0222083567,-0.0376188227,-0.4446764958,-1.1299581321,0.4933664252,0.3970308337,1.8531000724,0.0656692628,0.0844700209,-0.2229126533,-0.1413297767,-0.5369112211,0.9566294223,0.6016970192,0.2871520736,0.093097007,0.8486891621,-0.0977476599,0.7042457445,0.2167945702,1.1489388905,-0.3645505517,0.2525264165,0.1656519904,0.5684078875,0.5122755583,-0.6802895721,-0.2802275051,-0.2281854467,-0.1279161269,-0.6015826591,0.1862216955,0.6897733954,0.136238138,-0.2371360628,0.2305612183,0.6677844702,-2.327200077,-0.3371712837,-0.6746835886,-0.355371271,0.2434753635,0.0832112712,-0.2889548345,1.5693943775,0.1434130525,0.3061081435,-0.2192385549,-0.1180794049,-0.3150506148,-0.2701062138,-0.2497373246,0.5769134051,0.8867874312,-1.2780235385,0.4642847868,-0.6785766183,-0.5378946044,-0.1397058129,-0.2729402213,0.8821683573,-0.3323385221,0.2476238325,-1.0220273493,0.6721383911,0.3032024094,-0.1088062703,0.3155880123,-0.1417044916,-0.5104466225,-0.1654196999,-0.1208401221,-0.1083338362,-1.2087553559,0.2280635555,-0.3539851635,-0.3916615374,-0.4106452968,0.8000011671,-0.200508417,-0.3390071567,0.3954770046,-0.343648757,1.1070925612,-0.8629948896,-0.2839260949,-0.4526807424,0.4664909991,0.7915231354,-0.4561260112,-0.0219352418,-0.5726305601,-0.2885048157,-0.2694859138,-0.8950774551,-0.0969258713,1.3179111132,0.3830943505,0.5866998937,0.8223954101,0.417466664,-0.1986408982,-0.3323195548,-0.7571477568,-0.4633709007,0.0058732851,-0.0792725395,0.0156857732,0.1040338177,-0.2341404341,-0.1852241627,0.1701758586,0.2719871815,-0.0111720011,0.8895456741,-0.2318263849,0.4857048456,0.0901375916,0.4583156462,-0.6140083651,0.3012459576,0.4944660822,-0.332504721,0.7595353481,0.7494878661,-0.3232707924,-0.4201962072,0.0069865826,-0.2573679376,0.1809613804,-0.2534650749,-0.1015763744,0.1858669388,0.7351655126,-0.5586556676,-0.9194482411,-0.7522731603,0.3316646085,-0.5646141983,0.1170847102,0.9636592118,-0.9526337444,-1.3249215274,-0.5625631765,-0.7717989341,-0.3758750652,0.0778634184,-0.4962270552,-0.3197765302,-0.559310292,0.6032979248,-0.372074291,-0.031121306,0.3936653256,0.135325959,-0.1007670517,-0.4446577211,-0.0909004089,0.6982782597,-1.7236304408,-0.5246881709,-0.7315710423,0.5546598057,1.2633550275,-0.595405261,-0.1201914462,0.0669541841,-0.1708471099,0.4641750457,-0.7902915189,-0.285489536,0.8621590105,-0.3136983202,0.0097369959,0.1506363262,0.0045337912,0.1647009143,0.5814826378,-0.7978246958,0.040611526,0.2583719675,0.0130864307,0.4443990465,-1.8175065015,1.0031547755,0.1077508876,0.7148953197,-0.4254507206,0.9369043029,-0.22432146,-0.0910893769,0.7408188502,-0.1367757696,0.0413408483,0.5921767931,-0.9661705836,-0.8175135235,1.3074421163,0.2996844939,0.0046985886,0.0404961751,0.0463033482,0.0515875546,0.3845819825,-0.5212343876,0.5223065206,-0.0779888374,-0.1808493161,0.9061065955,0.2058311034,-0.1200211841,-0.7260653524,0.4256085104,0.0741087961,-0.0188248495,-0.1034429804,-1.3866218222,-0.0664067997,-0.1867083053,-0.2477058294,0.0566562928,0.2589072626,0.1983757765,0.262285847,0.0695270296,-0.2922545847,-0.2051030549,-0.58582758,-0.3014378838,-0.5644285567,0.1327747832,0.0840716554,-2.712753474,0.0164188957,-0.2988057214,-0.3553393272,0.1306519682,0.1961270856,-0.3718840557,0.0357551171,-0.0985025458,-0.0486905617,-0.1293542326,-0.0175803424,0.3836579923,0.1631772409,0.2355481023,-0.2643765085,-0.7038033421,-0.4512623894,0.0405699371,-0.0185448389,0.550078753,-0.0880494616,0.5705786207,0.3696377616,-0.1494424344,0.0337580096,0.8804175067,0.1575734721,0.2428519196,0.5648877786,-0.1858618888,0.3061391205,0.367730218,1.0744558674,1.2089222754,0.1886575866,-0.8474468499,0.4258420783,-0.9730414036,-0.4494996953,0.4092103049,-0.1900990483,-0.2848858017,0.2121287904,0.2349091901,-0.561521476,0.5797359637,-0.3396408825,-0.0233640267,0.4251162979,-0.0172850918,-0.1076252275,0.5488965241,-0.2305480718,-0.0851011805,0.4741911563,-0.4570309268,0.4078932727,0.3083145001,-0.4904086278,-0.5908947496,-0.2601054061,0.3047972464,0.7302565122,0.3670028531,-0.4209322388,0.5443538818,-0.5399875458,0.3758523463,0.0461462366,-0.2459206281,-0.229419382,0.0597304772,0.4191166213,-0.6282991606,0.1262446484,-0.1057731737,0.2137893563,-0.0691499866,-0.048643144,-0.1997398952,0.6154622009,0.168947525,0.3192403088,-0.3074200101,1.0382470546,0.1626925382,0.5880373314,0.724885287,-0.8756384847,0.9417870149,0.4125333031,0.4802511539,0.4908999611,1.2256677034,-0.0184775445,-0.1905454474,-0.3674506973,-0.0891920367,-0.0584272513,0.051399241,-0.9370288531,-0.3512720107,-0.0717705733,-0.4513029943,0.1257545895,0.5537208084,0.4222971241,0.6273096169,0.3470217318,0.6357965364,-0.1426274341,0.302979826,-0.5748393304,-1.1365368093,-0.6197898479,-0.3802910678,-0.1954263155,0.6867582675,-0.6551733109,-0.1809941659,0.5916698495,-1.0041719027,0.1172912143,-2.9814478609,-0.230380527,-0.7879006949,-0.953230265,-0.1673129025,0.3117869888,-0.8274865351,0.0094422498,1.0143322537,-1.1219292638,-0.0940209368,0.1243373259,0.762529956,0.2914248117,0.5415429367,-1.2757043042,-0.0300194123,-1.1186894551,-0.4214900682,-0.3514604031,1.3275116375,-0.4779157636,0.4567397549,9.5947924062,-0.644963255,0.6564886557,0.3314778054,0.5347670354,0.4480231674,-0.5451341964,-0.1168996966,0.3758158103,1.9960246363,0.3077365096,-0.1095308718,0.8215198758,-0.0749426197,-0.0569100417,-0.7568867099,-0.9113905261,0.3757650687,0.801454619,1.3099195598,0.69283896,-0.0970580025,-1.0878483648,-0.9360987936,-0.2770520057,0.5567511962,-0.2257612866,-0.6690583235,0.4400332497,0.2664825917,-0.7134616492,0.1149429494,0.5719258972,0.196040072,0.1597800949,0.3973023242,-0.3164693967,0.5694330214,-0.7249645431,-1.1024578298,0.3011024205,-0.1567198919,-0.4928447319,0.3668733363,-0.2207829119,0.771513109,0.5135149341,0.1856282769,-1.0260610385,0.2729880904,-0.8397091452,-0.4527852417,-1.3795144569,1.2960824095,-1.0571466229,0.9302131828,0.6092338925,-0.6991497287,0.143501925,0.2475868266,-0.5401096304,1.3458298929,0.3547712005,-0.4212568094,0.4327439717,-0.1175360619,-2.7482050652,0.0415852628,2.5048869028,0.8640154837,0.2762051466,2.7402681263,-0.9852258606,-0.4349863434,-0.2772265001,-0.184529495,-0.3333351889,-0.9717153552,0.1006780555,0.7429437348,-0.1524965362,-0.3913266954,-0.1249048139,-0.1517242129,-1.6612821547,-0.2871933032,-0.4342224393,0.5616520836,0.0256757271,-0.1908571155,-0.6594953783,0.0743721619,0.221629733,0.8861448579,-0.5120406213,-0.6903932234,-0.0131527906,0.0849811627,0.2650028033,-0.5798620033,0.4372877903,0.6075002483,0.8609539679,0.45930182,-0.6019320435,0.9091878625,0.4675634287,-0.4696646329,0.3876603054,-0.786566411,-0.4190462579,0.2860045453,0.7121738176,-0.584024309,-0.3417091622,1.109107661,-0.1480843766,0.489073792,0.2544986387,-0.3666004068,0.1015043772,0.0692730084,-0.2806566563,0.0795347172,0.2052358431,0.0845551436,-0.2402900264,1.1353181863,-1.1189704486,-1.1703871966,-0.5093106867,-0.2852900888,0.0081365967,0.9128008561,-0.3853063352,-0.2112973603,0.118502813,0.0103018433,-0.0833264249,0.3693982813,0.7745092297,0.3511454004,1.0596056113,0.4214992612,-0.232254046,0.3008945558,-0.9361839599,0.7214469772,0.6359602195,-0.2631876805,-0.8247975569,-0.3175530991,-0.686477569,-0.1981407719,0.0114323056,-1.1429153504,0.1114625656,-0.3525375971,-0.7540296661,-0.6049483778,1.1090609573,0.5139363795,0.3249281097,-0.0515821098,0.4651892252,0.928471765,-0.1272884337,0.6497682619,0.4863414608,-0.6372688133,-0.5020092086,-0.1252489086,0.0092317295,-0.553353208,-0.0333599174,-0.5079847212,0.269762322,0.777614947,0.448218116,0.3662962011,0.1484101703,0.1670047852,-0.3424739734,-0.6572475278,-0.4096714818,0.1333327534,-0.0894062151,-0.2776455651,-0.0775273268,0.149821844,-0.380967898,0.1709957287,-0.2436299061,0.3097988083,-0.2840823821,-0.5856091543,0.5205191735,-0.5521714426,0.1466581291,0.1073303427,0.5265295594,-0.2831980783,0.2444536269,0.7909966818,0.360726741,0.2005604892,0.495281746,-0.0537200735,-0.4498210501,0.0828829563,0.0135108795,0.0330959158,0.248062487,0.0193143044,-1.0943565951,0.6359084322,0.2539811281,-0.3350116673,-0.5709693564,-1.2928260423,-1.004474672,0.4375721292,-0.1653104475,-0.9880521306,-0.0368747083,-0.3535711336,1.2606509372,-1.6458352358,-0.3168158707,0.1673209664,0.8714099912,1.6744090121,0.0694182576,0.3076563794,0.4720962927,-1.0444046227,0.237506833,0.8954985496,0.4528595919,1.5679861984,-0.9998355061,-0.792417022,0.2328822876,-0.0549194475,0.8295683095,-0.3725164868,-0.3492954011,0.1127551701,-0.1589739026,-0.0624809887,-0.5561455827,-0.4826894634,-0.5089191696,-1.0702760574,0.413071506,-0.2644235441,-1.196842168,-0.4994451504,0.4832128224,-0.9923634289,-0.7312753081,0.8995014544,0.5855993958,-0.9880146325,1.195267418,-0.2938687726,-0.3101678524,0.5644291399,-1.2947560903,-0.5798915168,0.3206623112,0.2148909099,-0.3163902475,0.0636727517,-0.5819732398,0.8516773729,-0.2703574663,0.1522055131,1.4182143063,-0.6947971026,0.2429520262,-0.695582807,-0.9083902247,0.3219776105,-0.4056681342,-0.6742527508,0.1613024049,0.641464841,2.2430351687,0.354032285,-0.4541451727,0.5567015952,0.3096544273,1.2936951239,-0.3666187327,0.2508598919,0.4645412503,-0.8870925458,-0.5021119753,-0.4362956688,-0.6533318271,1.0228986321,-0.6575710866,-1.1894240225,1.0125219494,0.5994367999,-0.433135273,0.9983508933,0.8273862175,-0.1648803182,0.1521684834,0.5682205062,-0.7332998495,0.0018733706,-0.1639512629,-0.4400897629,0.2505169293,1.7681537448,-0.4468986072,1.009353202,0.8152346203,-0.6501540651,-0.2878965809,0.610307577,0.7428364277,-0.5628732711,-0.9421593911,0.6012465682,0.5874225706,-0.0219922564,-0.4373146358,-0.4774315306,0.1178097815,-0.1502296592,-0.7310051946,0.7108634929,-0.2683840958,0.0559070884,-0.6665448112,-0.3800933509,-0.0501751622,-0.0603164023,-0.048847896,-0.0792127011,-0.1815710167,-0.4137836828,-1.1327234443,-0.5143108917,0.2842064735,-0.7301479139,0.1373517092,0.0370795274,-0.5702443078,-0.7285700817,-0.1452183565,0.4225224532,-1.1103362183,-0.5316976148,0.3883464143,-1.2205314466,1.4430809479,0.2191848258,0.0343800743,-0.6428647341,0.4940893694,0.3530175401,-0.036870242,-0.9412474509,1.0150573291,0.3431056883,-0.0514712652,0.2576634878,-0.4850472811,-0.111054931,-0.1534943374,1.0581499888,0.5364897962,-0.2002320495,-0.636271412,0.1719456398,-1.259894948,0.0733856301,-0.1463497353,-0.9773358057,-1.2023980929,0.1907053209,-0.8459008043,-0.528577566,-0.0106907698,1.4197594322,-0.4051397228,0.8657548694,1.2785130634,-0.4347346711,-0.1496293225,-1.2681897535,-0.7689426387,-0.0899625993,-0.8863587793,0.9068433063,0.9039314072,-0.4662240481,0.1300029373,-1.1801637612,0.4769774039,0.7412302692,-0.6345033191,1.2888208505,0.7069654519,-1.2562195362,-0.8411481437,1.1313794972,0.3193710313,-0.0363042936,-0.6355992547,0.1171268138,-0.0799527211,-0.2727177342,1.19273494,0.2632095977,-1.488846735,-0.1748931243,0.5428454144,-0.5770695606,-0.3851878943,-1.3168469719,-0.3536107842,-1.3144787282,-1.3391923861,-0.200251907,0.8439833899,0.0812058816,-0.4627384811,0.3021715146,-1.23776979,0.4061115412,-0.3922407163,0.0649129214,0.6560319857,-0.2730168383,0.6858587742,-0.2705554796,-0.7432928107,-0.3867806907,1.4745869375,-0.1385799872,-0.3809095038,-1.4642376182,1.4100087175,-0.2584117557,0.0933055582,0.1954570899,-1.0313180346,0.33232129,-0.4975864706,0.2362639033,0.8793219044,-0.824943073,0.478809236,-0.6883994381,0.0300792766,-0.4447579743,-1.8410619793,1.6234257689,-0.775966502,-0.0806872544,0.6830302159,0.2300997394,0.5777060218,0.3474038877,-0.2297721596,-0.167935343,0.6021839661,-0.1379602018,0.5774759487,0.5381139698,0.6181973052,1.3635160315,0.0579956221,0.6565146405,-0.7370965451,0.6924575412,-0.178774601,0.7160305304,1.0604477,-0.980390915,-0.0080280379,0.630603961,0.2640015442,-0.375903375,1.0163921192,-1.2054699395,-0.728368267,2.0994602074,-0.1293452759,-1.6264091413,-0.0315959355,-1.1770304145,0.5067232803,0.124497817,0.1833172835,0.4193667543,-0.1267673384,0.005239799,-0.2095462105,-0.1501552848,-0.1752064811,-0.5932537574,-0.1219319015,0.0711967207,-0.4258688107,-0.8410020019,-0.2079734888,2.1741557153,-0.111818124,-0.1224505769,-0.4395799577,0.9292356305,-0.1562849755,0.6466638995,0.9368221124,1.2062273421,-0.3781321986,0.6578811172,-0.1306044812,0.1688749246,-1.0881425142,0.2969716546,1.3658131796,0.171205386,-1.7225840378,-0.1620596813,-1.316481589,-0.304359286,0.7376292702,-0.2767403993,-1.2334380512,-0.8533816623,0.1563903817,-1.5221844724,12.3189099933,0.4188028388,-0.7966501256,0.4558482237,0.2462945657,-1.0416045416,-0.1458206156,0.0243538242,-1.556224177,-0.5702937074,1.3743043747,-0.0504310121,-0.1949654835,-0.314167778,-0.109692225,-1.2995466443,-2.2456222535,-0.3062378003,-0.0637663775,-1.0649247204,-0.1685867214,-2.747294608,0.9093242379,-0.5859939149,1.1460016979,-0.7254844692,-0.287200343,0.9988628444,-0.5340859476,-0.6474565346,-1.2267526884,-0.4096244096,0.2599302024,0.8457771248,-0.6924028998,0.7316332323,-0.4874840706,-0.8012768894,1.2003147084,-1.6260116422,0.1498878779,0.5022274092,-0.5725024676,0.6746041773,-1.7351021835,-0.2953336303,0.0512979825,-0.0003414457,0.504968729,-0.4446121634,0.8491677228,1.5690368471,-1.7704692188,0.0909864806,1.4479697822,-0.5671632854,-1.2696503734,0.8122709744,-0.4236735993,1.4771017659,-0.7918889795,-0.0344299982,0.0942354159,-0.0461470366,-0.8481508913,-1.4177937995,0.0442626582,0.0948873168,0.787453953,0.3348642279,0.7169034196,-0.477962449,0.9464939892,0.6500017739,0.4090765785,0.2258969026,0.6533408411,-0.4386137678,-0.0660745528,-0.5410653956,-1.2409006526,0.0015836892,-0.5839393448,0.5016837405,1.0471932827,0.2795842084,0.1087877272,0.7376216628,0.1600509327,-0.5596287773,0.629210518,0.4384219067,-1.2842175665,-0.2878166796,-1.4495538014,1.7235208527,0.6526530532,1.0041444149,0.6245844068,0.3625550726,0.328922052,0.03889496,-0.8138447253,-0.3228163088,-0.8444180552,0.036000587,0.4501162672,-0.1718261982,1.2622115791,-0.042869806,0.4386142998,1.6262902271,0.038829126,-0.336977082,-0.319108458,0.0782653677,0.5073531255,-0.0085421003,-1.0725087666,-1.0612630535,-0.5609527453,-1.7339620731,-1.0230307432,0.2884948604,-0.0806493257,-0.4848557624,-0.2111273884,0.4064221476
   0.7895515948,-0.0243197293,-0.9747064125,0.9114810348,-0.3090020383,0.36869908,0.844855152,-0.7547764511,0.1547437572,0.7153284508,0.3757341628,-0.2997954754,0.0574565222,-0.5769221867,-1.4230962815,-0.4075585813,0.2737654188,-0.3256061961,-1.4743454582,-0.0574709544,-0.4031105025,0.35345212,0.4201320791,-0.1893133003,-0.2352006227,-0.4070408597,0.2274900792,-0.4998212209,0.3284896257,-0.3190761886,-0.8403709919,1.462089284,-0.4681941024,-0.3814051638,-0.4104694817,0.108968308,1.2545882851,0.5950425136,0.2244298794,-0.8681858801,0.5795640612,-0.1608442933,0.134936265,-1.3303551618,0.3165629189,0.7928149218,-0.620056527,0.0605641971,1.2101565326,0.2071450734,-1.2202639937,-0.213629804,0.0727339691,-0.4477492178,1.383802721,-1.5725150851,0.2864814219,1.3248380143,0.1832075715,-0.8805718633,0.7516979174,-0.7506740629,0.1762083636,-0.2848644028,-0.0020136575,0.0949571339,0.4090029241,0.9092659693,0.6824825297,-0.2770733313,-0.3467799697,0.4337224428,-0.0447687404,-0.0954446669,-0.6581368276,-0.3229241724,-0.2752978351,-1.4822640873,-0.840173202,0.0391963218,-0.7583311327,-0.1257710151,-0.6787139507,-0.7144547864,0.1008687666,-0.3579956785,0.3892005263,-0.4919406336,0.4671589105,-0.2451572817,-0.8514272995,-1.2248462233,0.6702191726,-0.3300134215,0.8390071422,-0.7638611427,0.7326838412,0.0453239549,-0.3374337611,0.7962245016,-0.8105771011,0.5845235557,-0.3129386838,0.1519893754,-0.8217333396,0.0901492966,-0.3130397118,0.0289628329,-0.2980699794,0.1446716209,0.6771131932,0.3342864255,0.1912661688,0.6614497861,0.9589584181,-0.7140827791,0.60278787,-0.4063753833,-0.242087643,-1.0328513708,-0.6132040456,-0.5168351514,-1.0477293039,-0.0757400136,-0.0635272903,-0.8800800712,-0.4851087013,-0.5927196542,1.1427394554,1.0956664661,-0.1604692035,1.4855639453,0.1159972202,0.5839222327,-0.6993241698,0.1254796557,0.5570247523,-0.1393076468,-0.9518312336,0.4768922214,0.6306260155,-0.1213181964,0.6974659242,0.0120557355,0.3892806197,0.5662809508,0.7983859843,1.1898227754,-0.1166876369,-0.6240487857,0.3891421874,-0.8204297779,-0.1634943166,0.9577124075,-0.5538635235,0.2662593902,-0.2201399204,-0.4553410491,-0.6244329883,0.72796964,0.1473790828,-1.0050139745,-0.4268104611,-0.2538576508,0.1391206148,0.9266541103,-0.2486697486,-0.6266124187,-0.1531406853,0.3754922821,-0.060209215,-0.1101319857,-0.6679784305,-0.353507326,-1.0021273658,0.529636234,1.4721276586,-1.6157299305,0.0662084836,-0.1111142194,-1.9699471412,0.700312077,0.383365625,0.5793762167,-0.7338719023,-0.2048533525,0.3985062571,0.511594675,-0.2363932527,-0.196877116,0.0241125666,-0.5548747877,0.1467829094,-0.0827911236,0.0288649097,-0.0799018193,-0.8731359486,-0.3114763631,-1.946589151,0.729391962,0.4195236743,-0.7012340311,0.0785590185,-0.2651350985,1.1828855747,0.4327595792,-0.9933642703,0.4184027551,0.3012114118,-0.4867416663,0.7097066447,-0.5093376847,-0.7554421545,-0.4994083818,-2.358189451,-0.447162402,-0.4995983872,-0.7345681165,0.6260192501,0.4668211985,0.5770341143,1.3643237112,1.115866754,0.560488869,-0.5784485538,0.4049307326,0.7486284788,-0.9071307998,-0.9036532927,0.046360348,-0.9137660329,-0.9272146253,0.0830626623,3.2684893153,-0.899376917,0.3591496851,0.4792064517,-0.4130804069,0.4644150647,0.0678961766,0.3949220371,-0.8301121141,0.490062778,0.3674011115,0.0496128965,-0.1137181594,-0.1536108384,0.9262756218,0.4336013325,-0.2136297309,-0.4938361717,0.9301300672,0.2337265828,0.6384864509,0.5197465411,-0.297295532,0.7726187074,-0.8893703368,-2.2138164929,-1.3616818251,-1.0507637939,0.8304719385,0.3358685877,0.5987471465,0.2626676408,0.1528216143,2.4603121184,2.359360302,-0.5182414276,-1.6036827964,0.3648915836,-0.3844590539,0.2765614643,0.1390385362,0.5947904363,-3.1713286198,-0.043801399,0.3086731532,-0.1428703475,0.3583817916,-0.9931550462,1.2243734097,0.8067935514,0.1230326236,0.5206829317,-0.0090520244,0.9209586266,0.0073819211,-0.6471796749,0.6269658227,0.6789767296,-0.2038879604,1.5039107035,-0.2937629385,0.7080640332,-1.2255052218,-0.7739831994,0.2458675551,-0.7503610375,0.3851975636,0.33916684,-0.3206430656,0.3835395475,-0.0259095539,-0.4949647813,0.1896786982,1.2478708963,1.3422751993,0.2418090312,-1.7698230748,0.0681213527,-0.7436393626,-0.1445048106,2.1124302037,0.7062085879,-0.400594711,-0.3061674673,2.9040046569,-0.1053924483,-0.440485379,0.568188673,0.0020391015,-0.1600537563,0.1694277339,-0.1451404913,0.0617132352,0.4548913218,-0.1465450609,-0.5641828335,-0.5846579801,0.9966107725,-0.518330681,-0.2927727153,0.5988425093,0.4466106328,-0.8789323874,-0.8361214851,0.3443094987,-0.0623535041,0.3936746409,0.1096008507,0.0424083059,-0.4553090926,0.2341480685,-0.7204758515,0.1872002479,0.2636739199,0.8353761928,-0.2817521122,0.2895235212,-0.3026948404,0.3381671393,1.3608253187,0.6606765431,-0.1494572651,0.0391372127,0.1341451343,-0.1582458728,-0.0831889289,-0.1214476979,0.0285121598,0.0823504191,0.6753643042,0.2765522455,-1.7290469974,0.1361100835,0.1676953693,0.0106517497,-1.9965093249,-0.7973622525,0.6241789618,0.277954301,-0.5462452816,-0.4189088335,0.3703313284,0.4795500037,0.3380947968,0.0918232482,0.1711284859,0.1835322489,-0.0840422489,-0.1037834496,0.853562804,0.0230885944,-0.0563511078,0.2755852791,-0.3569420936,-0.0794079719,-0.272267823,0.2148022943,0.5000648155,0.3628718908,-0.361814942,-0.1912231144,0.3286020076,-0.9307508289,0.3511043217,-0.8998313525,1.0605767895,0.3589407282,0.0178124135,0.3382953858,-1.1074769124,1.0775565587,-0.708851542,0.2437185092,0.5750383687,0.177918639,1.0078129729,-0.0632694858,0.1841431744,0.8881938351,0.3785011235,0.475363597,-0.7699803476,0.521775326,-0.2367774654,-0.748385303,-0.2418964951,0.0685913379,-1.3567329639,-0.7681173511,0.9279462554,0.7286944693,0.340790389,-0.7761409792,-0.0961447026,-0.3538126181,0.043214712,-0.360003622,-0.1195216628,0.5541179682,0.8448911328,0.1143862858,0.1383995413,-0.0840439279,-0.0578099172,-0.0845481043,0.0745615432,0.6364781765,0.2929202174,0.6751695885,-0.3989628912,-0.0769309374,0.210579709,0.081576115,-0.2014438434,-0.5504365324,0.1255669889,0.4891989608,-0.2249574784,0.0886773324,0.1903796981,0.0020413356,0.016068932,-0.0126757178,1.2564777558,-0.2123408905,0.0305460696,-1.1907171369,-0.1832415191,-0.3978296861,0.2223693102,0.0062117865,-0.017516681,-0.544096285,-0.6525282316,0.0360150093,0.1222557818,-0.0736468365,0.3119012013,0.246002905,-0.2065488705,2.1960900131,-0.4219517241,1.057771277,0.3554676683,0.8044651618,0.6476598632,-0.2068825996,0.3463601383,0.3737706907,-0.6409367775,0.3009026934,0.5815685556,0.5748873966,-0.2862763381,0.3722258308,-0.2549891192,0.2274239659,-0.2976053986,0.7058866122,-0.0980738544,-0.4159946418,0.117610573,0.4572838991,-0.1474211388,0.167498578,-0.6442440345,0.3835588755,-0.220592211,-0.0613881841,0.5296664588,-0.5770288161,-0.6303760657,-0.1466112823,0.7001873439,-0.6893560825,0.2946029582,0.6028490771,-0.1528886452,-0.4169502591,0.4664894635,0.4058228914,-0.4717131681,-0.2573313491,-0.4843274688,0.4227853209,-0.1315920121,0.7068737363,0.889936556,0.2103680498,0.1931941544,0.2183469335,-0.5076966124,-0.5390018122,0.1411232082,-0.3806088509,-0.6817685031,0.164806846,0.9854151283,-0.8288589612,-0.8064560155,-0.4116482957,0.8309624504,-0.1522225124,0.020663888,-1.0136544762,-0.3572891279,0.2449317109,0.066686705,0.2674351511,-0.388773491,0.6886040527,-0.2163959332,-0.2388801548,0.1081310873,-0.2719544309,0.0356274456,-0.3726307287,-0.3369970487,-0.2859459455,-0.6475327587,1.4559769453,-0.0883990582,-0.3165983345,-0.1438070488,-0.17713979,0.7274074291,0.0290375935,-0.0500193033,0.0977213212,-0.6638740935,0.157070133,-0.3409984924,0.6929176988,0.0198045423,0.7539269184,-0.3719899974,0.319935275,0.2150655045,0.2137128389,0.3825366301,0.4338430095,-0.4340897492,-0.9393426715,-0.6082487857,0.1342313702,0.5020173699,0.263483016,-0.0841938366,0.3441501812,-0.0115640884,0.0084396208,0.0342565671,0.2222631379,0.639815579,0.2129504615,-0.4810112589,0.6014337189,0.6173269487,-0.9592928795,0.2873557384,0.5424272661,0.0352113024,0.2971749013,0.2469292354,-0.0695342053,0.6209706813,-0.0088413748,0.6198552308,-1.1291716892,0.3047216007,-0.2669189327,-0.4102935301,-0.2433147425,-0.5287214445,-0.4780257715,0.5435505952,-0.416659927,-0.4940407671,0.5192910922,0.5727945204,0.0459713753,0.4187840966,-0.1286239056,-0.2448588607,-0.1243733269,0.2620923348,-0.5665399629,-0.0332345489,0.4259217907,1.026885784,0.566713458,0.2599601215,-0.3178351743,0.5029310247,0.7947169343,0.2493329877,-0.2153424541,1.176345449,0.5811827112,-1.1225647565,0.262557498,0.253649948,0.8930428565,0.2074776631,-0.2791899694,-0.5512342741,0.5109010337,-1.5756839749,0.8063715507,0.0562287999,1.9338922857,-0.9038558184,-0.0920128349,-0.1838582659,0.3854077983,-0.1227076945,-0.2256071738,-0.7847453779,-0.2495616866,-0.1149689841,0.4242398835,-0.284216892,0.5883643203,-0.6847530363,0.6733195202,0.4495676925,0.8241592647,0.9274629417,-1.0629994282,-0.2364527838,-0.8695483448,-0.8105191556,0.1708255432,0.5600838816,-0.8105745547,-0.3504838979,0.1604292557,0.0119692389,-1.3974040442,0.5091730883,-1.0896420975,0.6013423072,0.4730577592,-0.1117101978,-0.6476295526,0.089214249,0.2845357766,-0.0876866044,-0.3320566557,0.1084385327,0.3368839992,1.0961908698,-1.2687600828,-1.5848109853,0.2276755692,-0.2716329946,-0.1004679933,-0.2415157135,-0.9017077102,0.2255641009,0.163255863,0.3773055754,-0.1576675559,-0.7623522062,0.8689855084,-0.0589349832,0.0132090626,0.0204039512,-0.5829994555,0.2013276733,-1.2715228962,0.235081319,0.050448719,-0.7865569849,-0.3546549544,-0.7537541677,-0.0347123819,0.9512139756,-0.886142715,0.0938830428,-0.0608204465,-0.0965657896,1.5200191478,6.8552104756,-0.2147414743,0.4787096989,0.0511834438,0.4401282429,0.5473902164,-0.8010379681,0.4404775604,-0.9106877117,0.0897064297,1.0356183615,-0.629881208,-0.8579821357,-0.3794287194,-0.6293864491,-0.7552400593,-0.532148971,-0.2160749266,-0.67221341,0.1735092949,0.0436607872,1.0498446303,-0.1125180559,0.6674281196,0.5357462462,1.0082851433,1.030328325,-0.5252652294,0.4371623431,-0.5659525348,-1.2350487238,1.3628637781,0.1146991622,0.0154335805,0.566493264,0.4577560133,0.5768945798,-1.413277029,-0.1250897319,-0.9547026515,-7.4285400544,0.7649739151,-0.4162070035,-1.1336669213,0.3628981375,0.075190258,-0.6018098651,0.9962510406,0.9418736788,0.4448844942,0.4410265175,-1.5871848398,0.6377790387,1.2793650905,0.2519295316,-0.6461622628,-0.2595459502,-0.4475159862,-0.4101239753,0.1241824772,0.7975760777,0.4499888167,1.195474645,0.9113970804,0.2511452596,0.0627384245,-0.1862481186,-0.0547514357,0.5015504348,-0.7157975158,-0.4838833977,-0.839357263,0.2763723722,-1.6434302242,0.989621498,-0.7351376615,0.2873969221,-0.4549180376,0.5971625818,0.4728928811,0.1072664363,-1.1604720372,0.4519571347,-0.1873958753,0.1143382649,0.0220451206,-0.4497496655,1.0468899411,1.1113056475,0.7912399052,-0.7386777093,-0.1005327922,0.1599706652,-0.2287443095,0.6083206959,-1.0653831627,-0.9658822158,0.2598673235,0.6999686667,0.6789067521,-2.2647711721,-0.6682905281,0.0860999048,0.3502239539,0.4794247263,-0.2840254897,1.2660002788,0.0346024479,0.6850579391,-0.4465753909,-0.0077068243,0.6273095689,0.1450089786,0.6623546818,-0.0107481652,0.2948192754,-0.1941996524,0.4729509792,-0.1489394792,-0.9279247155,-0.6167810037,-0.6904113581,0.6024969913,-0.5310619853,-0.202507781,-1.0350926859,0.1858280125,-0.2063238065,0.0717029026,-0.0305725113,-0.9241959892,0.2279486079,0.4037255931,0.8954993062,-0.1946960807,-0.2186805557,0.1783798546,0.7860466412,0.1944961192,-0.3771134843,-0.4127930941,-0.2468214526,-0.4375301164,-0.2094672946,1.2303799943,0.4404471303,0.3288588618,0.3779168753,-0.3034459805,0.1993727522,-1.1356090279,-0.4950192815,-0.3368442672,0.2029003759,-0.1505041622,-0.6223355183,-0.2764861489,-0.7577149621,0.6903742383,1.1467322172,0.4518297376,-0.2548130946,0.8683091069,-0.5349783033,-0.736243635,0.0652740228,0.5908911634,0.7346965758,0.4785511238,0.5829059596,-0.0259073004,-0.2473100368,-0.5002907375,-0.496262457,-0.6245143573,0.5454448504,0.7849613966,1.1242827527,0.5849712986,-0.2211855029,-1.0567889175,-0.6906097332,-1.1803016433,0.6314048888,-0.4911029434,-0.2144119075,-0.8624010167,-0.966211836,-0.1971935799,0.6210361071,0.838700663,0.0948461692,0.112973529,-0.700083221,0.7510796769,-1.3006632409,-0.0855072877,0.0485675341,0.531351044,0.1317456558,-0.0595164448,-0.7180800564,0.2987106923,1.0184535736,-0.9198414158,0.7390359416,-1.2616282163,-0.6306004022,-0.7834808074,-1.4279167707,-0.6508715974,0.0354441816,-0.5655285451,-1.6678483217,-0.3177068253,0.6026203785,-0.6895128888,0.4305009843,0.3376024556,-0.6627098087,-1.4497530731,0.6911103342,0.5826751833,0.0971986834,0.1644982806,0.3618279991,-0.3937611712,0.148153751,0.535436878,0.2929278626,-0.6195999634,0.8202120643,-0.2058173031,-0.888946363,0.9980273553,0.6387791357,0.0561157433,0.7318918169,0.5076709333,1.6074531115,-0.5088107862,0.0993124462,0.320907178,-0.9109095831,-0.5780173101,-0.4870804051,0.3273315752,0.1151499876,0.2247140906,-0.3901189662,-0.9714935935,0.1710514096,-0.2731402722,-0.9231756431,-0.7478093576,0.1949951425,-0.2586333185,-0.4070220048,-0.2860947769,-0.1481275533,0.8497835749,-2.8797928013,0.2110732268,-0.0339967045,-0.84028325,0.3170891792,-0.1752450772,0.2720640915,-0.3417032822,0.9145493443,-0.2255247735,-2.1123888928,-0.8845792246,-0.2281227047,-0.7433222054,0.2394917962,0.4119497557,0.1301005617,0.3199143528,-0.3076909488,0.1034294409,-0.443416678,0.5148178341,0.3893781861,0.2419585997,-0.8296007226,0.2993300614,-0.0339373532,-0.7000766549,-0.4044988673,0.4438583268,0.5617827755,-0.8084631317,0.0875000836,1.6672175836,1.2294704782,0.2223338465,0.8941327893,0.5982015558,0.2423409715,-0.0899829145,-0.2826824882,-0.2318944528,0.4078779971,0.5407465112,-0.9163649314,0.5907050066,0.0273854247,-0.149084937,-0.7106424193,-0.5372151148,0.3279050845,0.1948188921,1.3186004128,0.6399234309,0.1345375322,-0.7752721903,-0.4935242708,-0.2969282921,1.3507294616,-1.0674238176,-0.8305388961,-0.4104114417,-0.7250206138,-0.4589850438,0.6019797929,0.7267001438,-0.3918561769,0.8385075174,3.025343851,-0.1911278772,-0.2228456692,-1.2252057905,-0.6791744313,0.0419024977,0.1496410553,0.2756396174,0.6708608357,0.1128507355,0.3047007596,-0.0866455494,-0.1303066457,0.4038333869,0.7218861408,0.1312163596,-0.0844641436,-0.4010902959,0.5077286023,-1.1060972811,-0.0947210474,0.1326845244,0.6445852743,-0.3308174909,1.1572199469,0.2512507964,-0.0354403732,-0.2442064195,0.9212612386,0.1249020964,0.0602089932,-0.2763475094,0.5937222284,-0.2207439943,0.643350244,0.4330284395,0.4249414439,-0.387942329,0.4768598537,0.7673826508,0.1287789669,1.078155884,-1.0379708721,-1.3103796323,0.1593449107,-0.2239824293,0.1491912008,-0.1063945625,0.1659731799,-0.3396887543,0.0117100002,0.6477251943,0.6789930517,0.2882237809,0.0470972763,-0.3494653473,-0.0234970642,-0.1303083593,-0.0042293559,-0.0120809,-0.7540177045,-1.9901157728,0.2215751098,-1.8514425323,-0.3475789073,0.2216991752,-0.2247250039,-0.203910041,0.2332658894,-0.5449072006,-1.0894607673,0.6641360483,0.8757761883,-0.868747064,-0.3850010834,0.4073868835,0.4779176299,-0.2193253767,1.5387004999,0.6465440141,0.2888547104,0.862616674,0.2149762828,-0.3210609849,-0.8797829155,0.1798080634,-0.6849546204,-0.3933953511,-0.3538548308,0.4956519261,-0.0888354064,-0.8596445486,-0.451447775,-0.9386012169,1.0352218779,0.5527993512,0.2958423053,0.8967331468,-0.1571946439,-0.0782353248,0.1335247973,0.2525330033,-0.907622896,0.0066127054,-0.2068023027,1.043983443,-0.8592430178,0.1888191751,-0.185622082,1.1466961052,0.7877938781,0.6274730161,0.4790163043,-0.411669306,1.3026726593,0.7868174192,-0.8398940809,0.8094374715,-0.3076298579,-0.2419569116,0.2228179614,-0.4700398665,0.2401529207,-0.6751521005,-0.1656489244,0.0576584594,0.0229687699,0.0350897946,0.3782959628,0.3110889773,-0.4196874663,-0.2003578055,0.3827289214,1.4339698958,-0.1854788449,0.5499174496,-1.1207342142,-0.6813254284,1.8793587613,0.5535824499,0.3734915525,-0.2074726311,-0.9335053558,-0.001300025,-0.3079239863,1.1053129836,-0.5710541717,0.5170482711,0.7891949642,-0.2316167606,-0.4570291724,0.4250800885,-1.4267877007,-0.2517417154,2.022946479,0.327266218,0.5408803192,0.6512223116,1.6995380292,0.9826354179,-0.0228673814,0.4472906678,-0.5882287694,-0.7831321796,0.25157135,-0.5168575928,-0.7664347333,0.6436689427,0.3372766462,-0.193300141,-1.0256453917,0.837627615,-0.2139991052,0.2950148208,0.3495093418,-0.5836812163,1.4626404389,0.5034428893,0.6798739599,-0.3203883333,-0.8921665597,-2.060869164,-0.0994283605,0.2145122436,-0.399854349,0.8818843482,0.5702172196,-0.0253509228,0.0178460343,-0.0036541452,-0.1966381345,0.2005797705,-0.05074075,-0.0559359527,0.1879167452,0.2006041002,-0.0264198811,-0.4549672461,-0.084580491,-0.6733354786,0.3162746416,-0.446943272,-1.6248845535,-0.7014594877,0.3809800297,0.4569569254,-0.420823334,0.308685735,-0.1681040142,0.3957222478,0.3267108507,0.1057327375,0.0275145469,0.5381979094,-0.8545277473,0.8481027604,-0.0079018812,0.0405234383,-0.4958459801,0.1558938367,-0.8205295415,-0.5579713895,-1.3318639028,-0.2414210604,-0.2018396569,0.8925939951,-0.0548131017,-0.405218496,0.6176884139,0.5386747031,-0.3938885746,-0.0771400032,1.8116472729,-0.4610844622,0.0709292595,-0.4041172267,0.0213198934,1.1434528844,-0.2843992568,0.3517869905,0.0122799503,0.3218312498,0.0436134724,-0.3301380933,0.1499903648,-0.2897974468,-0.3562871655,-0.0813877998,0.3736376241,-0.0474354203,0.3406084417,-0.4989768073,-0.1786716424,-0.5806014451,0.1747732689,-0.0415835523,-0.0917354044,0.1624251927,-0.39130032,-0.287986032,-0.2300648402,-0.1123078262,0.079791547,-0.2587727049,0.6006014248,-0.4707450834,0.1386289358,0.6287720403,0.0130589946,0.4074835167,-0.1499363403,0.3400598585,0.8160024268,-0.0664971779,0.0715491315,0.1186097806,-0.0677244582,0.407233177,0.8925988552,0.0291991328,-0.5171752431,0.0103867874,0.0838504378,0.2189893976,0.3651440735,-0.2562022355,0.0922794211,-0.1024094655,0.0695212738,0.0997478783,-0.5329852533,0.485730499,-0.3134310709,-0.5669207438,0.2271724163,-0.4723039726,0.2088137351,0.0566970394,0.6945184267,0.1070765309,-0.3438616839,-0.3279692202,0.1626519475,0.0687993003,-0.5891775858,-0.2344069022,0.1006328318,0.0507034427,0.8791863682,-0.1370739004,0.032442479,-0.6702177894,0.9886652147,-0.5224505302,0.4848225765,-0.293056082,0.5037693055,1.0805894722,-0.0116487366,-0.0486936697,-0.0124691785,-0.4536914266,-0.2372576472,0.7510396572,-0.1939871212,-1.3103486387,0.3667500199,-0.2070519195,-2.6964692764,0.3404500631,-0.0569220668,-0.3274204925,-0.9311602051,0.9186762505,0.1848416873,-0.0039254592,-0.5450337405,0.7103831418,0.6994826062,-3.8289045909,-1.2961814145,-1.0056530209,-0.1317280505,0.4326227702,-0.3480533431,0.1668814973,-0.3457623187,-0.5329892967,-1.8171828437,-1.5460263689,0.5984217343,0.398245354,-1.0024220163,-0.4789162551,1.5033516633,-0.2012367871,0.1587936196,0.4888128592,-0.8148111168,-0.7602054673,-0.0097073638,0.0342389935,0.0905422467,-0.0652801487,-0.6079232343,0.255401771,-0.307094503,-1.0761702825,-0.1630008099,0.3227715922,0.5623274337,0.1479763894,-1.2018936554,1.1222585852,0.6550057377,0.5206163693,-0.3097758555,0.5939055276,1.0056511409,0.343206959,0.0021977673,0.4405633421,0.9716410587,-0.516001166,0.2447759314,-0.196408491,0.0135677277,0.3410986653,0.5127826952,0.4569321536,2.1210819221,0.4477958033,0.3084045731,0.1343240866,0.1635746141,-0.0964304004,0.0916037378,0.4951742114,-0.4145235704,0.1830489022,1.5449026803,-1.0939580263,-1.2439304989,-0.2071563793,0.4567088377,-0.3562284633,-0.3376433554,0.7164026686,-0.143911703,-0.389610598,0.2952627285,-0.7946378579,-0.2906983275,-2.598760018,0.8226414741,-0.5923907173,-0.9917065498,-0.2574634426,0.1098032229,0.7260007849,0.1012900853,-0.2098966475,-1.130494194,-0.3944727288,1.0643439214,0.4734856414,0.5459175057,0.3566636072,0.012160243,0.9543166478,-1.2995705882,0.5665091827,-0.3766558027,-0.7936340036,-0.5275284823,0.0674994883,0.9335689387,1.1078939108,-0.5898081065,-0.8530443759,-1.4376017807,0.1085857999,0.8613268456,0.0116562734,-0.3838574821,0.0845348642,-0.2702162056,0.0842148792,0.0861570492,0.1675343711,-0.5055111353,0.933203616,0.6985583544,0.5082034228,0.0888184318,-0.7970417617,-0.5937377131,0.0750264838,-1.9255237496,0.7286108171,0.3228264584,-0.4102816102,-0.5781550887,-1.6843061057,1.6726047033,-0.6868489006,0.5069718646,0.2270628235,-0.0831346653,-0.8153466247,0.4176958323,-0.1509384062,-0.8881708066,-0.1619001296,-0.338342552,0.032251069,-0.3799349312,-0.0205738053,-0.1774430205,-1.1636421663,-0.7401278186,-0.6884020194,0.4187494363,0.4187529264,-0.703685494,0.0106043663,0.0159225868,-1.1163307791,-0.4878408977,0.3989165694,-0.9154399038,0.2453369042,0.0893304368,-0.4877575966,-1.1679113706,0.3732637727,0.3837620358,1.1193571198,-0.3458109058,-0.4440244782,1.1241587401,0.2544393168,-0.4796364884,-0.6184864821,0.2430202348,1.0384179431,0.0837429831,0.9172271582,0.1845270088,0.708982229,0.513759689,0.1794354252,0.7354570774,-0.5155456909,0.3131113036,0.0316191281,0.0720470235,-0.211273066,-0.2567494197,1.9769767226,0.056964731,0.4593209031,0.2001508246,-1.2364798115,-0.9963760597,-0.7457740067,0.3716801206,0.3071532587,-0.8697155385,0.0642784301,0.6311830501,-0.1857710351,-0.1932456976,0.0759788531,-0.0130553933,0.1717609804,0.2237575943,0.2935353239,0.156533638,0.3629150383,0.6098701551,-0.959846024,0.2262500435,-1.7861401934,1.8357323728,0.1062060483,0.4113600499,0.1516037601,0.5940517239,-0.6462591287,0.9432000805,0.941080417,-0.5732223054,-0.2439506282,2.6058350046,-0.1563980762,-0.4620750307,0.2258077536,0.4048599258,1.8427446695,-0.4496425939,-0.4844510749,0.0813302525,0.0594763704,0.5364953714,-0.3723500088,-0.4619493583,-0.6352113817,-0.3025585034,0.6043626952,-0.7154264564,-0.9337584365,0.4679187678,-0.1009688062,-0.2890309052,-0.273821576,0.2409197137,-0.0820577757,-0.0150429387,1.2652469934,-0.0593884379,-0.5716799701,0.3079988766,0.4504137065,-0.0318072093,1.1691253522,0.4918690879,0.6511912901,-0.1071290015,0.6187248323,-0.0643157797,1.0083077885,-1.1536384982,2.1387523451,-0.1195770594,-0.1168753536,-0.2163232118,1.189530279,-1.3966136389,0.3720656812,-6.9524389813,-0.241975064,-0.0709001898,-1.5355359008,0.8074488438,0.1788106148,0.3758786152,-0.4056122005,-0.8330869296,-0.527021357,0.7633205957,-0.1529773968,0.7634519433,-1.3947610388,-1.5545887648,-0.2271609706,0.3181194385,-0.2299767752,-0.1612380576,-0.5950985511,-0.4492241822,-0.2748616167,0.0416705207,0.3632395093,0.8889528,-2.0484624868,-0.6672586674,0.5820650269,1.2288521982,-0.1228478429,0.7591423631,-0.7783299298,-1.030811617,-1.321939978,0.9413139242,-0.2886041841,0.4082133835,0.4551474856,-1.5325942,0.0972671119,0.1121833584,-0.3495557765,-0.2315389231,0.6581342442,-0.341300472,-0.1916930635,1.1279421335,-0.3443635078,0.0148457053,0.2430762761,0.787102844,0.2798382647,-0.4391699347,-0.652866919,0.1055029091,1.4928106385,-0.0516594568,-0.502536798,0.4772766925,-0.2476683384,0.0347418441,-0.4050166242,0.4635492173,1.3866029851,-0.1083583279,0.0723787626,0.6397328424,-1.1370218345,-1.8991348088,0.0699685907,-1.0095772892,0.3827601671,-1.1673109774,0.4883576417,-0.8139570188,-0.3049493653,-0.4346195869,1.4216202661,0.0732602009,0.2601494748,1.7150986796,3.0620033673,-0.6201234987,1.0028882975,1.0632886459,-0.9946315136,-1.5507415434,0.0929767052,-0.0465070627,-0.9830617294,-0.5279286242,-1.6161696655,-0.3808826413,1.5822903563,-0.366705251,0.1626959878,-0.8502821851,0.3865249658,0.1837853789,0.1179079599,0.2281349036,0.5680189563,-0.293223822,-0.7020406884,-0.0843574982,1.2171925619,0.3242070438,-0.0969130308,0.0060308889,-0.0651503494,0.1208868262,1.4279673549,0.2362441709,-0.7046585828,-0.9437500703,-0.3407413427,0.3198227751,-0.6608419621,-0.2241768717,-0.3666452424,-0.0917538525,0.1202431571,-0.8675092496,0.1925694844,-0.2892967826,-0.4226380079,-0.5832779143,-1.1865732914,-0.2636354473,0.5729501711,-0.3086978924,-0.7882872594,0.1756025385,0.1952812226,-0.8937336556,-0.2321930342,-0.7290954273,-0.0793841754,-0.3500486205,0.1315660496,0.8190263359,1.7102922301,-0.634181019,-0.5109187692,0.621965116,0.9972768614,-0.5051147646,-0.6852082554,0.4186566199,0.0929800883,0.7586723454,0.2776028117,-0.4097669633,0.4190364431,1.1771926999,-0.7858973718,-5.6021548986,-0.0588756149,0.4310601916,-0.9204588504,0.2481434951,1.2309267522,0.1311276775,-0.7110485175,0.6935642932,-0.9353291965,0.3762233214,-0.0675409271,-0.8693533862,0.132303311,0.2121042984,0.3563420992,0.2323347099,1.0933533331,-0.8016195438,-0.6669124129,0.479839316,0.4338635505,-0.0081160091,-2.2903129543,-1.1520828124,-0.3063803187,-0.5823362517,0.6184229227,0.1112178922,-0.2550479379,-0.0463012465,-0.7573257759,-0.2874408193,-0.0736479307,0.0872653618,-0.4022547062,-0.2962330361,0.8275196512,0.2706520278,-0.6466721017,0.2897887616,-1.1815996884,-0.3091420592,-0.0946144646,0.391778923,-0.0511921156,1.3662520563,-0.7084347611,0.8544944368,0.1773906834,-0.02135678,-1.6275062902,0.8847176162,-2.355138055,-0.1591854969,0.1585392549,0.6657262283,-0.2215343353,0.1400890328,0.7534710343,1.4123644106,-1.1770480204,1.0666915238,-0.7670048315,-1.0669470398,0.7888752772,-0.5223897871,0.2128862912,-0.3251354242,0.0746773736,-0.3774822579,0.3094455674,0.2378850928,0.2286535311,0.4023358709,0.4218262802,1.1014475889,-0.4306472698,0.344132904,-0.3952452094,0.4908636476,0.7425258304,0.126326614,0.1872395437,0.2196252896,-1.8358594899,-0.1109511315,-0.0202424329,0.0412305822,0.7011874047,-0.7622781561,0.2233581793,0.0181143863,-1.2223274667,-0.2459650576,0.7707441633,0.7188981285,0.2716711858,-0.6785550847,1.0741843235,0.750616688,1.006670849,-0.1188598218,-0.4777334149,-0.0572369477,-0.8803026539,-0.8675210984,-0.8763019892,-0.0138585354,-0.2640090987,-0.1186335875,-0.3883825969,-0.4322583435,-0.4356966395,-0.6797252266,0.4733934814,0.5175710304,-0.5279209204,0.2683052839,-0.7572394444,-0.4386989277,1.2200781253,-0.3273514449,0.6423077111,0.0276137736,0.5449998457,1.1851295772,-0.4614121339,-0.1183526421,-0.0750758174,0.2994039383,-0.0318904285,0.222271214,-0.3770774034,0.4504505555,0.184045089,0.5142326786,0.4659281188,-0.3815930312,-0.6077700742,-0.3165481227,0.099050706,-1.5013577918,-0.5152276703,-0.4552457023,0.0372488028,-0.1310269783,0.2049235487,0.6453802431,-1.1866224993,0.0867544381,0.4720811783,-0.3941588346,0.7886771518,0.2950994049,-0.3629605843,0.3535406563,0.1248512645,-0.2833633971,-0.1503615689,0.524781796,0.4448547551,-0.3290761333,-0.7059821141,0.4138963784,-0.2614994116,0.7746317197,0.1064814651,0.5814197066,0.7927682174,-0.3454357399,0.4112450482,0.7708443349,0.1120074188,0.664174742,-1.2409099369,-0.9882240318,-0.2154717957,0.4489468171,2.0353651229,-0.7099304304,-0.4410753547,-0.6068923539,-0.4748183093,0.3873447137,-0.8049564561,0.0827568045,1.1460621521,-0.3052781836,0.5631166795,-0.6708689839,0.1484060475,1.3470035,-0.0140328632,0.4674005877,0.4789945249,-0.8879403394,0.3134356274,-1.3843943545,0.3383193622,0.1486220946,0.2791503397,-0.3518132655,-0.4050493413,-0.7974352304,-0.4303786942,0.2871572213,-0.88059337,1.0880518877,0.0350762977,-0.0508705965,0.4286159094,-0.2008912268,0.8790118717,0.1493371069,-1.0230815293,0.686963637,-0.0321834898,0.3930937437,-1.1607586164,0.4418390108,0.9921478024,0.13066646,0.2989115426,-0.6589187392,-0.3893827455,-0.0774558037,0.43663087,-0.3910690814,-0.3935359362,-0.755283698,0.2813607953,-0.9571234537,0.3307051305,-0.1212154839,0.385044284,-0.8344850306,-0.3557712164,0.282245573,0.1412227845,-0.3963965716,0.2430055737,0.1927303471,0.6581922676,-0.6297903278,-0.183239957,0.2668469342
   0.9298005934,0.1542368662,0.3743484328,0.7557320331,-0.091778067,0.2180000636,1.179540134,0.1813561932,0.6859129975,-0.2144088514,0.2736612721,-1.4032283048,-0.5358729167,0.355029893,-1.264170055,-0.2993390556,-0.1733116685,-0.0032095314,-0.0549073423,0.3937284883,-0.2421008924,-0.5366170353,-0.0220923223,-0.4345427447,0.0508185102,-0.9805542142,0.1521656884,0.8591373207,0.5338559901,-0.2457211059,0.4804116188,0.006083419,0.2445634796,0.0065381766,0.6866608223,-0.1065976554,-0.165973405,0.1435711863,0.3508315831,-0.0600560211,2.5451091806,-0.5079870388,-0.4790200046,1.27382192,0.5637056586,-0.4362668748,-0.767363237,0.4413768484,0.369832668,0.0981013795,0.2867547215,-0.0729046773,-1.3505384372,-0.2145818579,-0.3141621965,0.1992590517,-0.1222628671,0.2316838599,0.7758794552,1.0714305237,-0.8131051698,-0.5134838708,0.2503527264,-0.2942548574,0.0381475824,0.309347588,0.0247061766,0.0215506474,-0.874434845,0.297745891,0.3700648193,0.5950951953,-0.0821228421,-0.098116824,0.1217805352,0.1812634503,0.0356990983,0.6457007002,-0.5798538627,0.0537892292,0.7340651632,-0.0757999877,-0.6853116051,-1.5839545279,0.0540045816,0.8530838453,-0.1086950748,-0.0278954098,1.0074836668,-0.1601232146,-0.0666800032,-0.7399887267,0.5517968204,0.404967148,-0.1086625616,-0.0613137302,-0.1807270118,-0.2547339984,-1.1605618892,-0.2086934459,1.050850624,0.3843593517,-0.2917759609,-0.375629271,1.7564403823,-0.3390641354,1.6737469556,0.4933459229,-0.3293970234,0.3604276223,0.1440800433,-0.2630046238,1.0484824153,-0.3334952679,0.6574010741,0.7198238439,-0.2151832036,0.9026437909,0.5023971384,0.5763991931,-0.0082963781,-0.8208506038,1.9435631758,-0.6139288541,1.8050325685,-0.0931521575,-0.027489645,0.2871355785,0.2176434355,-0.0618696661,1.6679491949,-1.0566276173,-1.3280104682,0.6188319855,1.2219767559,-0.3888125358,-0.1233174754,0.3173237526,0.8312470938,1.921566847,0.2092221202,0.2902786445,-0.45176224,-0.159897923,-0.6620093228,0.522219935,-0.5770060938,-0.6502306521,0.2882623882,-0.0267824325,0.2527340469,0.136324692,-1.1705617275,1.7976807736,0.3736338769,-1.3695154314,1.0941910714,1.1497770173,0.4306190937,0.4580308676,0.1705859044,-1.0243235678,-0.7396400501,-0.8933248334,-0.1549493823,0.7512261987,0.8260211603,0.3134329225,3.5197878766,0.8415176481,-0.4663559045,-0.8545448432,-0.5942597862,0.2822327738,-0.8509986576,-0.2105172774,-0.1198787263,-1.6535406228,-0.1902122084,-0.7707933696,-0.089394941,-1.5845123658,-0.1933322142,0.9704775718,0.262151385,0.5740896527,0.5849683331,0.1143988641,-0.9262106185,1.7085585967,-0.913437811,-0.6013340986,0.0981019374,-0.1442182246,-0.9666502244,0.0136047918,0.4632162207,0.5993196496,-1.182007987,-0.5077565785,1.3113938468,-0.1674985715,0.3129160201,-1.1401920247,0.1126576851,0.1260687226,0.1497629642,0.9304304911,-0.0720183533,0.7012554447,-0.1393670848,0.100591991,0.0541528308,-0.3027749426,-0.8831379148,-0.1727636152,-0.7828842376,0.180859191,1.0948499032,-0.3071042609,0.342692336,0.4731895139,1.3220319013,-3.0400793453,-1.5558976063,-0.6247322823,-0.1639218788,-0.7184595082,1.0808470969,-0.321830647,1.5572636784,-0.2682434264,-0.9765192963,-0.9154934665,0.7559663862,-0.559406194,0.5040915982,0.2687458709,1.217962363,0.6829315782,-0.569308892,1.1227736825,2.0538790844,0.265716079,0.3366706232,0.2056375507,0.4353964169,0.9732025829,-0.6440604456,0.0372704399,1.3958048445,-0.4108283844,-0.4402969327,-0.4734794481,0.4029350257,-1.7885407185,-0.4280740035,0.4164454283,-0.3325834384,-0.1802657037,0.7131488446,0.154723258,-1.1556400033,1.1446888461,0.2906976746,-0.6381050464,-0.2440056819,-0.9373080008,0.2539881669,0.9311011079,2.7302477179,0.6153114882,-0.1537915305,-0.0162848206,-1.1373373608,0.2016532539,-1.4001368773,0.1286119664,-0.7693539205,-0.2332602762,1.2586721233,0.2657066785,-0.0918451937,0.1248815429,-0.5861958195,0.5545171349,-0.4527013215,-1.4065742399,0.0475606067,0.2671727304,1.781651362,0.1335217851,-0.6707208138,0.5897595948,-0.5750068029,-0.3316173119,1.0791188307,-0.1146594876,-0.4099906957,-0.7381819905,-1.2290617277,0.9747258338,-0.0222666295,-0.6505449814,-0.4981800704,0.2085213818,-0.3570371191,-0.78612313,-1.4308495328,-0.0108348359,0.5834649617,0.0659208931,1.3853531024,0.8576276293,0.262141256,0.6836033587,-0.7427282997,-1.2208283831,-0.7890444639,1.4396536303,0.2794481,-0.3278102234,-0.6108784791,-0.7965896077,-0.0817458329,0.558555253,-0.6813550034,1.3480211356,-0.6430026365,-0.1507373092,-1.072771007,1.2688093919,0.0245036575,-0.1558964272,-1.5194785129,-0.0878493902,0.9965014192,0.0059779764,-0.8978378113,0.2515435631,-0.5297704296,0.4145959596,-1.487893723,-0.2802959424,-0.008464526,-1.1477406452,-0.8959181646,-1.4043361776,0.0252807545,-0.6447806267,0.1443717332,-1.7174376558,0.8947361488,2.1450171261,0.212991737,0.1234441932,-0.2293525363,-1.3891583755,-1.0422930396,-1.1642734824,0.0303466246,1.2394229237,-0.6403641841,1.5818165708,-0.1629806434,-0.467445475,0.4123450798,0.7404454591,-0.9570657844,-0.2384327397,0.5649269052,-0.1005468918,0.1902529172,-0.2063528641,-1.0104487034,-0.392972643,-0.468696872,0.0437586457,-0.2267304091,-0.4544089344,-1.4162101784,0.4162453746,-1.1321536483,-0.5097317366,0.2589825256,-2.1091711878,1.3603510962,-0.0403119018,0.3983769971,0.3183113257,0.5911244641,-0.4824455189,-0.7852443716,0.4497510384,-0.7443314307,-0.9401122559,1.0875921368,-0.6515495669,-0.8653347433,-0.3110622034,-0.7292304182,0.7314158343,-2.6863181448,-0.3537496171,-1.0696185966,-0.4655448355,-0.7223763389,-1.6903716988,1.2024639737,0.7367643379,-1.7742743138,-1.0204261067,1.1201277878,0.744489411,-0.2847391327,-0.4769650494,0.0815168175,0.122217145,0.2210897145,0.6246003067,0.8938655097,-0.163616089,0.4834739509,-0.6864778019,0.0342764438,-0.0187441729,0.3936763261,0.9049423699,0.2581777204,0.0501275709,-0.9690042745,-1.0222546699,0.5086624648,-0.2050876487,1.0229401347,1.2892877798,-0.429362349,1.1716738842,-0.5690733656,2.2936600009,-1.3277001152,0.3367348004,0.1043427284,-0.1324033423,-0.9594242132,0.2546206658,1.0602458686,-0.9099917213,-0.2050571312,0.2297215073,-0.5368143133,1.0132714249,0.3549267554,0.573671542,0.5643653978,-0.7642534184,-0.3957613492,0.790289184,-0.3045821123,-0.3213017276,-0.8047543532,0.4832950028,-0.4344952156,0.4319998773,0.9680736935,0.8032438956,0.4851896128,0.2484952783,0.7954234839,0.2761770728,0.9846017775,-0.7303975637,0.3351154341,0.4091827654,-0.7275528661,-0.6935535005,0.9834924844,-0.2899674024,-0.2065568779,0.0616175537,-0.0723769736,0.8048149931,0.5768232673,-0.0736452398,0.2371214294,0.0562906584,0.4936475703,0.0565505224,-2.1495014724,-0.8000025663,0.4083009895,0.3778500457,-0.2007853223,0.0999684759,-0.1127008173,-0.321708129,-0.3384157138,-0.231903308,-1.4710308994,-0.0912630302,-0.0836511239,-0.2043994035,0.2303238122,-0.1431627006,0.0141949682,1.3730901005,-0.4773556667,-0.6088905357,-0.086789412,6.2156203504,1.0120069796,0.3764822231,-0.1117902246,-1.2086972405,-0.9712612361,-0.6176558137,0.9844675913,-0.4721434094,0.0203676447,0.3976373172,0.2206927402,0.3302590084,0.5918755033,-0.7792999022,-0.634391742,-0.9794639448,0.5400155629,-0.2490033583,0.0246506648,0.981308757,0.1174006344,1.2109569246,1.278874714,-0.0526858863,-0.9228862835,-0.6915803563,0.4389688906,-0.007980355,0.3013477272,0.4706705703,-1.131863942,0.5947624188,0.8913601381,0.7934941758,-0.294284533,0.058920443,-0.083859703,0.4454906181,-0.8380338134,-0.7358985966,0.9861846735,0.1700940187,-0.9700936989,-1.1650520075,-0.8090882522,0.24051721,-1.0567602222,0.3577288374,-0.3258837912,-0.964045242,0.8020103043,0.6703050868,0.1934609562,0.8484580102,0.0710167319,-0.4559777085,-0.7153321304,1.2511688324,-0.4956174097,-0.8941748795,-0.2359667503,-0.0364994239,1.0472274819,0.4437456533,-0.1282921176,0.1680238001,-0.8381369774,-0.6995534273,0.8922247016,-0.8593094419,0.0611213694,-1.4993563561,-0.5321185884,0.3641389977,-0.5695705714,0.4643061277,-0.7270973115,-0.0005603774,0.2098498958,-0.3174870569,0.0352477707,0.3995053154,-0.6908145538,0.5136910188,0.4981097064,0.1560112112,-0.1273629694,0.6667275641,0.946257877,-0.2523737808,1.3802377074,0.6753280477,-0.5269791407,0.2839193905,0.3412584554,0.8078248298,0.4561741307,-0.3443816954,-0.4530651428,0.5000217159,-0.059686302,-0.0480107459,-1.0133928789,0.6286736865,-0.0024400708,-0.1097161494,0.0051467182,-0.2459551532,0.5579203612,0.1398214552,1.3766913872,0.3098459466,1.497594233,-0.0995638343,-1.1173997796,-0.0955059128,1.0300659926,1.4325982829,-0.5199109959,0.7376412796,-0.0149290337,-0.206964557,-0.0111201652,0.0714390357,0.3546832004,-1.4494353753,-0.5545434485,0.110552687,-0.1945958034,-1.0496198517,-0.4931197953,0.3666755017,0.1029216842,-0.5081509568,-0.2266296805,-0.1296204756,0.2541185324,-0.5840409285,-0.16381445,-0.451684971,-0.2204052758,-1.0172233135,-0.0975151136,0.7340502329,-1.1850771925,-0.0839841199,1.0737071011,0.2290393849,-1.0763421537,-0.5646895487,2.776130983,1.7418103543,0.6733166211,0.1257604527,-0.1837222695,-0.1936438337,0.0670224844,-0.9184925719,0.4291955838,-1.389050319,1.2189726206,-0.2597865649,0.2634635967,-0.0910449511,-1.5119043939,-0.5106316522,0.2963179192,-0.331349911,-0.3244638294,0.8671160816,0.5037165043,-0.1938454368,-0.6122982331,0.2204875176,-0.3966098687,-0.4739879289,-0.6859569766,-0.6573817989,-0.4985450234,-0.1791305064,-0.0542454911,0.6306008148,0.3343788606,1.4650635963,1.1713783499,0.0285595266,0.7295575752,0.2858280463,0.9586816028,-0.1806111924,-0.7000888784,0.1999658928,0.0461599388,0.7676118944,0.6757082792,-0.6248678323,-0.586260159,0.2424063988,-0.1975058292,-0.0119720037,0.0181441029,-0.4024052322,0.5156049709,0.3609838884,-0.1705917305,-0.6390916071,0.609693407,-0.57356437,1.5364752249,0.1026441776,1.3007602943,0.231457797,0.017346395,0.8037371119,0.4070773568,0.3047558255,0.8034294785,-0.1515888606,-0.6466738436,-0.5361258671,-0.0450932305,-1.058900291,0.4804309788,-0.7915972137,0.7862974457,-0.0107506449,-0.4885468617,-0.6041411782,1.1226895787,-0.1429160366,-0.8684358315,0.8044751225,0.1722889373,0.0042391869,0.1461759911,0.4965483,0.0018613505,0.0197308976,-0.393374892,-0.6811899495,-0.0018787895,0.9263715922,0.8658746226,0.4565960363,0.1186597893,-0.0960899059,0.5569258148,0.1655767921,-0.0133559502,-1.3720973878,-0.1441063617,-2.8314181704,-0.2820618723,0.7586208938,0.0454921941,0.06204941,0.3011855503,0.848850774,-0.5092690366,-1.5931757117,0.1783515341,-0.3111322359,-0.9121126685,-0.3375332308,0.4926718556,1.541359306,-0.1994637735,-1.7873718772,0.0479100906,0.6044738492,0.1500224572,0.1872145984,0.9087021069,-0.6992539169,-0.3653875776,-0.6388866079,0.21372391,-0.1485314458,0.3323026351,1.0146657386,-0.8913036943,-0.1053324434,-0.4114516976,0.5049290013,0.5894772971,0.0118463492,-0.3921880724,-0.4661513536,0.0112261716,-0.0425534586,-1.0963797697,-0.3292357769,-0.3262127953,-0.1851393127,1.1650790238,0.424631256,-0.1930718322,0.2128692505,0.3206700815,0.5778692338,0.0216266405,-0.3483834315,-0.357616479,-0.1586530042,0.5569371148,0.6344498838,-0.5420241727,1.3352870969,-0.3941956027,-0.2716359789,-0.6316894588,0.6148724006,0.2426329018,0.4129615058,-0.0278894282,0.771544327,0.5770353647,0.3119334042,0.8414256315,-0.4030523596,0.3360937997,0.4039234618,0.5981978109,-0.9060086781,-0.4446506514,-1.3471144947,0.9197494435,0.487066303,0.2864994088,0.310228317,-0.4776821417,-0.3645010324,0.4554318521,0.0701685741,-0.389212339,0.8659289761,-0.0093391641,0.2120356028,0.4882142444,-0.5295773234,0.5697097946,0.2110833562,-0.1512899721,0.2008802499,0.1856542685,-0.6618014404,-0.280987758,-0.275056644,-0.0295072081,0.408933469,0.8092766978,-0.5588290714,-0.0633500664,0.1031867676,1.0635046148,0.2721547442,-0.4172788824,-0.0663399003,-0.2214986491,-0.366355349,-0.3840462436,-0.1003240847,-1.5097020374,-0.8733268052,-0.311213183,-0.0306668566,0.5991686195,0.111044688,-2.8267846245,0.7372949061,-0.1370442841,1.3331987327,1.4996160397,-0.6682708167,0.7599569355,-0.2253136686,-1.0333974952,-0.9292658316,0.2943089983,0.2253781377,-0.3303959116,-0.1735529845,0.2674910418,-0.0934246054,0.2189427227,0.0137349528,-0.1140309574,0.1256246772,-1.2775484466,-0.3696638726,0.3089551895,-0.17387986,-0.2201541935,-0.1721915213,0.9480143957,0.3473454637,-0.4858248476,0.6862220315,0.377053585,0.8699017171,0.4424427461,-1.3028805621,-0.0593516847,-0.3865973969,-0.1799701466,-0.9962509321,0.5733287216,1.5718683383,-0.9912493499,0.381300739,-0.4041252053,-0.3832214958,-0.4711994704,-0.2075879623,0.3297740545,-1.2439064752,-3.9483788135,-0.8419462129,-0.6101927168,0.3327151929,0.1541021317,-0.057192794,-0.3210505697,0.5423588954,-0.8238928205,1.1378786578,0.3195242075,0.5770194107,1.7363775529,0.0181415725,1.4454921797,0.2819427467,0.3123930004,-0.886405555,-0.1028609265,0.8968314848,-0.5148979635,-0.8225219148,1.3619892269,1.1319116475,1.0291759466,-1.002494238,0.2139562301,-0.1897548505,-0.0315501586,-0.784726112,-0.6558556594,-0.649366746,0.3693706201,0.0951222975,-0.1956947286,0.0685808643,-0.9892826534,0.7648498711,-0.7854504635,-0.5370374421,0.1027637791,1.3575568107,-0.0884838758,0.956028639,0.5788572861,0.9694678037,0.4717676428,0.048629857,0.3626287002,-0.2608876317,0.7365025904,0.7590035672,0.6785391689,0.4640300828,-0.2295518183,-0.0815709559,0.9781747726,-0.5747713971,0.3300596604,0.5839455369,1.1121879799,3.072116984,0.3831129362,-0.0862044338,-0.3189400213,0.5737709298,-1.1545199556,-0.1834135112,0.291533322,-1.0438507106,-0.444699483,0.450829268,-0.3746483009,-1.0478052279,-0.0799709229,1.3824625851,0.9325426969,0.7856018963,-0.5152766399,0.2827866801,0.0646363357,0.1744465243,1.0625707446,0.5015098183,0.2465153845,0.4985107313,0.7197298668,1.1789917909,7.2238883939,0.0291636163,-0.1535845785,-0.1774262023,-0.6699574585,-0.3769724354,-1.1513079574,0.2223232952,0.666076767,0.0500080221,0.1400306482,1.0082860049,-1.1461312312,-0.0625821547,-0.2571644753,0.5995761188,-1.486972352,0.4820118518,-1.0001213526,-0.8952087583,0.0780672354,-0.105703398,-0.5191009958,-1.0384021433,0.5047366652,-0.5315304018,-0.6818453529,-0.0530343317,0.3352440069,-0.1099342834,-0.5653620437,0.8140592542,-0.103912023,-0.0190832845,0.1941367667,0.4287757305,-1.0697463402,-0.5442999359,1.4160510751,-0.5009542047,-0.9119623458,0.3332862352,-0.2184460374,-0.3719950628,-0.4772315454,0.7315683199,0.785653454,0.8870749836,0.1434088833,-0.6022544169,0.9471821792,0.8525166441,0.7728843419,0.4291738109,-0.9319266378,1.0277747685,-0.4556072424,0.3427301354,0.7498682486,-0.1839197732,0.0893291447,0.1601637345,-0.8353972255,0.9081110662,-0.3943880344,-0.4883810962,-0.7077059306,-0.5865906714,0.4917116525,-0.7882499399,1.4388731493,0.1299028619,0.386263975,0.6551586337,0.7688404304,0.5470283865,0.027643592,0.5000900227,0.0537986787,-0.2172414097,0.5865964954,0.1204585766,-0.2366499125,1.2903826557,0.0453703166,0.3229087636,0.0066002294,-0.5932822829,0.3196300534,1.0810307611,-1.0574417294,0.6033869767,-0.5254729485,-0.7091077233,0.2347089203,0.9730839111,-0.1016069027,0.7208691958,-1.206038159,0.6561938222,-2.3895571761,1.111508771,-0.4257442645,-1.0895670555,-0.7140219143,-0.5499579212,-1.3537920899,0.0473388533,0.5082661801,0.5705525977,-0.1272588481,-0.8060396162,-0.4557310771,-1.0943197311,-1.7674062187,0.6797357294,1.1302807534,-0.6452760299,-0.5557655438,0.6862884753,0.7033666026,0.2541243646,0.2178262506,0.2709419461,-0.1299820448,0.192848502,-0.2362555809,-0.4190512665,1.1336728428,-0.7120193514,-0.8714447644,-0.0582073146,5.7482257021,0.359175922,-0.0472140636,0.7825229453,-0.0592002839,0.4311859324,0.5799765957,0.8512810996,-0.4107788939,1.0181577121,-0.8349783505,-0.8211264177,0.7944641992,0.378558783,-0.8642931878,0.4303609539,-0.0929729498,0.2039895053,0.1810489881,1.2418786721,-0.9055137144,0.5467442725,0.6756144355,0.7844808645,0.9283170082,1.4687812704,1.5089077028,0.270911227,-0.622526171,0.6798207442,-0.151922528,-1.0591928795,1.6801746722,0.3951430534,-2.6929379379,-0.5985456736,0.3706078552,0.6867031943,-0.8392444131,-0.0767493854,1.2399816737,-1.1326922547,0.0968329945,-1.2963388221,-0.1640392167,-1.5967994015,1.464874901,0.7403989312,-0.6881276767,-1.0113314866,-0.6563373689,1.2680269339,0.2235524321,0.2103145798,-0.9428513447,0.1031353698,0.5774536129,0.6110145369,0.0221203029,0.3052901295,-0.6547182765,0.9209703417,-0.3192730971,0.7298817324,-0.0037911823,1.1152927107,0.8125784649,0.7244184016,-0.4845376621,0.4590895002,0.536456882,-0.4132346084,-0.0790600302,-1.3083903986,-0.8378196122,-0.9433311567,0.6146060138,-0.4214003898,0.0877967012,-0.0843364025,-0.7049275253,0.7990466879,-0.1560336188,-1.5089791125,-0.677456017,-1.3647749638,0.1857551739,0.3038973356,0.0298369328,0.9516510301,1.1007337868,-0.0546051838,1.4051634818,-0.3775256771,-0.9185560692,-0.2331779285,-0.2429919442,-2.2228401183,0.5599847488,-0.014403401,0.4813782576,0.1370633027,-0.7689690795,0.8522028093,-0.910278368,-0.6391800818,-0.4456849201,0.987634329,-0.235188755,-0.3732039877,1.2523684,0.6653492461,0.8278654003,-0.4729248333,0.1720476694,0.3996966382,-0.445621585,0.7156104654,0.2644591359,0.127790306,0.0678231033,0.184392443,0.3097129693,0.4392179041,-0.2887064225,0.8924764603,-0.323679206,-0.2876696359,-1.0606775843,0.5490528991,0.1966568668,-0.2899134425,-0.6568965091,-0.0822398364,1.1109741559,0.4944151686,-0.4102897071,0.7268955099,0.5699870787,0.6494166994,-0.6931944212,0.3436326253,0.169310833,1.29002388,0.2367292968,-0.6543472189,-0.4761085368,-1.0976064588,-0.5457535203,1.9247717005,0.4044703869,-0.3590489921,-0.408959119,0.1546029236,-1.1718132888,0.8256557121,-0.496198674,1.6408617383,0.1013633474,0.6665911089,-0.2187588747,-1.2854264736,-0.6816483513,-0.2198575178,0.2314385212,1.5395270714,0.7594451673,0.1581505582,0.566592537,-0.6079168776,-0.6152106661,0.5133436777,1.1015715649,-0.7403042824,-0.2555579139,0.9019252228,0.9512550257,-0.4179871655,-1.5153252221,0.027227661,0.583990537,0.7379696239,-0.4715340689,0.4118577491,-0.6453554694,-0.1978820469,0.1724248269,7.8205191768,-0.7698484194,-0.396352576,-0.8087659626,0.2263087878,0.3465336027,0.0734263486,-0.0885822623,-0.6871780342,0.0035523907,-0.6538067952,0.223694924,0.3582289769,-0.2183825453,-0.1008195115,-0.776205833,0.7072019898,-0.1636798176,-0.0246161638,-0.8227170315,-0.5885803618,-0.297559356,0.9225292116,0.2008554152,0.22911419,0.8751260735,-0.0893164461,-0.1255423636,0.6524601166,-1.246484048,-0.852972662,0.4646108078,0.9488776457,-0.1751171958,0.4435808748,0.3575792241,-0.9329098595,0.0327745417,0.2677126343,0.1757764433,1.4755024149,-1.1901977631,0.0244479942,-0.2816558431,0.1584620974,3.1921585899,0.90066999,-1.015766802,0.825947398,2.1079132684,0.0738094809,0.8698175324,0.2222110663,-0.8527040975,0.9822607857,0.8129990687,0.3523114174,0.7369590735,0.0187941853,0.0965676912,0.4262269591,-0.1871734588,-0.1057618513,0.0111720483,-0.0975565667,-0.9695285572,-0.0949334186,1.3430462364,-1.144345102,-0.4545193727,-0.7759419329,0.5113188465,0.3083612541,0.2208804371,-0.3976185855,3.3502735612,-0.1207844837,0.6388629502,2.5409743643,-0.107112309,0.8812239983,1.1295201649,-2.1726148586,0.3895094796,0.1644005869,-0.9676379483,0.1575633655,-0.0037429706,0.6893662341,0.7065434944,0.0322917938,0.3514732345,-0.7843441142,-1.0437174016,-0.0585927233,0.1116429719,0.0185468583,0.3514632748,-1.2358589892,-0.1656307034,-0.1789357013,1.0376818667,-0.0826602414,-1.3543462337,1.1252988948,-0.0933252567,-0.7256879262,-0.2410419905,-0.6384504603,0.0740427817,0.0728680903,0.1404783177,-0.6915156788,-0.6818816805,0.1641110184,0.1394050629,0.2657281474,-0.0912648298,0.3230841158,-0.8185278701,0.6010504489,0.4092546775,0.1896605078,-1.5091880509,0.0071825731,-0.1762675581,-0.4142147161,0.3095131952,-0.2505128548,1.2934435864,-0.8364075313,0.1846104231,0.1217070529,0.1258046757,0.8551548972,-0.5469872046,0.1752815753,-0.1519632952,0.0089985226,-0.8527153093,0.8466787307,0.2830927094,-0.3624971194,0.7981732457,-0.5201201768,-0.9768287086,-0.8157715807,0.2907894627,-0.3276255681,-1.4941773884,-0.1421728808,0.7749563238,-0.3652789914,-0.6523402372,0.4532211318,0.4825280106,0.1677657466,-0.3616732773,0.5756808835,0.0060509496,-0.6108749686,0.391105377,0.5523035541,0.3949366314,1.3238826337,-0.2890690559,-1.146358698,-6.0562189172,0.9729080209,-1.0234382292,0.1403621051,1.1242455465,0.8870334601,1.0722308725,-0.5725427337,-0.5643845988,-1.207097512,-0.8742425452,0.2735809947,-0.9837086605,0.3079138651,-0.2030683955,-0.0887369737,0.3146593165,-0.0467496675,0.0791970067,-0.4172032646,0.0539257511,-0.0655846778,0.2367008076,0.1375848074,-0.0461374641,-0.0464023922,0.0576962048,-0.041483388,-0.1973860294,-0.1792775974,0.435268678,1.7948384742,-0.5324907299,-1.250955375,0.6207372136,-0.143537221,-2.2535684743,0.1149580645,-0.0840857268,0.3824246557,-1.0144573219,-0.2935296615,0.1007184159,-0.503308815,0.6479678296,-0.065996544,-0.1089755898,-1.2003770875,-0.1063668046,-0.7370567145,-0.1844886914,0.3813959151,-0.5858986841,0.6059487836,0.0630017195,0.7965485983,0.8426752089,-0.3162168397,-0.839502031,0.3241462063,0.0228592574,-0.8264956155,-0.9347591951,0.4420480026,0.0915109983,0.2846166226,0.1530740092,1.1859486301,-0.4940266944,0.5253864825,-1.2287642682,0.0158989018,0.4256390395,-0.8720140217,-0.9658173817,-0.7535427456,-0.4952891343,-0.3552321852,-1.4762975505,0.124005966,-1.078937549,1.6776295389,-0.4396221698,-0.6680087137,-0.2910094149,-0.5135852381,-0.051669976,-0.8714931627,0.8314173213,-0.8109409146,-0.1199563784,-0.8229965201,0.0269891259,1.4866447712,-0.3130916508,0.7996522788,-0.6599676567,1.1692653891,0.1971563507,-0.1769948567,-0.5160139347,1.1376213601,-0.0521502658,0.7261210796,0.9043519883,0.0255683602,-0.5529009466,0.0528295663,-0.704060018,0.8096603956,-0.6421239835,0.3120109468,0.1231945202,1.5758038359,-2.385244399,-0.572610796,-0.1366964269,0.4755153677,-0.1033883948,-0.414425475,0.052326742,-2.0966734942,0.3840194452,-4.8500770925,-0.5065397978,-0.0495126534,0.5008370419,-0.3210360167,-0.0952735898,0.2383626832,-0.0383247705,-0.6362251525,1.0163704146,-0.099389424,0.3859619117,-0.1706834152,0.7111706897,0.4469318356,-0.4278125262,1.0502466906,0.2304730284,-0.7184864202,-0.7972963067,-0.0191259209,-0.2804017118,-0.1885410967,0.1001361245,0.4130412658,0.6963012076,-0.6417412902,-0.1969370542,-0.2060997187,1.7340854959,-0.4334016248,-0.5812865223,0.0269661831,0.2494452176,-0.0632004331,-0.6211838153,-0.2467109563,-0.4178904349,-0.0528952775,-0.3085942354,-1.0723335873,0.5213658379,0.5546043484,1.0815736228,0.0502988307,0.3402634601,0.6468024579,-0.5734470605,-0.4484422437,0.2857321637,0.3781533611,0.0862110217,0.5238610354,-0.0571263849,-1.2905641043,-1.8837935741,0.1052901934,0.1307137477,0.0467007214,1.2247347005,0.1993649429,1.3296514388,0.0006388255,-0.1075002778,0.2277470579,0.3951268242,0.8445885515,-0.2682918574,1.0410472824,-0.9179955479,0.9150239352,1.1339216877,0.9949592841,0.5793160416,-0.4685047476,-0.6658206904,-0.1518328987,0.5742085282,-0.9582157806,0.0752621078,1.0331223689,-1.3544503155,0.3993336745,-0.371343185,0.3820692646,-0.5993860464,-0.1184563313,-0.4119484578,-1.3130509932,-0.8169809053,1.2002664214,0.442040403,0.5639727076,-0.0007594294,-0.4376774589,0.198863902,0.4261882683,-0.3554098034,-1.1065438323,-0.2562351089,-1.8370749686,0.7555600084,-0.1879378885,0.4901693239,0.052031467,-0.2554325617,-0.3440923439,-0.1669704257,-0.5023141004,-1.5374845809,-0.3489561245,-0.315390585,0.2832134732,0.0826420455,-0.2381258477,-1.6241818827,0.0641767076,0.0925625904,-2.0105483029,-0.2015978156,0.2988984863,-0.623575948,-1.1044052826,0.0044201572,0.1688476288,-0.9175354939,-1.2931438713,-1.9588560092,0.6579250725,-0.3706604611,-1.1336216912,-0.728917478,0.4384493326,0.580190991,0.7536053023,0.3376940819,0.5913620618,-0.0488380068,0.4220750177,0.6528334148,-0.9622752568,-0.4285441933,-0.352665762,0.3989001749,0.4619531507,-0.6648835399,0.0882240763,0.6070409117,-2.4476291571,1.2122096473,-0.0352573657,-0.2903967275,-0.0960959245,-0.1380883549,-0.0504520534,0.2039854632,-1.6564732774,-0.1668570695,-6.3068209768,0.0918147559,-0.6446554194,-0.2997452819,-0.9494703118,0.0277563151,0.0984626331,0.337676525,-0.0429725359,-0.5218209664,-0.3235829331,0.5117771889,0.0099746841,-0.8410368183,0.367641398,-0.0459916937,-0.8782127132,0.4360443119,-0.2416364662,-1.2751026295,0.8448538978,-0.4267013933,-0.9892370528,-0.7931175132,-0.2190969558,-1.5626468559,-0.3402314925,0.2222903306,0.0656865435,0.2901188447,0.3911594123,1.969442058,0.9365762804,0.249892068,0.1897639195,-0.0486428955,1.5865520455,-0.3353213037,-0.7343369862,-0.0989518859,1.1370210114,-0.2347104744,-0.0273533463,0.1690513608,-0.4339007909,-0.8577135211,-0.229898893,0.5353773579,-0.146360362,-1.2378360181,1.0487711297,-1.2677942999,0.334941027,1.1147081458,0.4580074462,0.2815028624,0.9093156626,0.6145480107,-0.0521714841,0.1307384073,1.2823091664,0.5784633104,0.5571233093,-0.3688028088,-0.4394634959,-1.610906356,0.9101404258,0.8430485416,-0.4626028046,-0.6137016647,-0.2193689006,0.5724559455,0.0778453024,0.1169757673,0.9338566802,0.0532068672,0.0930015707,0.8841113193,0.969134562,-0.0122476102,0.0222856031,-0.0452703456,-0.0790458473,-1.6286711789,-0.2149195374,0.7229441262,-0.5524117713,0.5272537622,0.100497053,-0.1617300983,-0.6491162326,-0.3306096232,0.8922019051,0.3243214763,-1.5595499435,-0.1523912722,-0.4013018874,0.4709603567,-1.088217415,-0.2764248774,0.0870200126,-0.1671905957,-0.2722858464,-1.2633137729,-0.3847230323,0.7237771386,-0.5668664524,-0.1385586722,-0.5437142685,0.4348036318,-1.5189618276,-0.3392571944,0.2013038523,-0.0710028782,0.0657757786,-0.1904697342,1.1364985563,0.2782875047,-0.6361055287,-0.3408659962,0.665515653,-0.3191828717,-0.6217086014,-0.67235808,0.3330271261,-0.2229930691,-0.773051509,0.271706177,0.5486600137,-5.4010316517,-1.1450310166,-0.215805149,0.4312874134,-0.0738096817,-0.07557922,0.0003229904,-0.0892826999,1.0063903888,-0.3684042348,0.6813162841,1.0345297923,0.5335221276,-0.4299835133,0.0839872943,0.2662297431,-0.9644689884,-1.1116859894,0.5460571532,-3.0261410016,0.1977897432,0.5728394742,4.6825653469,0.0455890225,-0.5657720702,-1.1066203742,0.0787615601,-0.1154771099,-0.2648162009,-0.9506070325,-0.1045814878,0.1087345019,0.3376823045,0.0121494576,1.6690870657,0.1816076595,-0.8298648003,-1.448239418,0.0122147749,-1.2116702091,-1.2199335776,-1.3391675252,0.0194903665,1.1135108302,0.2188098829,-0.4374168984,-0.4101838984,0.6632334922,0.2627885255,-1.4486819674,0.0996286426,0.4562782743,0.0744592212,0.4743410239,0.3310170106,0.3078070649,1.1789283876,0.1360107776,-0.9221584545,0.8673425241,0.8309647025,0.5643559453,1.1030547736,-1.0864867534,0.0640293048,-0.4277561222,1.06636454,0.4914185317,1.8798173927,1.1090024218,-1.9022233497,0.3702328615,-0.5817625286,1.230791125,-0.3092261446,0.89004413,-1.9961624419,-0.5043713224,-0.3345323517,0.3120848937,0.2519979922,0.2115929425,-1.1907413092,-0.389210074,0.2303365616,-0.0017806975,-0.4097898752,1.1097161725,-0.7097695467,0.7396732857,1.2568327812,-1.3505744679,-1.1842682993,0.8291327952,0.3781917572,0.5912337954,-0.791043491,-0.0482383133,-0.9325563401,0.6177092168,-0.1671437121,0.7481359319,0.5498974986,-1.2454200422,1.2534003442,0.2260854073,2.1231057978,0.1279261979,-0.0107155276,-0.9544550816,-1.0410854557,0.8568300181,-0.61147157,0.8971419641,-0.1064969213,0.0374244072,0.2966823698,-0.2143286599,-0.2523098142,-0.6110694496,1.2549104151,-2.2028677724,-0.3229268061,-0.0768429651,-0.1263058559,-1.3587051502,0.2324041556,0.7653339851,-0.451024816,-0.0233376829,-0.0058914817,-0.1692717996,0.3175326888,-0.3480810337,-0.0557098769,-0.7588296887,0.4719927373,-0.3157151616
